{"layers":[{"out_depth":41,"out_sx":1,"out_sy":1,"layer_type":"input"},{"out_depth":30,"out_sx":1,"out_sy":1,"layer_type":"fc","num_inputs":41,"l1_decay_mul":0,"l2_decay_mul":1,"filters":[{"sx":1,"sy":1,"depth":41,"w":{"0":0.029549111568744877,"1":-0.24653187230984203,"2":-0.06703120929827194,"3":-0.07152686877682822,"4":-0.05159565071761035,"5":0.17213812627338945,"6":0.0665866268695712,"7":0.08968709602073516,"8":-0.22554343630439597,"9":-0.04133245064848653,"10":0.11347363048483179,"11":-0.13651342420801024,"12":-0.025746206416987077,"13":0.0019046238187887892,"14":-0.07697337401987099,"15":-0.03223757448641702,"16":-0.04320917444667388,"17":-0.04210775672496291,"18":-0.019707876971523732,"19":-0.08492494031873983,"20":-0.001459089997423576,"21":-0.0008390809052902491,"22":-0.08422146567917863,"23":0.009176779691218884,"24":-0.004899420567756712,"25":-0.12876014448871057,"26":0.043792028400715534,"27":-0.04773220485841832,"28":-0.2522589242789399,"29":-0.09633298103393766,"30":0.11134590528308932,"31":0.060261687849797956,"32":-0.17402375147449411,"33":-0.18467004268284423,"34":-0.02348830084351735,"35":-0.1380464349993837,"36":-0.1771741193623482,"37":0.10975745161178349,"38":-0.09451514091831208,"39":0.13633034934406707,"40":-0.222716487983073}},{"sx":1,"sy":1,"depth":41,"w":{"0":-0.3530307995674406,"1":-0.15008547147312323,"2":-0.17713066610554443,"3":-0.07130240529464846,"4":-0.1023108643092616,"5":-0.11906766859721415,"6":-0.007653928325427406,"7":0.23659747892451893,"8":0.029262759249611255,"9":-0.09313118189334241,"10":-0.2794769655456369,"11":-0.015770883056629,"12":-0.01506964434860387,"13":0.1261768640146266,"14":-0.059845445587739216,"15":0.06669925127298539,"16":-0.009305442453675001,"17":0.017432333789025953,"18":0.1786660454145412,"19":-0.12931118358261584,"20":-0.10370598195485908,"21":-0.2776155953647564,"22":0.05864184356331531,"23":0.17920903343008857,"24":-0.23790770886108575,"25":-0.06831714436299187,"26":-0.06663835288817763,"27":0.20719183291983012,"28":0.0022699834261362445,"29":0.09295849717492612,"30":0.12637737137684846,"31":-0.023935512239112493,"32":0.07658219600904138,"33":0.06299114858556668,"34":-0.16941739852490661,"35":-0.025049044496734396,"36":-0.025684729938981802,"37":-0.02165707903085446,"38":-0.024776498665577136,"39":0.0887226952703142,"40":0.0800580349180909}},{"sx":1,"sy":1,"depth":41,"w":{"0":0.1780663940095768,"1":-0.0904554464622029,"2":0.17354069638666764,"3":-0.34394605886946156,"4":-0.22021762635476308,"5":-0.02622794272795844,"6":-0.09727496743580226,"7":-0.003499275820256231,"8":0.15314135000669407,"9":-0.06269962580936977,"10":0.024278711821567746,"11":0.11926935818325687,"12":0.00673532975306318,"13":-0.11176833118694364,"14":-0.07409921323579913,"15":0.17226016329929772,"16":-0.1536408153551121,"17":0.021337322431875843,"18":-0.01463793807534854,"19":0.04489275308473176,"20":0.06798924433294712,"21":-0.20084718903739182,"22":0.0008922357902746259,"23":0.035071766542478185,"24":0.10942344656335408,"25":-0.18343173682913516,"26":0.22365459447837566,"27":0.01020619993895868,"28":0.07411300767874156,"29":-0.08210939827804296,"30":-0.28682886448924044,"31":-0.21931432370375686,"32":-0.32500203846107406,"33":0.1236644762163117,"34":0.13856295877284147,"35":0.1155196582068006,"36":-0.03908294566169256,"37":0.0761850277346381,"38":0.04566008483879992,"39":0.08322121111409335,"40":0.04915604258348758}},{"sx":1,"sy":1,"depth":41,"w":{"0":0.03455068220183153,"1":-0.01440468548534094,"2":-0.08109552406865528,"3":0.004385098333437695,"4":-0.13304336157665467,"5":-0.06035122860961446,"6":0.10031826165795442,"7":0.06438001558842388,"8":0.1161128818671014,"9":-0.3726809503086241,"10":0.11638486170735245,"11":-0.007521761155760574,"12":-0.004826500051341498,"13":-0.004550099030877054,"14":-0.18850756653113565,"15":0.08833673134092687,"16":-0.22792132112191968,"17":-0.20820763881474905,"18":0.08669039969077139,"19":-0.13054611396684707,"20":-0.13474716035449097,"21":-0.13057548331679492,"22":0.1689516443192746,"23":-0.10162841429296271,"24":-0.08900298343386857,"25":0.28640772603416853,"26":-0.13551554193336454,"27":0.12332640534047278,"28":-0.07353571947649061,"29":-0.06660588115156363,"30":-0.08677469596844407,"31":-0.1540740455751152,"32":0.42394426322133033,"33":-0.09912938200200906,"34":-0.13748470065581933,"35":-0.00012133760116522518,"36":0.10999295890700553,"37":-0.09711228275508756,"38":0.10887138014554353,"39":0.1781917523970668,"40":0.05214396570031469}},{"sx":1,"sy":1,"depth":41,"w":{"0":-0.18009021681947157,"1":-0.2412319364565315,"2":-0.08322761548344641,"3":-0.15603935915342396,"4":0.0013670524596646708,"5":-0.2583960250768104,"6":0.1556461199204959,"7":0.09525883139975949,"8":-0.012817670114123759,"9":-0.044028373245150465,"10":-0.06951698939821278,"11":-0.10377583299377105,"12":0.09389688259375761,"13":-0.09916745291131075,"14":-0.17045121279024159,"15":0.09508333223024745,"16":-0.10931828123922004,"17":-0.1977150304099836,"18":0.08191846149501622,"19":-0.25895109692978524,"20":0.010275549664563484,"21":0.14468868215771896,"22":-0.09862495361451679,"23":0.040841152819969626,"24":0.002694113446205143,"25":0.2590041066988465,"26":0.05365347953880245,"27":0.08712502585303435,"28":-0.08245765432380436,"29":-0.19820896909192687,"30":-0.11361495739365685,"31":-0.10409219197692395,"32":-0.04068955949594397,"33":0.04702858602883776,"34":0.20949092874109188,"35":-0.034919145684502766,"36":-0.14893320272365515,"37":-0.18147953227589944,"38":-0.011297021062087024,"39":0.024272130311841927,"40":0.11308545146544699}},{"sx":1,"sy":1,"depth":41,"w":{"0":-0.272501049558734,"1":-0.14722964539536681,"2":-0.21681577485562395,"3":-0.2828846897540526,"4":-0.11970405025542993,"5":0.003963271676855688,"6":0.046452919500893364,"7":-0.3395223483169122,"8":-0.24860701591232318,"9":-0.1577787339840199,"10":-0.18834281162277342,"11":0.005634663926464482,"12":-0.15528432015302074,"13":-0.04754697829090623,"14":-0.2593357765696304,"15":-0.15439741500143225,"16":-0.15467150737610694,"17":0.06383852497677107,"18":-0.2089806185848593,"19":-0.23478314738547762,"20":0.13383649374552326,"21":0.19292183872351232,"22":0.06521948538615678,"23":-0.05975369829158121,"24":-0.04311465943048486,"25":-0.04740585228071202,"26":-0.009974901203336892,"27":-0.23859616619295704,"28":0.07223796185580877,"29":0.13570744272946525,"30":-0.11502525800868059,"31":-0.06640510338192708,"32":-0.09655023323539626,"33":-0.021968013068455274,"34":0.3415653984701596,"35":0.21975983953230993,"36":-0.012179797452438792,"37":0.06305486675273013,"38":0.1284166186695036,"39":-0.07425598877324087,"40":0.10884885411282455}},{"sx":1,"sy":1,"depth":41,"w":{"0":0.286207282530387,"1":-0.07308947915975116,"2":0.18635553227170068,"3":-0.10858573086364695,"4":0.042846646777667204,"5":0.22947349474351972,"6":0.12637789604654823,"7":0.21759619150363466,"8":0.26373847357224983,"9":-0.11508961785371967,"10":0.1169167963993251,"11":-0.17277385150708696,"12":-0.1712753367303354,"13":-0.2095922678950469,"14":0.07089620227999276,"15":0.06445187114439263,"16":-0.20961901765130253,"17":-0.11185642650242687,"18":0.08317662665221223,"19":-0.16741579913584295,"20":-0.05591412317279671,"21":0.025266519754846697,"22":-0.07187519039328942,"23":-0.2985538112739358,"24":-0.010092242558020638,"25":-0.030498033175276388,"26":0.09940105404712292,"27":-0.06397941133051274,"28":0.1379214478405518,"29":-0.03810392721755144,"30":0.01198077252474396,"31":-0.013122920594651151,"32":-0.015457519161590683,"33":0.04564474528910174,"34":-0.15225220735041844,"35":0.10839293319367804,"36":-0.08398403890549122,"37":0.15013705749395403,"38":0.12001997297061864,"39":-0.25137211966646084,"40":-0.005371822921786925}},{"sx":1,"sy":1,"depth":41,"w":{"0":0.28294925686372235,"1":0.09820781863560092,"2":-0.06267008099493022,"3":0.029617103378777272,"4":0.11820912321769954,"5":0.023550422703467525,"6":0.025555753083375356,"7":0.20402008614252132,"8":-0.10428658646943073,"9":0.10962836924825245,"10":0.10106032246541138,"11":-0.09314063551578819,"12":-0.3835383106056017,"13":-0.12803101520330404,"14":-0.01799514755019776,"15":0.19307962114727,"16":0.06748659033453218,"17":-0.12663834746569966,"18":-0.016436708064804025,"19":0.046038075947842066,"20":0.15762073969315707,"21":0.003390360588775448,"22":0.2916397038677814,"23":-0.00194517910254872,"24":0.02517206843249183,"25":-0.1567235889247815,"26":0.1116616115252358,"27":0.024094273596871153,"28":-0.028316726472876478,"29":-0.03638446993519862,"30":-0.05334341167119096,"31":-0.15950203064106272,"32":0.03530427920765409,"33":0.15180902504865018,"34":-0.04529339895233275,"35":0.2888571606341427,"36":-0.0830775005597903,"37":0.14391016422994854,"38":0.028446741104100826,"39":-0.13894639031519757,"40":-0.11245948910820469}},{"sx":1,"sy":1,"depth":41,"w":{"0":0.02620377428427206,"1":-0.022052361105392285,"2":0.12126988022133907,"3":-0.12464710082926993,"4":-0.035496813436184965,"5":-0.029198955555827206,"6":0.11871665630795146,"7":-0.0428496344619551,"8":-0.011691708115303992,"9":0.013789638306824416,"10":0.08599797199714615,"11":-0.001797099831221933,"12":-0.18428659792231827,"13":-0.005643865730274,"14":0.08223757081262817,"15":0.1183042205184437,"16":0.021991310606770557,"17":-0.30129419651982003,"18":-0.007112678402294754,"19":-0.1529284014452494,"20":0.027867399794735292,"21":0.19062175910727375,"22":-0.04430717002803567,"23":0.16821671646367128,"24":0.11915158261325857,"25":-0.17040873211524754,"26":-0.1817342705054291,"27":0.020773083266895698,"28":0.014166214736758375,"29":0.07681657434127212,"30":-0.06690975513146356,"31":0.02994123016191719,"32":0.1256987124541431,"33":0.21133585587593748,"34":-0.1335799202398258,"35":0.05836609360981791,"36":-0.07973018067694634,"37":-0.028941881921619367,"38":-0.08532020925992605,"39":-0.4018055118326426,"40":-0.09178868407049874}},{"sx":1,"sy":1,"depth":41,"w":{"0":0.25352385916226,"1":-0.16530452140904736,"2":0.3303596248378625,"3":-0.07220381802076803,"4":0.23196439141306954,"5":-0.20352203068505048,"6":-0.2517600281062051,"7":-0.13951856106839025,"8":-0.08710622557739205,"9":-0.19021881625421008,"10":0.22279339716705326,"11":0.0965549847382472,"12":0.23790623459652824,"13":-0.013779770350680981,"14":-0.07126459872492366,"15":-0.028892097023308704,"16":-0.007265536288265439,"17":0.06437628917788671,"18":0.010149332412732127,"19":0.049123410986467345,"20":-0.13707293388341196,"21":-0.060802614789454354,"22":-0.24268248448553165,"23":-0.010859250847538965,"24":-0.019811624113276322,"25":0.09951512980236674,"26":0.2866926041327661,"27":-0.07276231682074337,"28":-0.12937810476167827,"29":0.053146692244200655,"30":-0.03833016428239801,"31":0.051923701066177455,"32":-0.00589357129109389,"33":-0.19477794696030953,"34":-0.1793054485422591,"35":0.09229191952226448,"36":0.10056919993928141,"37":-0.14977246004742997,"38":0.2305145225684217,"39":-0.20810438022350772,"40":0.2673577453268955}},{"sx":1,"sy":1,"depth":41,"w":{"0":0.10077259536017033,"1":-0.1166999819906018,"2":-0.08904049256294501,"3":0.09569333028313544,"4":-0.04940151430924188,"5":0.19106094673219967,"6":-0.0061727020092459,"7":0.06172872319292525,"8":0.0060713013784715756,"9":0.032774664717266845,"10":-0.1780320629327883,"11":-0.09832170139871009,"12":-0.04524054790977878,"13":-0.2874700618822017,"14":0.0567674391653452,"15":-0.1535588862104999,"16":0.09231078222025518,"17":-0.1882590479789643,"18":0.14856306017504817,"19":-0.12045405743836365,"20":-0.02920081903709349,"21":0.16626729486843797,"22":0.05229158632483826,"23":-0.18787258354075834,"24":-0.09322402072626026,"25":-0.19658241352310432,"26":-0.000020783283720718842,"27":-0.2554037629310985,"28":0.2515197715523077,"29":-0.13623468305260175,"30":0.2222045578036444,"31":-0.07034848909113399,"32":-0.16740521853306484,"33":0.006524590893682178,"34":0.061364766766430955,"35":-0.03940269207267091,"36":0.2505630947737249,"37":-0.022315200245857814,"38":0.08417219312933641,"39":0.14047561981168138,"40":0.02111153018203079}},{"sx":1,"sy":1,"depth":41,"w":{"0":0.014971799524727627,"1":-0.0871213224342098,"2":-0.25504597030139414,"3":-0.16016354301000416,"4":0.013156096541842726,"5":-0.10375787018756051,"6":0.22736178518491568,"7":-0.09659661085082231,"8":0.18518681283720412,"9":0.05895819776274924,"10":0.19745931252514037,"11":0.3209928365285226,"12":0.26915002599231885,"13":-0.13033114115079678,"14":-0.05327408469154794,"15":0.12711050932446685,"16":0.05447443518123006,"17":0.06126983237338206,"18":0.00494112795546791,"19":-0.07440606806746737,"20":-0.06626364305404271,"21":-0.062060932653642084,"22":0.042349334257935405,"23":-0.006674028268864691,"24":-0.20448166861204375,"25":0.06221376866237548,"26":0.16288164336986788,"27":-0.05320127066479138,"28":0.1224322792498773,"29":0.3231187531599405,"30":-0.20579669926716548,"31":-0.053383237136662404,"32":-0.17851021375281018,"33":-0.15535421733929558,"34":0.1560866181162961,"35":-0.15496014380812742,"36":-0.3446401147004295,"37":-0.3677924488884439,"38":0.06926134470084894,"39":-0.19074813273292401,"40":0.018553085246192643}},{"sx":1,"sy":1,"depth":41,"w":{"0":0.09002204973927005,"1":0.17536442508668737,"2":-0.24602155885559626,"3":-0.10056925655552017,"4":-0.028141714796764417,"5":-0.17947682437916662,"6":-0.05762491124330244,"7":-0.0574167982103264,"8":0.2759967219439137,"9":-0.1760137390069294,"10":-0.27018781871437114,"11":-0.09666093680610181,"12":0.21370530751101469,"13":0.17964543372666325,"14":0.17295027593244586,"15":0.2111142817301226,"16":0.0066906710762990665,"17":0.11350559841381244,"18":0.13871317704963607,"19":-0.011366200206059149,"20":-0.12658777020496073,"21":-0.15206740868393298,"22":-0.11679020077070049,"23":-0.14761959449382783,"24":0.0900079009088612,"25":-0.008638635322566158,"26":0.12892119172965982,"27":0.20925358524274368,"28":-0.11927932136683123,"29":-0.142907481412949,"30":0.07943600206944203,"31":-0.026426901360262,"32":0.15625046840539816,"33":0.09384777244705954,"34":-0.016528321356689458,"35":-0.05691634470744303,"36":-0.05718114824461381,"37":0.14602125351013856,"38":0.11483107029086236,"39":-0.013375264556057136,"40":0.12876009028662475}},{"sx":1,"sy":1,"depth":41,"w":{"0":-0.03876734043404987,"1":0.0021932856350978373,"2":-0.30401224510833486,"3":-0.11257088948855414,"4":-0.01776986119547906,"5":0.1460895237753737,"6":0.10084011149435586,"7":0.07190826842028708,"8":-0.0568771448512721,"9":0.1866775054778293,"10":-0.08533208984860713,"11":-0.33424562465128094,"12":-0.0662549858862834,"13":-0.015712504231741267,"14":-0.11206215981449824,"15":-0.06584320483517322,"16":-0.10826804117890523,"17":0.12141352472261359,"18":0.2572620084730494,"19":0.0630086414683046,"20":-0.056745367198000864,"21":0.15714499944828983,"22":-0.14911331772342404,"23":0.07531243004684066,"24":0.2417831459053297,"25":-0.14767696375289904,"26":-0.08265536693761207,"27":0.06418241953013289,"28":-0.3858641711847567,"29":-0.05147196968269649,"30":-0.10448418948205299,"31":-0.5523389161314308,"32":0.10869894884014641,"33":-0.16321460190239692,"34":0.23683181180002003,"35":0.037680622539498325,"36":0.10160466455068545,"37":-0.12866412238169497,"38":0.049493312581853716,"39":-0.05598087037197194,"40":0.14386097478667736}},{"sx":1,"sy":1,"depth":41,"w":{"0":0.2982000493427377,"1":0.06006066108084239,"2":0.2215420036204758,"3":-0.058919015854640586,"4":-0.2020341144112799,"5":0.02434655267342644,"6":-0.12010571042446372,"7":0.19043254202297158,"8":-0.15099523131341938,"9":0.08720537786271336,"10":0.05368874066882642,"11":0.1163454095847477,"12":0.024770737786332018,"13":0.046935661636463226,"14":-0.013117853488912132,"15":-0.08106800296684089,"16":-0.10032485179993736,"17":0.0019902496864333315,"18":-0.016119786692576795,"19":-0.442808636993249,"20":-0.0017253720485353819,"21":0.036758152621509624,"22":-0.09105589890848732,"23":-0.05601131867152936,"24":-0.10550680687713121,"25":-0.0008619809345326282,"26":-0.05726971597591842,"27":-0.026661889535393495,"28":0.02601335533317229,"29":-0.04218964543425154,"30":0.04407874225695741,"31":0.31312052052019385,"32":0.06345349469235756,"33":0.02812448385941611,"34":-0.07714537459971155,"35":-0.019476845318297593,"36":0.11281810823331423,"37":0.06349693779242253,"38":-0.029068955001453567,"39":-0.2651556616603377,"40":0.011575396258317727}},{"sx":1,"sy":1,"depth":41,"w":{"0":0.164475464162901,"1":0.47912099013105025,"2":0.4272965518088282,"3":0.5650805441200298,"4":0.5968466531437163,"5":0.47276274316544903,"6":0.6669859551121533,"7":0.6629859482713496,"8":0.16880961530300786,"9":0.6926528851754581,"10":0.44961035721192927,"11":0.14358269300858725,"12":0.09465286915822237,"13":0.07157898869630214,"14":0.019006683963958076,"15":0.08842762804228395,"16":-0.12300889541097768,"17":0.04224628585329219,"18":0.032200574229109095,"19":0.26276354638112875,"20":0.21844645834348958,"21":0.3581393013496797,"22":-0.053816955001090724,"23":0.0054372213140930735,"24":0.021464518791784938,"25":0.031658596946617316,"26":0.029115240524968295,"27":-0.046411183537441954,"28":-0.07040187444396268,"29":-0.09111295892389525,"30":0.005411290921353739,"31":-0.09330479818330442,"32":-0.05049599279466232,"33":0.002146857318370877,"34":0.4291796642385631,"35":0.0664767395672978,"36":0.13275187218293372,"37":-0.008900095845496975,"38":-0.008269952603084014,"39":-0.011393540638693876,"40":0.033115482473634404}},{"sx":1,"sy":1,"depth":41,"w":{"0":-0.5288899954788565,"1":-0.38294035160262657,"2":-0.28903733616432137,"3":-0.30855259873702323,"4":-0.41080205566571404,"5":-0.3858721740738616,"6":-0.6180877135149629,"7":-0.31869128306970707,"8":-0.45896299940499613,"9":-0.3616702318704072,"10":-0.432646546092625,"11":0.011428655474771704,"12":-0.1394885673876194,"13":-0.2135706057660894,"14":-0.13485545775511834,"15":-0.12321743624575357,"16":-0.278382870751224,"17":-0.0173384506843045,"18":-0.08170331897989497,"19":-0.14087173558247168,"20":-0.30639105844331305,"21":-0.12722721194817466,"22":0.05168575085003744,"23":0.055399725487947714,"24":0.03360834470426065,"25":0.05153532400634069,"26":0.06550040367158146,"27":-0.2899167697535306,"28":-0.1243888895825725,"29":-0.37075821031791667,"30":-0.015195704159827053,"31":-0.21387877699472282,"32":-0.18026259593709718,"33":-0.11021439551035811,"34":-0.1466256974260751,"35":-0.25431070978232745,"36":-0.22890092965102432,"37":0.045292811617197296,"38":0.04141698899157682,"39":0.04000510816738885,"40":0.03637047666890382}},{"sx":1,"sy":1,"depth":41,"w":{"0":-0.20924245341904765,"1":-0.1548739407575477,"2":-0.29547085727104877,"3":0.1462389505919542,"4":0.16046682614205457,"5":-0.1553773235087581,"6":0.18287134843521463,"7":-0.21066979966769955,"8":0.05664292741426003,"9":-0.17659306746604275,"10":-0.3535041215680035,"11":0.11243722511055983,"12":-0.06470460940237882,"13":-0.060582223207457285,"14":0.02111830581765375,"15":0.16537983525870353,"16":0.2268872939684433,"17":-0.12434188808799786,"18":-0.21703819979697772,"19":-0.03347290949945979,"20":-0.23486601040872365,"21":0.13218774077938059,"22":0.04293972746813597,"23":0.25229624908023485,"24":0.2165366254871427,"25":-0.08681060751610489,"26":0.18090038163303446,"27":0.08506358487787853,"28":0.1364192509569355,"29":-0.016520725036679743,"30":0.12349280306514729,"31":0.041953049003487154,"32":0.14198182256484634,"33":-0.1056334089959069,"34":-0.04530197654771313,"35":0.023892528867394118,"36":-0.07576923118721342,"37":0.26345608527215736,"38":-0.08799120043044961,"39":-0.13573562010231743,"40":-0.12926684493935744}},{"sx":1,"sy":1,"depth":41,"w":{"0":-0.03950724911175132,"1":0.33063279819589964,"2":0.12584164894688654,"3":-0.20859132117226611,"4":0.19663709856166714,"5":-0.1440463330921499,"6":0.22059372139747405,"7":-0.12734970065627327,"8":0.46315428336374576,"9":0.04788921964168301,"10":-0.23422680661027162,"11":-0.23694928158973821,"12":-0.2932862498611019,"13":-0.11623656885496157,"14":0.22970795265025942,"15":-0.35260124533077164,"16":-0.09614381671211455,"17":0.16208508085089993,"18":-0.18642099496066258,"19":0.1925408589414825,"20":0.2619994564192754,"21":0.027958725208923108,"22":0.06628693524996103,"23":0.034799253085106195,"24":-0.10360568937726783,"25":-0.020910662027871375,"26":0.0718529503112363,"27":-0.09220142780301835,"28":-0.02864021872953223,"29":0.1610432253728513,"30":-0.1472381226568114,"31":0.08120300869271341,"32":0.10564038578422216,"33":0.17058060941892278,"34":0.05498322811766607,"35":0.178710897997882,"36":-0.050865959612785366,"37":-0.11650536127414889,"38":-0.21600124416366395,"39":0.14981617318104287,"40":0.15293819922513144}},{"sx":1,"sy":1,"depth":41,"w":{"0":-0.2590696064797456,"1":0.08228276481687724,"2":0.07538242017034445,"3":0.10273411881261085,"4":-0.0059943158138421535,"5":-0.19692334292558628,"6":0.09647283261139748,"7":-0.18736488498224782,"8":-0.0011161490046866813,"9":0.014540815599023748,"10":0.3079666026563442,"11":0.06386325228442569,"12":-0.09778484629377822,"13":-0.11466530303661829,"14":0.25682491004796576,"15":0.1747048051359112,"16":-0.18718821124035587,"17":0.02936798637501192,"18":-0.155686793294716,"19":0.05347637639783036,"20":-0.03170646511641743,"21":-0.0849944982287611,"22":-0.2032188701487538,"23":-0.005691910781870835,"24":0.00573699753739691,"25":-0.15007032409390383,"26":0.024025710629795482,"27":0.09954107253900503,"28":-0.18812490802254003,"29":0.15135937318124593,"30":0.027600600486013496,"31":-0.05929926665226001,"32":-0.03160295811903505,"33":0.02978270795365594,"34":-0.16728345104817358,"35":-0.29819500511121244,"36":-0.0360737077425325,"37":0.2804354817149017,"38":-0.013934459623680255,"39":-0.12680744519215958,"40":-0.0390012100080571}},{"sx":1,"sy":1,"depth":41,"w":{"0":0.17390068886606955,"1":0.2531677506287196,"2":0.03268644778497709,"3":-0.014014110843967458,"4":-0.08277414862066748,"5":-0.057527916052475946,"6":-0.1759660000465033,"7":0.2970697230790161,"8":-0.11785831774544431,"9":0.22754539835739646,"10":0.15038143086556824,"11":0.2625584286773092,"12":0.018382623502990792,"13":-0.24600886489626667,"14":0.1891490819303223,"15":-0.19049839812367791,"16":0.08429708921270568,"17":-0.07293378095349431,"18":0.009942989655897353,"19":0.021652731349719113,"20":-0.1504582341439002,"21":-0.007351528805146411,"22":0.09997295809280686,"23":0.0309421397946386,"24":-0.02261778235274053,"25":0.0732499420873796,"26":0.2383373003765017,"27":-0.07247088513308379,"28":0.17477364706926699,"29":-0.008971368213736433,"30":-0.14532679050745853,"31":-0.09652081907300988,"32":0.13917847741726924,"33":-0.15073557626241615,"34":-0.01657844141988931,"35":-0.004966196583869478,"36":-0.017138467935384077,"37":0.04416444627947582,"38":0.15165674283484615,"39":0.25451419341664155,"40":-0.12572315035738663}},{"sx":1,"sy":1,"depth":41,"w":{"0":-0.06485180907331371,"1":0.2210376503227825,"2":0.1611917280688625,"3":-0.013702540014429753,"4":0.248870269391053,"5":0.13500209016142925,"6":0.07969032450699853,"7":0.13372657434156413,"8":-0.1050006643446627,"9":-0.09139574411905027,"10":-0.19591756464746926,"11":-0.2749240430069908,"12":-0.07967405518345982,"13":0.255939546898085,"14":0.3869262480929519,"15":-0.05359856711504793,"16":0.08041808916797172,"17":0.2014968677420001,"18":-0.04286416004415057,"19":0.026184004313802987,"20":-0.09360444803156907,"21":0.09962508850005664,"22":-0.003040071761644514,"23":-0.21327266716423007,"24":-0.22834656012001217,"25":0.15257510734787844,"26":0.13619929044659737,"27":-0.007859711177537983,"28":-0.041432526018113085,"29":-0.191306799398055,"30":0.02714291750005768,"31":0.17373661886849648,"32":0.0468282284927287,"33":0.028590927716917517,"34":-0.06834203730193418,"35":0.09684388731867118,"36":0.15443499754355747,"37":-0.17330698150594656,"38":0.15789957348456488,"39":-0.012486347361565375,"40":-0.17486400762541118}},{"sx":1,"sy":1,"depth":41,"w":{"0":0.26066273791397165,"1":-0.04379610041338406,"2":-0.06531936526005133,"3":0.17911973943469015,"4":0.027203400112259,"5":-0.040457951198607664,"6":-0.07926562603727301,"7":-0.1024922253265132,"8":-0.2105887336259907,"9":-0.010236504268123054,"10":-0.14525103879872195,"11":-0.1480240374632598,"12":0.12153517015013544,"13":0.09901825639141718,"14":-0.17060563709144358,"15":-0.010113898373301766,"16":0.08526020391745492,"17":-0.12460550733145309,"18":-0.25080690508827863,"19":0.16294071979334623,"20":-0.04074844343525939,"21":0.12535121653063958,"22":-0.33196842081512684,"23":-0.06319689852786808,"24":-0.21222269387799456,"25":-0.18850700994363645,"26":0.024457022106186665,"27":-0.09900157405206697,"28":-0.04094834314821827,"29":0.03568169305949837,"30":0.0374452736843461,"31":-0.03087928692988347,"32":0.29523327427794943,"33":0.18272690477312958,"34":-0.056216162819537806,"35":0.26396446763882525,"36":0.11003374035733546,"37":-0.1300013671324499,"38":-0.009966564369314899,"39":0.12984941470719444,"40":0.14557990826826436}},{"sx":1,"sy":1,"depth":41,"w":{"0":0.15577109218594665,"1":-0.06368060863329128,"2":0.13807419667328347,"3":0.0326369404395001,"4":0.1031537944605805,"5":0.0062135926960671705,"6":-0.1010803890265644,"7":0.08051332865450572,"8":-0.021800913641557073,"9":0.07328094194343139,"10":0.18252249589429825,"11":-0.054667997257690094,"12":-0.05989745964964942,"13":0.0611706655219809,"14":-0.18473212216515322,"15":-0.09255840317188128,"16":-0.00015625142363662428,"17":0.01905448124259501,"18":-0.11200194073060463,"19":-0.09645598423077355,"20":0.07550207176797992,"21":-0.08572638420921802,"22":-0.007255727822343379,"23":0.04018771059201721,"24":0.052407595378561454,"25":0.19940226428482136,"26":-0.13019000359480842,"27":0.16486863050321493,"28":0.3248907582910684,"29":-0.23960374558128317,"30":-0.11819500489808413,"31":0.026279732453248324,"32":-0.037418367070655864,"33":-0.07183719866209348,"34":0.21024787875459144,"35":0.16629618129939483,"36":0.2501434693059267,"37":-0.018929213404680713,"38":0.012691376058869667,"39":-0.0445962730546565,"40":-0.04813440544195412}},{"sx":1,"sy":1,"depth":41,"w":{"0":-0.0890269931021648,"1":-0.29757435049188213,"2":-0.04621231681201307,"3":-0.007942542510481147,"4":-0.047806442401534074,"5":0.014722005415582839,"6":-0.28126448162223167,"7":0.02552398205605105,"8":-0.1097198173710005,"9":-0.14651216596335667,"10":-0.16617821422896417,"11":0.24400621562432825,"12":-0.2090705776892615,"13":0.12931573791395495,"14":-0.06757129099759555,"15":0.07689296853838269,"16":0.0634139331289299,"17":-0.02993796289633717,"18":-0.060433916328510376,"19":-0.21205448156360623,"20":-0.3068360229035507,"21":0.1325791125701351,"22":0.1608731142194298,"23":-0.046203192161824336,"24":-0.09219275687667607,"25":0.18172780026686575,"26":-0.05001755759123867,"27":0.022560987784797527,"28":0.23465132854973672,"29":-0.07592409302873221,"30":-0.06169018444018591,"31":-0.15237139847953435,"32":-0.013310188693923128,"33":0.2511267265581563,"34":0.15179097586974463,"35":0.1434474794063055,"36":-0.05652878698001809,"37":-0.07031647616748697,"38":-0.14271860217366678,"39":0.04648945938949048,"40":-0.1639643292642033}},{"sx":1,"sy":1,"depth":41,"w":{"0":0.061031885681079596,"1":0.005547839634785793,"2":0.024307179037873387,"3":0.07225998849183574,"4":0.10429209844967197,"5":-0.041807179055729615,"6":-0.02501782992510306,"7":0.041246614892740244,"8":-0.13114378384451542,"9":-0.019015416994420477,"10":-0.09770404888708313,"11":0.1281322645995707,"12":0.18676951764919617,"13":0.10849415617884609,"14":-0.24076876747295167,"15":-0.1267716665835362,"16":-0.09966301087449803,"17":-0.16387335251586901,"18":0.08831620188304319,"19":0.08506696470293607,"20":0.17919224966773364,"21":-0.18933320492111017,"22":-0.1258655188372002,"23":-0.028569302004303573,"24":0.08465162084421315,"25":0.05915931738765682,"26":-0.015762629276346366,"27":0.14510128805549805,"28":0.04685704385339179,"29":-0.048434543660481895,"30":-0.2010418513295947,"31":-0.12463416850644307,"32":-0.03219322188605127,"33":0.11273373620410115,"34":0.26968881485939944,"35":0.13590316047074175,"36":0.022303860056158965,"37":-0.2713876877343455,"38":-0.3332552750054855,"39":-0.2553019407483934,"40":-0.18618318894003993}},{"sx":1,"sy":1,"depth":41,"w":{"0":0.11901285635203096,"1":0.1912521629588487,"2":-0.16016150270927126,"3":0.09143576269311089,"4":-0.12638231496472377,"5":-0.06076579400035467,"6":-0.07299049310632488,"7":-0.0003626780035015878,"8":0.10667298938507853,"9":-0.05883614023437669,"10":0.06281905447994976,"11":0.155961124998845,"12":0.141185445792101,"13":-0.17605487710660922,"14":0.131876323120991,"15":0.15052577310046314,"16":0.012015973557315237,"17":0.0957652031296479,"18":-0.0531194095891273,"19":-0.1227885626799888,"20":-0.03248188293922314,"21":0.08853361727481837,"22":0.026792851961287664,"23":0.13647211522875105,"24":0.21086881902333623,"25":-0.25474314092773354,"26":-0.07827560528600065,"27":0.052767334085628864,"28":-0.08801201760062535,"29":-0.17045207923099676,"30":0.1837658897854693,"31":-0.02826844991552054,"32":-0.1951837109517152,"33":-0.04059307589773021,"34":-0.1258311075930646,"35":-0.09555073147188121,"36":-0.007383441204634797,"37":-0.10306121262581766,"38":-0.04298783962252521,"39":0.10207296136450751,"40":0.09126855046069117}},{"sx":1,"sy":1,"depth":41,"w":{"0":0.06622690616045895,"1":-0.003054098344870707,"2":0.08438167983835006,"3":0.0236189870018824,"4":0.11643243074360474,"5":0.2044896445424588,"6":-0.10709907985303732,"7":-0.07433825072883508,"8":-0.09682602984971066,"9":0.10476361877124682,"10":-0.19668235052085928,"11":0.025549499516243118,"12":0.22346653695155813,"13":0.3165442407059933,"14":0.06282173708294686,"15":0.2443623532962288,"16":-0.10958618630387061,"17":-0.020169236881610705,"18":-0.047444021477284534,"19":-0.18012136529868086,"20":-0.10135157762151613,"21":0.040060709737235724,"22":0.22409032927828829,"23":0.029925268383302502,"24":0.19074632711494707,"25":-0.08853330155629054,"26":0.26053385621210734,"27":0.17267267889118787,"28":0.07075259841416728,"29":0.10263625590062811,"30":-0.11764162295551693,"31":0.10410435568666589,"32":-0.17612620120063746,"33":-0.1753820448825923,"34":0.16311901136055978,"35":-0.09671681383467551,"36":0.10753723691889305,"37":-0.2809654357034958,"38":0.1112876615094163,"39":0.011330101918658578,"40":-0.018536543160652584}},{"sx":1,"sy":1,"depth":41,"w":{"0":0.09968319459418877,"1":0.05164782597820692,"2":-0.1389458527637062,"3":-0.20593873931742482,"4":-0.1021350281931305,"5":0.1945350661874897,"6":0.09102036389662649,"7":-0.018827990813998777,"8":-0.062222837211115364,"9":0.1921874734278748,"10":-0.12126656040848988,"11":0.06819528855075446,"12":0.23813410565274604,"13":0.26053010390871745,"14":0.031707114500130515,"15":0.0635008131308086,"16":-0.1249982425829733,"17":-0.12234222399779524,"18":0.0011035829876769444,"19":-0.041264971965972994,"20":-0.02431078219161105,"21":0.07862691306083551,"22":-0.15987444647520352,"23":-0.21121626493434387,"24":0.09881194806777646,"25":0.2136108736338921,"26":-0.06003743103366137,"27":0.05199605452019629,"28":0.06801501908481417,"29":0.06231540877021374,"30":-0.041247316806269474,"31":-0.12420637782426257,"32":0.07611173349944568,"33":0.03718893571072683,"34":-0.18274763774261527,"35":0.12483146763116383,"36":-0.12491410701406264,"37":0.06975148587128342,"38":-0.015518185032106648,"39":0.11611448408323814,"40":0.12096470110723613}},{"sx":1,"sy":1,"depth":41,"w":{"0":-0.06176750902289862,"1":-0.14590431481110386,"2":0.06587331165682724,"3":0.05894068656205508,"4":-0.17279677394816956,"5":-0.1655142716100071,"6":-0.08135527583145873,"7":-0.08349998499260869,"8":0.02969024026117737,"9":-0.11471826178152938,"10":0.17047844537244808,"11":-0.05337704649743693,"12":0.03730588078752698,"13":0.15594742365572897,"14":0.06516291051829672,"15":-0.09998869988287816,"16":0.32077926044740995,"17":-0.02705631311038067,"18":0.05367534191571272,"19":-0.16101544120791228,"20":0.027383431359857397,"21":-0.2961433141647879,"22":-0.13722151517185618,"23":-0.06565097546475775,"24":0.5209523628051222,"25":0.14612306769250363,"26":-0.032512938677979906,"27":-0.08631733930483389,"28":-0.10750937175082775,"29":-0.13114494177850172,"30":0.1255679360278069,"31":0.15496624972483247,"32":0.166474020861272,"33":0.23400287698050215,"34":0.05173994836417656,"35":0.16020592870925396,"36":-0.08741640929863989,"37":0.23584582818182753,"38":-0.17630445870352057,"39":0.08237930882704173,"40":0.21503222907954428}}],"biases":{"sx":1,"sy":1,"depth":30,"w":{"0":0.09251115973331091,"1":0.08870702956943764,"2":0.10464245072140747,"3":0.10244489591950093,"4":0.08980822415232792,"5":0.0960108182584478,"6":0.10206007100141677,"7":0.09346501169347259,"8":0.0959126177922274,"9":0.09727098863752069,"10":0.09274332206494168,"11":0.09128525684602841,"12":0.10995076152923663,"13":0.09801702222728073,"14":0.09287130932635076,"15":0.10197886050214791,"16":0.10375152295580828,"17":0.09590382704871858,"18":0.09952895370771075,"19":0.09262158996532761,"20":0.10124556117168561,"21":0.10435480264528256,"22":0.09261619365600508,"23":0.11813537975199906,"24":0.09231375963070602,"25":0.07915938115340211,"26":0.10006008658151815,"27":0.10461413699049187,"28":0.096071281574588,"29":0.10427292870321334}}},{"out_depth":30,"out_sx":1,"out_sy":1,"layer_type":"relu"},{"out_depth":30,"out_sx":1,"out_sy":1,"layer_type":"fc","num_inputs":30,"l1_decay_mul":0,"l2_decay_mul":1,"filters":[{"sx":1,"sy":1,"depth":30,"w":{"0":-0.07162876583292985,"1":0.17501954904567715,"2":0.02851143870806911,"3":-0.1678702464355841,"4":0.12942535628974558,"5":0.37197648565506536,"6":-0.107981774200406,"7":-0.33742244796631304,"8":-0.11923338878121974,"9":0.10484876123249834,"10":-0.07018255828765475,"11":0.060393183520191525,"12":-0.03921330027452419,"13":0.2421989164824939,"14":-0.09194306660505148,"15":-0.0019789188475166806,"16":-0.05925232542724412,"17":-0.07437520083174451,"18":0.4107332023288046,"19":-0.1362089812143953,"20":0.07591651644954364,"21":0.2962067996138701,"22":-0.1556095466493978,"23":-0.08927366316019851,"24":0.15769932913982485,"25":-0.07822863984358903,"26":-0.10745418836389868,"27":-0.11853094752879592,"28":0.2755553041409274,"29":-0.07689464548055591}},{"sx":1,"sy":1,"depth":30,"w":{"0":-0.0489308193929036,"1":0.0922376330892671,"2":0.05957061431769872,"3":-0.09022495967451782,"4":0.24614232620663737,"5":-0.09568865288826824,"6":-0.09709018953486102,"7":0.09932701508210003,"8":-0.017370860783367206,"9":0.07859184194840874,"10":0.12619049724968992,"11":-0.14931222364354457,"12":0.23157678344451424,"13":-0.19453066241176686,"14":0.06779375196760962,"15":0.07791698701874224,"16":0.39932339830930336,"17":-0.02573229152854297,"18":-0.26403698325282265,"19":0.016906816484575465,"20":-0.06036413672820266,"21":0.09592862063679546,"22":-0.284182369338107,"23":-0.026795125824665016,"24":0.09035093552314148,"25":-0.0745556865018722,"26":0.16014691014686544,"27":-0.0003384502712400582,"28":0.046052379996092886,"29":-0.000043809528859653905}},{"sx":1,"sy":1,"depth":30,"w":{"0":-0.22977779164950007,"1":-0.17040736929693817,"2":-0.1381046494372082,"3":0.1943290761683381,"4":-0.07775357021165251,"5":-0.14070170248769534,"6":-0.07401951707815323,"7":0.035666072828317914,"8":0.04853002956835597,"9":-0.03763680801793098,"10":0.1765681886209831,"11":0.051504529647657546,"12":-0.1053800243321316,"13":0.047187196520303724,"14":-0.10854420825206125,"15":-0.1307502184747777,"16":0.12795321560524447,"17":-0.13735041202025952,"18":0.07753767172089132,"19":-0.16717300511600494,"20":-0.11802675913785135,"21":-0.09338632927463528,"22":0.12734400575804028,"23":0.20734174884654824,"24":0.1023613872625491,"25":-0.07626292818104678,"26":-0.22779721446140772,"27":-0.09606094482484676,"28":-0.5003674427637841,"29":-0.08071686875529484}},{"sx":1,"sy":1,"depth":30,"w":{"0":0.05177937593862997,"1":0.28308026441249956,"2":0.153332738526046,"3":0.019556466695990763,"4":-0.01379212824541487,"5":-0.004511553474984513,"6":0.35272158266107834,"7":0.021344205494786196,"8":0.03118375057420396,"9":-0.17958188681885182,"10":0.06828613626005685,"11":0.1090435834907185,"12":-0.15937184653565692,"13":-0.1012924776700352,"14":-0.06567131294791582,"15":0.37764117854122453,"16":0.031012602417637848,"17":-0.06357441824691278,"18":-0.1687238500081895,"19":0.10506463590493172,"20":-0.13623567643763426,"21":0.05527441873785674,"22":-0.02001410082789391,"23":-0.1639671336417989,"24":0.36940942512549635,"25":0.19727215674270196,"26":-0.12053201147943553,"27":0.024794595350776442,"28":0.18203242994574384,"29":0.08412676472122821}},{"sx":1,"sy":1,"depth":30,"w":{"0":-0.19228888473843078,"1":0.33281146017253277,"2":-0.08772816233996464,"3":0.2089696868043308,"4":0.11765903668058897,"5":-0.0440625004485204,"6":0.2752854721231728,"7":-0.4997958870427874,"8":0.1312052886434854,"9":-0.02556177585068926,"10":0.04990283833697471,"11":-0.30363477327277016,"12":-0.27389016680360995,"13":-0.020512547940643836,"14":-0.2537558560836836,"15":-0.1094242272196113,"16":-0.002376967680527204,"17":0.09798321514523521,"18":0.027237969011565923,"19":0.2300838820886959,"20":0.0537986475243917,"21":0.4038956949696584,"22":-0.1413653986692316,"23":-0.028428756107083633,"24":0.06645178578782866,"25":-0.2044409869182026,"26":0.024917933680063228,"27":-0.10933815949795214,"28":-0.17960873254445953,"29":-0.13889707373018817}},{"sx":1,"sy":1,"depth":30,"w":{"0":0.12086545802115799,"1":-0.0468941762505941,"2":0.08758051016031004,"3":0.1879935680021442,"4":0.03884109486530048,"5":-0.037350401527211044,"6":-0.06778734584280467,"7":-0.384821662053171,"8":0.0778392730499208,"9":0.10840871121549847,"10":0.07529450159681858,"11":-0.1844600789122738,"12":-0.34089202983060324,"13":-0.04068341947739832,"14":0.014789326498230383,"15":-0.18209742399511558,"16":-0.08414927738222605,"17":0.02513237531498049,"18":0.1781826383676876,"19":0.07272701624654533,"20":-0.2124375243811087,"21":0.1263516343509004,"22":-0.12651722239269045,"23":0.2538956741880411,"24":0.009755709683778147,"25":-0.1776154937704557,"26":0.20356957224546066,"27":-0.12887795316933587,"28":0.19144085648220233,"29":-0.26001329270395596}},{"sx":1,"sy":1,"depth":30,"w":{"0":0.1413814332019807,"1":-0.3649191063935105,"2":0.27887686608736356,"3":-0.00521810111895671,"4":0.17542063498628035,"5":0.000992879849272152,"6":0.10435577056960507,"7":0.013009720257314658,"8":0.15599289883037717,"9":0.11036366653845608,"10":-0.08973868786158543,"11":-0.26609683706364023,"12":-0.15024941789112162,"13":0.17420737543726358,"14":0.11335785365921748,"15":-0.1020048785334337,"16":-0.048692655116239526,"17":0.15844593128998055,"18":0.18380865524958787,"19":-0.09383346702730477,"20":0.23950872108943302,"21":-0.15060254549087376,"22":0.06513975519055144,"23":-0.04123339748629379,"24":0.030970274457689594,"25":0.11191359411754388,"26":-0.3233909782072283,"27":0.2865457808013738,"28":0.09018541127126646,"29":0.0916288259868475}},{"sx":1,"sy":1,"depth":30,"w":{"0":0.20574574031311624,"1":-0.12916327417618595,"2":0.11823048304829642,"3":-0.2690518398510855,"4":-0.18831807764450012,"5":-0.2246579494441711,"6":0.0023066760997029036,"7":-0.1361775445942136,"8":0.05753854624056595,"9":0.06231623999125808,"10":0.044670261992989596,"11":0.0008853624252661422,"12":-0.2083771183983247,"13":0.42500057969794747,"14":-0.29180511154522426,"15":0.22901295790985443,"16":-0.3167076971137813,"17":-0.058189735159304236,"18":-0.12503020313355243,"19":0.07126111776292524,"20":-0.19580773457738368,"21":-0.23900844491908063,"22":0.030474486548226314,"23":0.031512680123749526,"24":0.012504843310073297,"25":-0.13762484402365904,"26":-0.2023424376412627,"27":-0.025207042299802206,"28":0.4601671960860221,"29":0.06434313224356322}},{"sx":1,"sy":1,"depth":30,"w":{"0":-0.24621311618922895,"1":0.04355877372878071,"2":-0.14080225903384236,"3":0.029212278967759554,"4":-0.03327306244920407,"5":-0.05462624286337378,"6":-0.20117864054074303,"7":0.10369690843506063,"8":-0.08849060280406011,"9":0.2947348247909665,"10":-0.3555275046657505,"11":-0.09129522211330182,"12":-0.05840040992719874,"13":-0.21940582221164506,"14":0.29989298287528227,"15":-0.024322052397693424,"16":0.0032943118978877536,"17":-0.017065851127946875,"18":-0.19676561812789134,"19":0.0896022036972818,"20":0.046703379266968874,"21":0.16563280163934066,"22":-0.27462673709000257,"23":0.19369560050446702,"24":0.032020171491740516,"25":-0.21344500036389852,"26":-0.07646309630981475,"27":-0.0441619578060903,"28":0.09347382094613145,"29":-0.24339466564410225}},{"sx":1,"sy":1,"depth":30,"w":{"0":0.22242079681987384,"1":-0.15592021233518577,"2":-0.18764879878778473,"3":-0.1367973281965982,"4":-0.12354349091003783,"5":-0.1179519142110021,"6":0.21728935403116745,"7":0.15207157309189043,"8":0.26663292579056785,"9":0.04838639316432051,"10":0.14695136086361335,"11":0.22568021405795952,"12":0.0960306532771375,"13":0.24419008261648062,"14":0.21568751472332037,"15":-0.14986790536900352,"16":-0.23775567864074104,"17":-0.04758721457397842,"18":0.0468596185998047,"19":-0.3054976010391388,"20":0.023878535350368966,"21":-0.04583604575762696,"22":0.31240823574371135,"23":0.17847475875690463,"24":-0.1471422653325447,"25":-0.020357910257921455,"26":0.2906833469250684,"27":0.0323209366469027,"28":-0.004360441496068456,"29":-0.3412499712093743}},{"sx":1,"sy":1,"depth":30,"w":{"0":-0.1339130231971625,"1":-0.2635458485466664,"2":-0.16634805385303053,"3":0.07877482636499715,"4":-0.025825004923840815,"5":-0.15809479620784653,"6":-0.05053215439598308,"7":0.10625230544913536,"8":-0.05409547092943397,"9":0.060887847719203796,"10":0.08326922102293487,"11":0.2879008238236694,"12":-0.16722195139092647,"13":0.28048905223504805,"14":-0.24178515004979537,"15":-0.06168691277712859,"16":-0.024108347611209432,"17":0.2515453565155711,"18":0.0706921999969846,"19":-0.39943891609268856,"20":-0.017730882003812596,"21":0.0722857867001175,"22":0.39509182662647113,"23":-0.01509528858571006,"24":0.007431805108062559,"25":0.1515405556279613,"26":0.01554903651449402,"27":-0.05520443902381457,"28":0.11316932503079831,"29":0.0324676928478744}},{"sx":1,"sy":1,"depth":30,"w":{"0":-0.3431898606421108,"1":-0.21548762089586213,"2":-0.2534526932091963,"3":0.14821404312685205,"4":-0.24385998043989288,"5":-0.004438236916542119,"6":-0.11494385658339541,"7":0.13970000761870913,"8":-0.12463903649597116,"9":0.2589586487316178,"10":-0.30650421115992255,"11":0.19561116784106258,"12":-0.20487621508993328,"13":0.17738739710255652,"14":0.03446459948499541,"15":0.11938322347478357,"16":-0.09914956216409881,"17":0.025796195583396492,"18":-0.021950958295940494,"19":-0.107899540097247,"20":-0.17226682681611197,"21":0.154698023888874,"22":-0.3102720360429736,"23":0.025376361796587806,"24":-0.0707477843773947,"25":-0.15037459273442827,"26":0.01861690406133194,"27":-0.008879147423072562,"28":-0.0011202771918818147,"29":0.2363004020228272}},{"sx":1,"sy":1,"depth":30,"w":{"0":-0.19827309442281751,"1":-0.27520042227474945,"2":-0.0046271315513750485,"3":-0.047710218647094266,"4":-0.023070802248613888,"5":-0.10222540925562885,"6":-0.20731785935958977,"7":-0.00899686334867271,"8":-0.059891512971948606,"9":-0.032161977626667726,"10":-0.026952842100591297,"11":0.07261164147565215,"12":0.11934656606953552,"13":0.11152979044091128,"14":-0.011480018886784172,"15":0.44947025092349935,"16":-0.38492600033040625,"17":0.17349385439074405,"18":0.013259103761132535,"19":-0.05670099386252916,"20":0.11851957066278618,"21":0.048348407151143385,"22":-0.016953653335461734,"23":0.09431978639808374,"24":-0.11301725327979956,"25":-0.40042406962083454,"26":0.0604346504463494,"27":0.1892714125956242,"28":0.00949350115961561,"29":-0.14027602700777675}},{"sx":1,"sy":1,"depth":30,"w":{"0":0.0870044516677753,"1":-0.0777258418973533,"2":0.15219549616096217,"3":0.05478306929894833,"4":-0.09334495462210876,"5":0.0511123563983321,"6":-0.040866386663260666,"7":-0.010166459403025147,"8":0.042181018806004604,"9":0.16730219636212762,"10":-0.11707461173581694,"11":-0.23028089257003606,"12":0.08463404373155767,"13":-0.07353944941758762,"14":-0.04676037887116714,"15":0.025928600088824746,"16":-0.10711605657876926,"17":-0.08905468901718887,"18":0.25230948345957555,"19":0.04456363474428577,"20":-0.24655108734883474,"21":-0.05828842741067123,"22":0.027237971441035732,"23":-0.04274335831379573,"24":0.034787291842810784,"25":0.18899324250166427,"26":0.2858661941293832,"27":0.14523667598824866,"28":-0.2041503734475099,"29":-0.2287151632809089}},{"sx":1,"sy":1,"depth":30,"w":{"0":0.002395460902039687,"1":-0.21855296341213404,"2":-0.2208167488707646,"3":0.06639663230431378,"4":0.26692377490364144,"5":0.3234712008872564,"6":-0.2808582566075832,"7":0.05001106421535573,"8":0.021685083853984082,"9":0.17165295658884752,"10":-0.05006736715038354,"11":0.18385774426777676,"12":-0.27980056014744603,"13":-0.16020340924869034,"14":-0.22817938281783806,"15":0.12517393929863954,"16":0.16103695610715552,"17":0.030824676318133282,"18":-0.18307873322445742,"19":-0.29319778873495395,"20":-0.032339293985914085,"21":0.046838578073078826,"22":-0.11357891929914694,"23":-0.11142539324780848,"24":-0.034900195453859396,"25":0.24388855406569174,"26":-0.16036151731859896,"27":-0.2917256913047501,"28":0.08506485100126689,"29":0.01814103956974526}},{"sx":1,"sy":1,"depth":30,"w":{"0":0.17353953324405294,"1":0.11270290505197367,"2":-0.02503652583075021,"3":-0.27136846069637455,"4":-0.18097004175746753,"5":0.05293049437852525,"6":-0.12530368955281568,"7":0.04061147518370255,"8":-0.17691711391143933,"9":-0.09159817087347774,"10":-0.01749385387106588,"11":0.24114825841255838,"12":0.1174767490752614,"13":-0.12393514080955188,"14":-0.0016035254063651446,"15":0.17772139963885122,"16":0.061821802835088,"17":0.06916575089636712,"18":-0.04625435510214455,"19":0.42572848296663823,"20":-0.13528720394181823,"21":0.10763625178904415,"22":0.06481166834129196,"23":0.18445353484376506,"24":0.07872635953660377,"25":0.05827496732630972,"26":0.17661530257251412,"27":-0.042971561315206096,"28":0.12403988560432203,"29":0.06685666604612224}},{"sx":1,"sy":1,"depth":30,"w":{"0":0.19971781632074903,"1":-0.26516237095144424,"2":-0.0514447333665339,"3":0.08083053642312168,"4":-0.26937345099876625,"5":0.026988054423957207,"6":-0.0825950384503881,"7":-0.28743829075452354,"8":0.3272142146786302,"9":0.14022307310817278,"10":0.16642081094409786,"11":0.14757084220337027,"12":-0.041507216291327975,"13":-0.16299916655953806,"14":-0.17754057962392417,"15":-0.33833940924911077,"16":-0.12456816436657871,"17":0.08059895126060883,"18":-0.18893390846226493,"19":-0.08451661346857613,"20":-0.008819330314273309,"21":0.10585423579084673,"22":-0.14398589815862442,"23":-0.07445965609816682,"24":0.06966771266843963,"25":-0.41817083403415,"26":-0.0982334440172985,"27":-0.009889246327862833,"28":0.1677349157161761,"29":0.07189519103090916}},{"sx":1,"sy":1,"depth":30,"w":{"0":0.20810620451769185,"1":-0.017720682378441415,"2":0.06382389821057637,"3":-0.23873785277047546,"4":-0.19418866010242467,"5":-0.041916810360340326,"6":-0.029364814875326217,"7":-0.0723371669271385,"8":-0.12961260136192976,"9":0.03939115334917623,"10":0.16897770764111095,"11":0.23433442289995557,"12":-0.17084317671580013,"13":-0.08003350619058021,"14":-0.14824694541080732,"15":0.2597392752254923,"16":-0.1465442025538661,"17":0.1011949566966295,"18":0.21329004499060963,"19":0.24091616496367543,"20":0.06348809981421095,"21":-0.11806383216950521,"22":0.2507260243996134,"23":0.15241832028487937,"24":0.05816592580077832,"25":0.041173593318886245,"26":0.07580844881405738,"27":0.11944240078559927,"28":-0.08098146976938146,"29":-0.15998136653963638}},{"sx":1,"sy":1,"depth":30,"w":{"0":-0.15394094093784966,"1":-0.25082969841027,"2":0.13250573701707832,"3":0.024241787356543712,"4":0.09593876024642034,"5":-0.30789017009967184,"6":0.36209305910072687,"7":0.1619081997514053,"8":0.37056410778720855,"9":-0.0053625976551361625,"10":0.012007282513119203,"11":-0.20847174918939515,"12":-0.34962070189326355,"13":0.035414739055052005,"14":0.016526444340840354,"15":0.34645242512357366,"16":-0.7481238722107377,"17":0.023835889091044973,"18":0.2481015803955459,"19":0.1571863655727291,"20":-0.06778462337151202,"21":0.0990128258337249,"22":0.3050466654303913,"23":0.11625186272927675,"24":-0.23260915578150532,"25":0.26937826506567125,"26":0.118323212626722,"27":0.19191035483544833,"28":-0.006816794920588485,"29":-0.006058946773174996}},{"sx":1,"sy":1,"depth":30,"w":{"0":-0.0679816517482862,"1":0.49883221196209154,"2":0.14081537948219314,"3":0.02088855520568005,"4":0.04672656362033207,"5":0.15225532763419716,"6":0.08790828614863558,"7":0.17058309614133862,"8":0.3216285313406134,"9":0.3734609684169419,"10":-0.22833802393683583,"11":-0.09611167320704235,"12":0.20938375612091736,"13":0.40073894864310067,"14":-0.12279468087010757,"15":-0.3101872160872268,"16":0.23468300464004918,"17":0.04116380794594542,"18":0.03667452208429526,"19":0.3308793544562887,"20":0.06681585525427255,"21":-0.15300386924268441,"22":0.2901442920629287,"23":0.0028947965645831552,"24":0.1329977860837681,"25":0.212287862352227,"26":0.1231225833777153,"27":0.7185243735503347,"28":0.5504904076136139,"29":-0.07905761910242266}},{"sx":1,"sy":1,"depth":30,"w":{"0":0.16140661291513042,"1":0.17950692397569956,"2":0.05744526376564986,"3":0.08773261435353956,"4":-0.09685478693049346,"5":-0.1196414128892927,"6":0.012831439844616158,"7":-0.07070958734406141,"8":-0.1087884286510493,"9":-0.1045849437818856,"10":-0.14943865029326417,"11":0.009140660524626172,"12":0.10236983379135187,"13":-0.09993015613266489,"14":0.11989377778697649,"15":0.06290160680779366,"16":-0.13402315708473575,"17":-0.17448526644172713,"18":0.031792537286053274,"19":-0.15350448331696193,"20":0.07802038074770534,"21":0.26213194035299664,"22":-0.06778932954408771,"23":0.06959593779812584,"24":0.24431075816875927,"25":0.01466251580308862,"26":-0.05758275002884451,"27":-0.2596554063139632,"28":0.15778874407383275,"29":0.04824266981906638}},{"sx":1,"sy":1,"depth":30,"w":{"0":0.44566838803583336,"1":0.008452659405790512,"2":-0.08220197983522691,"3":0.14377623257951624,"4":-0.15431074164603895,"5":-0.037923570997357714,"6":-0.03890840702121905,"7":-0.0952344292130581,"8":-0.19028932773464352,"9":-0.11322623060536384,"10":0.19299730367761658,"11":0.21164055865299278,"12":0.04514620568487821,"13":-0.05475977636207973,"14":-0.17374734563197747,"15":-0.019836052065506045,"16":-0.17660938916482175,"17":-0.18825386641496317,"18":-0.050078174569993056,"19":0.11668331547684327,"20":0.08457348774330828,"21":-0.1453293196697059,"22":0.06362079961731382,"23":0.11868066183619126,"24":0.0026541180441953583,"25":0.09477836605960696,"26":-0.17268733730064922,"27":-0.23070559283709288,"28":-0.10784568941915132,"29":0.1355288758088477}},{"sx":1,"sy":1,"depth":30,"w":{"0":0.28779268583314244,"1":-0.0948049938684196,"2":-0.1119037229712199,"3":-0.0632249914233305,"4":0.10655748667678505,"5":-0.19423034545685894,"6":0.06850208134079355,"7":0.04396257947075529,"8":0.07178840476622239,"9":-0.20105751763238813,"10":0.14967945023950885,"11":0.2339419198540373,"12":0.30238133723976973,"13":-0.08970991636309007,"14":0.031228886592867548,"15":-0.25574977187640074,"16":0.3271322915288767,"17":0.013787234422620984,"18":0.09540069252292192,"19":0.010902772937358387,"20":-0.02565132653180695,"21":0.3753501179649793,"22":-0.2577707490576093,"23":0.028016209959236642,"24":0.013462140323704791,"25":-0.1543113104826769,"26":-0.24800296985733677,"27":0.05137910936744268,"28":0.0742558072139651,"29":-0.061933454841447376}},{"sx":1,"sy":1,"depth":30,"w":{"0":-0.32290367653077273,"1":0.07112317741384407,"2":0.16772311194006972,"3":0.1261833583703864,"4":-0.13235093018532298,"5":-0.002719755002903127,"6":0.11948445704022466,"7":0.142482597112439,"8":-0.0914517744905752,"9":0.1173686554775424,"10":-0.2637885870397192,"11":0.08655018348231426,"12":-0.02738123236545533,"13":-0.067480169532699,"14":-0.14697220655366486,"15":0.01475028150760239,"16":-0.3741336029099068,"17":-0.017261038768239357,"18":-0.043512580920429124,"19":-0.028569486198571775,"20":-0.22992345906279762,"21":0.06389336415874378,"22":0.10192807160755311,"23":0.2634612378323019,"24":-0.039540857518466165,"25":0.0791189849115619,"26":-0.12570132982598772,"27":-0.07715387785250535,"28":-0.07325906593802639,"29":0.10521229481272602}},{"sx":1,"sy":1,"depth":30,"w":{"0":0.10227960715420377,"1":0.09414160866191043,"2":-0.07590654385871241,"3":-0.025921333203312004,"4":0.05638405963354546,"5":-0.020117474585310446,"6":0.05959920527366942,"7":-0.2699090461180172,"8":-0.04111831700894653,"9":-0.05651724334328047,"10":0.19762114422734633,"11":0.20374315526589892,"12":-0.02455440319023351,"13":-0.025427735488955654,"14":0.1814248657660013,"15":0.10321865030616066,"16":-0.09718686766952174,"17":-0.3238966300489812,"18":-0.21092866384048528,"19":-0.23355734719171314,"20":0.06587201048003107,"21":-0.07869810862780434,"22":0.0009765229271775646,"23":-0.3955453608919991,"24":-0.05709133499670401,"25":-0.17738842408779912,"26":-0.018271298608468323,"27":0.025225961702551127,"28":-0.14462399455931121,"29":0.016332070048043542}},{"sx":1,"sy":1,"depth":30,"w":{"0":0.04299223306118751,"1":0.09362796819613044,"2":0.21078420178610216,"3":0.26833760633325093,"4":0.1588990267831578,"5":0.4156020603738629,"6":-0.07570547360192816,"7":-0.19377602176178907,"8":0.0311807288066898,"9":0.020644340925745294,"10":-0.11133119441320652,"11":-0.040965107983157625,"12":0.08605822893273693,"13":0.007261019776248671,"14":0.003018844933882461,"15":-1.3788893199970942,"16":0.9540778628725638,"17":0.14015380916471626,"18":-0.165502232978004,"19":-0.014423394102884688,"20":-0.09421225141016992,"21":-0.14759228995584406,"22":-0.01652018371961213,"23":0.09512638650472606,"24":0.08261912120519296,"25":-0.3058051171013993,"26":0.28550608484978357,"27":0.004605354013496895,"28":0.12275091465353315,"29":0.010256674529605013}},{"sx":1,"sy":1,"depth":30,"w":{"0":-0.12250343917179206,"1":-0.3260933743605344,"2":-0.0538951543999603,"3":-0.0897362668246047,"4":-0.1450247088773793,"5":0.3644787702307183,"6":0.13382162986313134,"7":-0.05059985872879859,"8":0.16466023154315548,"9":0.21643927192640547,"10":-0.0859673109895983,"11":0.25159449442606036,"12":0.163106674363444,"13":-0.11885382512779882,"14":-0.12241092404817938,"15":-0.16684129703445472,"16":-0.31390254537380075,"17":-0.2575500802293335,"18":-0.2904728206512716,"19":-0.26859573419326316,"20":0.022773155369189998,"21":0.04695625593998936,"22":-0.012674888829418928,"23":0.16053012557629978,"24":-0.05770772596146808,"25":0.16057642398622818,"26":0.3463259502939322,"27":0.05285984141141751,"28":-0.28442397483789056,"29":-0.27281830554499037}},{"sx":1,"sy":1,"depth":30,"w":{"0":0.2203023208886841,"1":0.09619451849199225,"2":0.183417967135235,"3":-0.00829278837824804,"4":0.29899689989109346,"5":-0.19960798963078527,"6":0.06294333114649481,"7":-0.11218961756615803,"8":-0.049209563787582414,"9":-0.18071991274866936,"10":-0.0026302284924613413,"11":-0.26918435834701265,"12":0.038003092163068825,"13":0.21280947532998362,"14":0.07707760761748599,"15":0.15564267807296137,"16":0.047883196533516886,"17":-0.13499517911059808,"18":-0.3633966026154377,"19":-0.3750193235170164,"20":-0.023749975514963915,"21":0.05690667421938968,"22":0.13484424261683145,"23":0.038487166329576106,"24":-0.07232989271666214,"25":-0.10173711058010174,"26":-0.45471057791938074,"27":0.08330681219024687,"28":-0.16008745561792928,"29":0.213636173166082}},{"sx":1,"sy":1,"depth":30,"w":{"0":0.27861799998859266,"1":0.04226892851023423,"2":0.03686837137895508,"3":0.025525524653178214,"4":-0.15132782007272133,"5":0.15363825805568876,"6":0.2703223197507273,"7":0.03870377736817359,"8":-0.1692054607758162,"9":-0.07794276715130859,"10":0.06547044533396856,"11":-0.36524088784904957,"12":-0.13086444113295434,"13":-0.08898122286864486,"14":0.32636858579260736,"15":0.11962139150334877,"16":-0.007450795118819104,"17":0.14647463442447603,"18":0.0918877107296262,"19":-0.2860184525312483,"20":-0.20180839571882828,"21":-0.11814975452134334,"22":-0.2397709807092428,"23":0.0042797900917297205,"24":0.1907655499473095,"25":0.012723238385750065,"26":0.14308893134283437,"27":0.07498247070239218,"28":-0.009519283301758868,"29":-0.43803473537910487}},{"sx":1,"sy":1,"depth":30,"w":{"0":0.06377038528735825,"1":-0.09626143640985599,"2":-0.20489843092566382,"3":0.2305391806423955,"4":-0.05937795995459593,"5":-0.01302512695845544,"6":-0.08365704616885192,"7":0.21747449033320937,"8":-0.04436214987188044,"9":0.12206490359968719,"10":0.07598162552925423,"11":-0.3779996490277303,"12":-0.07500512607778648,"13":0.37415187360003715,"14":-0.004021193752054625,"15":0.47409047662096293,"16":-0.025204849068129965,"17":-0.04415967511900309,"18":0.025035744882113218,"19":0.19896092566835402,"20":0.17138710718724545,"21":-0.19138580941395644,"22":0.10866627582909637,"23":0.01185570021513424,"24":-0.1297302125729959,"25":-0.2329085854269781,"26":0.0911602569376608,"27":0.10073310418243336,"28":0.3079231808540183,"29":-0.21845376913866352}}],"biases":{"sx":1,"sy":1,"depth":30,"w":{"0":0.0914290742309519,"1":0.08429111506165242,"2":0.09766173834760752,"3":0.0990095660147787,"4":0.12302768648052093,"5":0.11010454864216875,"6":0.10767355107749944,"7":0.0964210548978262,"8":0.09742597368031132,"9":0.10270331127179684,"10":0.09681057359542042,"11":0.10859585775186245,"12":0.10112090394961806,"13":0.09686404339780616,"14":0.08196641757823385,"15":0.08580536704427581,"16":0.09757676276958224,"17":0.09510818883616162,"18":0.09781237992189841,"19":0.12745567108966957,"20":0.09124983786563476,"21":0.08821823630821299,"22":0.09401233163754481,"23":0.11241216066054782,"24":0.09825853690385568,"25":0.10599610791838168,"26":0.08445242712062759,"27":0.0848767298422504,"28":0.08694043860187509,"29":0.08362734297034881}}},{"out_depth":30,"out_sx":1,"out_sy":1,"layer_type":"relu"},{"out_depth":4,"out_sx":1,"out_sy":1,"layer_type":"fc","num_inputs":30,"l1_decay_mul":0,"l2_decay_mul":1,"filters":[{"sx":1,"sy":1,"depth":30,"w":{"0":0.014607568463907589,"1":0.22229618214018051,"2":0.1320495376019856,"3":0.05041532028811967,"4":0.10840760134565636,"5":0.18827082972007814,"6":-0.12300467524872924,"7":-0.251322535834595,"8":-0.07123972027514378,"9":-0.22703819777747314,"10":-0.0669969483239178,"11":-0.11681895911651338,"12":-0.42837326044245344,"13":-0.16339443902154724,"14":-0.11066535163958986,"15":0.009798821350037196,"16":0.18989405151453786,"17":-0.14955261237650377,"18":-0.4392024234131533,"19":0.3653426228649232,"20":0.01621063231051536,"21":-0.24302418242364715,"22":-0.06169907982502512,"23":-0.2374749212521672,"24":0.009893802750025132,"25":1.1546870436841743,"26":0.02652674297990096,"27":0.004696567828713049,"28":-0.10281830486853044,"29":-0.18240121875911952}},{"sx":1,"sy":1,"depth":30,"w":{"0":0.023466272322977672,"1":-0.03158665209607004,"2":-0.0605128221779727,"3":0.07454019067214752,"4":0.10443571389321397,"5":-0.013356938962045789,"6":-0.02320778121741783,"7":-0.15370051128604784,"8":0.010435389844584845,"9":-0.2948014286104506,"10":0.1463110567074578,"11":-0.19629167444217416,"12":-0.2527488975410357,"13":-0.07024853150550749,"14":0.06402676038236563,"15":0.0034357681398072986,"16":0.09806119532646303,"17":-0.03136509040109563,"18":-0.4624417049638195,"19":0.2797445938209931,"20":-0.14052401987069077,"21":0.07060710578733212,"22":0.24370570375698639,"23":-0.08125927156531691,"24":-0.07049332950857976,"25":0.8026459776516512,"26":-0.2369342566853779,"27":0.009804539748277118,"28":-0.08693631857039524,"29":-0.2212681493073752}},{"sx":1,"sy":1,"depth":30,"w":{"0":0.007933068405560286,"1":0.32304761274612825,"2":0.030188032184208388,"3":-0.17957190603567094,"4":-0.0037586349161940233,"5":0.19683998550726706,"6":0.05691317781805853,"7":-0.31755817132402736,"8":-0.10450295799607151,"9":-0.15223121741692244,"10":0.04671676649625099,"11":-0.029683407616880722,"12":-0.2192810264499273,"13":0.0937752049290496,"14":-0.09188797158350852,"15":0.1472220525956471,"16":-0.021514214631572753,"17":-0.20307164085840992,"18":-0.4112305560465001,"19":0.23122237736210638,"20":-0.019082108661050656,"21":0.1848092643879513,"22":0.16395401629905978,"23":-0.26577754180303187,"24":-0.06030400759736652,"25":0.7653812925895785,"26":-0.06396769883043757,"27":-0.16531670821961209,"28":0.032903062144311254,"29":-0.1605618622377384}},{"sx":1,"sy":1,"depth":30,"w":{"0":0.06716804597960313,"1":0.1674293864229241,"2":-0.1917941694582282,"3":-0.13927876291770447,"4":0.21312082054322307,"5":-0.02409986993945109,"6":0.16825035174495453,"7":-0.25207050504438805,"8":-0.04617161414355406,"9":-0.12054350166485524,"10":-0.0586713687809051,"11":-0.06924929618444699,"12":-0.32571527061274086,"13":0.18540596727770262,"14":-0.139132256760045,"15":0.1898734950078578,"16":0.3325473420431526,"17":-0.15324369873920632,"18":-0.6250214376970183,"19":0.20082129351525177,"20":-0.156522924603353,"21":-0.14965708498500066,"22":0.257434217233226,"23":-0.10341129151653548,"24":0.14866556072757103,"25":0.678022392649663,"26":-0.26286394119520545,"27":-0.13477810715727673,"28":-0.27395990316958424,"29":0.013596091309581459}}],"biases":{"sx":1,"sy":1,"depth":4,"w":{"0":0.11849301125912112,"1":0.07983436408351006,"2":0.03964756185395853,"3":0.05600129239660306}}},{"out_depth":4,"out_sx":1,"out_sy":1,"layer_type":"regression","num_inputs":4}]}