{"layers":[{"out_depth":41,"out_sx":1,"out_sy":1,"layer_type":"input"},{"out_depth":30,"out_sx":1,"out_sy":1,"layer_type":"fc","num_inputs":41,"l1_decay_mul":0,"l2_decay_mul":1,"filters":[{"sx":1,"sy":1,"depth":41,"w":{"0":0.029034660309127207,"1":-0.24611057091146277,"2":-0.06720955690681077,"3":-0.071712451185303,"4":-0.051816976530480965,"5":0.17152009789412406,"6":0.06661451717963916,"7":0.09067994743315128,"8":-0.22710470270339253,"9":-0.040051713570028034,"10":0.11405686445013473,"11":-0.1369397993389913,"12":-0.025563840445534388,"13":0.0017265562859072742,"14":-0.07698399287952333,"15":-0.03224340352333403,"16":-0.043605101336316,"17":-0.04246597692292963,"18":-0.019617267543457374,"19":-0.08662485562842016,"20":-0.0003334774709460417,"21":-0.00007930964000218572,"22":-0.08490288905341038,"23":0.014691063941034347,"24":-0.0017588363313417214,"25":-0.1297171967838316,"26":0.043300184144119055,"27":-0.047748424579508605,"28":-0.25175550290021814,"29":-0.09629269546904858,"30":0.1108278701940958,"31":0.05994441326002797,"32":-0.17413603146960366,"33":-0.18470615048804542,"34":-0.025189747851584714,"35":-0.13681149562440567,"36":-0.17600488449916638,"37":0.11088926345021653,"38":-0.09434155509202703,"39":0.1413796625192,"40":-0.22230744848719794}},{"sx":1,"sy":1,"depth":41,"w":{"0":-0.35661768462995364,"1":-0.14623208135021792,"2":-0.17509925153953246,"3":-0.07011205249845234,"4":-0.1012380575123321,"5":-0.12207196635989447,"6":-0.00983856161533718,"7":0.23920203637940152,"8":0.032150414877256644,"9":-0.09013447232278844,"10":-0.27830836213089344,"11":-0.017549522055600793,"12":-0.014700119024872926,"13":0.12839634618257123,"14":-0.05584359328478112,"15":0.07080180992466768,"16":-0.0076207941916161225,"17":0.014215914354035332,"18":0.1746252795672555,"19":-0.12566361322224978,"20":-0.10173403266759364,"21":-0.2753796293838817,"22":0.056571571694617295,"23":0.17554101112158163,"24":-0.23747076927848676,"25":-0.06972584354508343,"26":-0.06546261933429805,"27":0.2105306236373929,"28":0.006900418232369442,"29":0.09632020462932832,"30":0.12933112543015535,"31":-0.0236570242430042,"32":0.07388897376395007,"33":0.05739000302033008,"34":-0.16528995107030026,"35":-0.022850692435195868,"36":-0.02393049010934853,"37":-0.023804683552509982,"38":-0.024516304685426996,"39":0.08961488550362659,"40":0.07399292439981757}},{"sx":1,"sy":1,"depth":41,"w":{"0":0.17669221533341717,"1":-0.08971772959198866,"2":0.17321742608201354,"3":-0.34301495739463767,"4":-0.2196218725968822,"5":-0.02663392258705765,"6":-0.09739470119393621,"7":-0.003619277530044701,"8":0.15411109639718937,"9":-0.06199819767006437,"10":0.024557794654766842,"11":0.11820344149566905,"12":0.006793327635397607,"13":-0.1112475920613427,"14":-0.07330842475258334,"15":0.1726175399811099,"16":-0.15328397357317408,"17":0.020327152998914348,"18":-0.016561239225389403,"19":0.046251820577546336,"20":0.06854561310939335,"21":-0.20043182890769065,"22":0.0021265476808428494,"23":0.03606776562598443,"24":0.10883360964440288,"25":-0.18309393264570695,"26":0.22335314632031758,"27":0.011915906507489773,"28":0.07514085449201943,"29":-0.08130597727821387,"30":-0.28561141564958853,"31":-0.218885987325121,"32":-0.325019141896341,"33":0.1214391625342127,"34":0.13990849403160993,"35":0.11608371358339473,"36":-0.03907366881515578,"37":0.07326137720998048,"38":0.04690385105888754,"39":0.08545080590463812,"40":0.0500478355064168}},{"sx":1,"sy":1,"depth":41,"w":{"0":0.03405472769562968,"1":-0.01407343397020473,"2":-0.08154925311728885,"3":0.00381293825397173,"4":-0.13325511737966145,"5":-0.06064035034139655,"6":0.09958797739509413,"7":0.06352505105015596,"8":0.11676058486356843,"9":-0.371768579888016,"10":0.11652424784434118,"11":-0.007494183211559395,"12":-0.004569520685874699,"13":-0.004535658982133888,"14":-0.18861454967118263,"15":0.08785440548076104,"16":-0.22769421894422356,"17":-0.20804756826870158,"18":0.08589811513927254,"19":-0.1292687833568735,"20":-0.1342046598127383,"21":-0.12989199425883702,"22":0.16928441076454134,"23":-0.09704875243516926,"24":-0.08435606957706404,"25":0.28697830133591423,"26":-0.13515683625743732,"27":0.12454392460480074,"28":-0.07226893413771053,"29":-0.0659361721652061,"30":-0.08681549504509647,"31":-0.15405214377240664,"32":0.42335029143827124,"33":-0.09924756604296359,"34":-0.13604630220899902,"35":0.0006912299131296822,"36":0.11012880838661393,"37":-0.09574566472556156,"38":0.11114485032901164,"39":0.1808297254639852,"40":0.05603738977521163}},{"sx":1,"sy":1,"depth":41,"w":{"0":-0.18042588264282444,"1":-0.24056937779536755,"2":-0.08298714726676279,"3":-0.15578016263830227,"4":0.0010339618884660016,"5":-0.2588023794763882,"6":0.1549128964559739,"7":0.0952776747650696,"8":-0.01154613837399306,"9":-0.045035667793772265,"10":-0.0692447058496373,"11":-0.10489943941280144,"12":0.09354291238665503,"13":-0.09897342420037107,"14":-0.16990600121193403,"15":0.09509821688898633,"16":-0.10892624648366958,"17":-0.19743452940811923,"18":0.08106142565390109,"19":-0.2572466879426449,"20":0.009358374709879715,"21":0.14485210490021921,"22":-0.09650467593672732,"23":0.03883588942500032,"24":0.0020659273922029537,"25":0.2567028890910278,"26":0.052005975311094625,"27":0.08634857062631261,"28":-0.08210689837705169,"29":-0.19761370871260642,"30":-0.11299394033201979,"31":-0.1035982403734537,"32":-0.040532386308704885,"33":0.04617873595541054,"34":0.2103219392180734,"35":-0.03562702216017581,"36":-0.14806489191384004,"37":-0.1815406266363204,"38":-0.011972728299232675,"39":0.02228380925523832,"40":0.1134724745763741}},{"sx":1,"sy":1,"depth":41,"w":{"0":-0.2752815965688115,"1":-0.1473222204822261,"2":-0.21652940697846434,"3":-0.2829913625672706,"4":-0.11994340379741096,"5":0.00297960232676841,"6":0.045079505269228645,"7":-0.33928927954960153,"8":-0.2477102504125523,"9":-0.15701357286420822,"10":-0.18536651131737766,"11":0.0012930648515166324,"12":-0.15693556313411283,"13":-0.04877053924293562,"14":-0.2593581979198334,"15":-0.15454085457266634,"16":-0.15434773253081424,"17":0.06236760583745059,"18":-0.21187082991505918,"19":-0.2334402866693174,"20":0.13484813923836758,"21":0.19549830832959308,"22":0.06377669648829287,"23":-0.060677992310847424,"24":-0.03781778443858583,"25":-0.047753177388867724,"26":-0.013987951886168047,"27":-0.2392212420767868,"28":0.07142499176947627,"29":0.13475297239167974,"30":-0.11513627754994421,"31":-0.06643040087296813,"32":-0.09701360905890044,"33":-0.025366108891374868,"34":0.3422595324745473,"35":0.22092728218067323,"36":-0.009017011059723728,"37":0.06511908680976827,"38":0.12640849809759377,"39":-0.07451397953579378,"40":0.1110618133064272}},{"sx":1,"sy":1,"depth":41,"w":{"0":0.2856727618823613,"1":-0.07303571165106766,"2":0.18562830895512294,"3":-0.1089358828365307,"4":0.0421862337655536,"5":0.22851793538303503,"6":0.12640266231761327,"7":0.21856497925457366,"8":0.2638543952282084,"9":-0.11467200128192456,"10":0.11643642132057576,"11":-0.17148243877187933,"12":-0.17029584841867806,"13":-0.2089059790067321,"14":0.07034658177501836,"15":0.064338459928035,"16":-0.20912221428813,"17":-0.11093558160994607,"18":0.08467519367541432,"19":-0.16658916922228778,"20":-0.05582157006671336,"21":0.02495184099923751,"22":-0.07248041668019913,"23":-0.2980054894969491,"24":-0.007335669216116349,"25":-0.02546594621153881,"26":0.10120399127478122,"27":-0.06249691664423537,"28":0.13808273359353385,"29":-0.03787652534546481,"30":0.012314118867790299,"31":-0.01263554769052874,"32":-0.01476175346764446,"33":0.04760816096964568,"34":-0.1515139757420346,"35":0.10837172389123857,"36":-0.08417788837889555,"37":0.14974869616366263,"38":0.12392589806966303,"39":-0.2509104514440653,"40":-0.0023988085388065876}},{"sx":1,"sy":1,"depth":41,"w":{"0":0.28463197244612654,"1":0.09762967621390294,"2":-0.06265589862687114,"3":0.0295896641076329,"4":0.11829362233023072,"5":0.024522690619703774,"6":0.02641118802860483,"7":0.20379757160326234,"8":-0.105003441160575,"9":0.10861403883773472,"10":0.10103936283628073,"11":-0.0920640056511234,"12":-0.3822946201074446,"13":-0.1280393272163091,"14":-0.018501376396446167,"15":0.19200184222840116,"16":0.0675428090307064,"17":-0.12516126382878404,"18":-0.015033448984504635,"19":0.04481061619904631,"20":0.15660879624681517,"21":0.0035565111776624247,"22":0.29124702126896185,"23":0.0008124482419319747,"24":0.02438053392410012,"25":-0.1579077530817537,"26":0.11149009117938793,"27":0.022488755029545227,"28":-0.02951014448982473,"29":-0.03695609745753454,"30":-0.05381012137887733,"31":-0.15913155922417244,"32":0.03599664416958773,"33":0.15301611779379748,"34":-0.046557405608185116,"35":0.2873402309670561,"36":-0.08266013846219553,"37":0.14581846923006586,"38":0.027600488912170328,"39":-0.13760636770667165,"40":-0.11403669336749447}},{"sx":1,"sy":1,"depth":41,"w":{"0":0.025554541582228075,"1":-0.02336887396637868,"2":0.1201626184544333,"3":-0.12476541320722166,"4":-0.03541563102124493,"5":-0.028298401347181264,"6":0.11898408823851869,"7":-0.042956593282920175,"8":-0.012288799512276532,"9":0.013527721521155235,"10":0.08539376888667492,"11":-0.0022994544576837813,"12":-0.18454913829671055,"13":-0.006513969487180009,"14":0.08137147920947209,"15":0.11741053707526625,"16":0.02175844477215243,"17":-0.30035507182457677,"18":-0.006664627752853321,"19":-0.15326957234064045,"20":0.02776548070989061,"21":0.18949678989322863,"22":-0.044225795799050414,"23":0.16910514339538338,"24":0.11233638378190984,"25":-0.17009576066662127,"26":-0.18188451579759626,"27":0.020693616806182747,"28":0.013342621085101593,"29":0.07621801605514121,"30":-0.06706295504660709,"31":0.03006751904811643,"32":0.1259987532576695,"33":0.21156586448381257,"34":-0.1339596843844724,"35":0.05822203936770936,"36":-0.08048392746126215,"37":-0.02926500637929374,"38":-0.0878221369963949,"39":-0.4010675587269304,"40":-0.09398419386200314}},{"sx":1,"sy":1,"depth":41,"w":{"0":0.2535609321687614,"1":-0.16476238648550395,"2":0.32988567015762216,"3":-0.07194077287544452,"4":0.23167944535432686,"5":-0.2030732948470348,"6":-0.25141916063363706,"7":-0.1398431882593104,"8":-0.08664638604457381,"9":-0.1899514256383982,"10":0.22239655957083823,"11":0.09633623215859377,"12":0.237150380168896,"13":-0.01373801890188101,"14":-0.07092540037391036,"15":-0.02870451847609079,"16":-0.007186974982065342,"17":0.06411703569892649,"18":0.009900796642680095,"19":0.04932142583037694,"20":-0.13684989094970113,"21":-0.06056763204868106,"22":-0.2438920988648638,"23":-0.008775865552110887,"24":-0.02085500150023435,"25":0.09941305380908902,"26":0.2855529241385102,"27":-0.07319501779375732,"28":-0.12918163973712946,"29":0.053173199975280666,"30":-0.03843439606792473,"31":0.051703213785322014,"32":-0.006002408418506343,"33":-0.1944109012456755,"34":-0.17870310805972606,"35":0.09199707171412998,"36":0.10060937379881035,"37":-0.1494609498000041,"38":0.23105157002858873,"39":-0.2077221772193795,"40":0.26527891751907096}},{"sx":1,"sy":1,"depth":41,"w":{"0":0.10098076638159068,"1":-0.11650745477864616,"2":-0.08839142544749079,"3":0.09585166322085828,"4":-0.04913697055737343,"5":0.19058343673526187,"6":-0.005860450704458647,"7":0.06291314783959165,"8":0.004873094051674043,"9":0.033315984491108716,"10":-0.17770831779670773,"11":-0.09824648613208024,"12":-0.044831783834342956,"13":-0.2868628627738741,"14":0.05700516728202444,"15":-0.15304893409557283,"16":0.0920049476466579,"17":-0.1883678152526629,"18":0.14836330968690042,"19":-0.12151642325681115,"20":-0.02847412547485214,"21":0.16587130692015248,"22":0.05320264809023129,"23":-0.1873720228159831,"24":-0.09467584537082871,"25":-0.19622137167993575,"26":-0.00004377013697382069,"27":-0.25564367923917963,"28":0.2503105142423904,"29":-0.13650304893354182,"30":0.2217255658359933,"31":-0.07054052539913643,"32":-0.16750890218320807,"33":0.006443264665232891,"34":0.059892802629553245,"35":-0.03887972167491498,"36":0.25000514855253436,"37":-0.022238336425114965,"38":0.08651200781817443,"39":0.13792053642013852,"40":0.020379135361887162}},{"sx":1,"sy":1,"depth":41,"w":{"0":0.014696837377605283,"1":-0.086547718590026,"2":-0.2541537989722454,"3":-0.15947688058783077,"4":0.013274615616684497,"5":-0.10389988189301808,"6":0.22668730687421026,"7":-0.09654633175592507,"8":0.1845836983991302,"9":0.05949304742984991,"10":0.19687969233086583,"11":0.3204694871989272,"12":0.2690719680168001,"13":-0.12949783191020542,"14":-0.05247835515099963,"15":0.1274283112151102,"16":0.05453963095120843,"17":0.06099508888539045,"18":0.004652339468833143,"19":-0.07452571871589987,"20":-0.06560325265228581,"21":-0.06220986269833499,"22":0.0456567670812042,"23":-0.00742923436669586,"24":-0.20410611905393788,"25":0.06064103254987338,"26":0.16295325297569777,"27":-0.05263150939854024,"28":0.12301214186331293,"29":0.32302851134067473,"30":-0.20482547214231106,"31":-0.05298526930181706,"32":-0.17814171514114338,"33":-0.1554612320029639,"34":0.15555319138313034,"35":-0.1540156436723893,"36":-0.3443499674715172,"37":-0.36711696392887744,"38":0.0690196613363359,"39":-0.1903978060877852,"40":0.01979276224345947}},{"sx":1,"sy":1,"depth":41,"w":{"0":0.08676128343883152,"1":0.17521367731064574,"2":-0.2472062177750879,"3":-0.1007690465608768,"4":-0.027749773464813998,"5":-0.1775544600733862,"6":-0.05631563159654955,"7":-0.05774413590145704,"8":0.27744242833391575,"9":-0.18046156266471408,"10":-0.2675356811733398,"11":-0.10202442457875456,"12":0.21042607295863755,"13":0.17847029783757515,"14":0.1721070381241415,"15":0.21099632981929586,"16":0.00955911353588737,"17":0.11735028701361083,"18":0.14248939562380364,"19":-0.009132944896761072,"20":-0.13024410819359242,"21":-0.1491028571798645,"22":-0.116190800348564,"23":-0.14499660671674297,"24":0.090276482823279,"25":-0.007610715868692615,"26":0.12034235042447664,"27":0.2034211075080225,"28":-0.11828980958034155,"29":-0.14094283732888943,"30":0.07910082276696132,"31":-0.02489418355567986,"32":0.158336305055375,"33":0.09674180237500939,"34":-0.014094841654315769,"35":-0.06062433863556969,"36":-0.05370337131987509,"37":0.14407411856620483,"38":0.11520322789292826,"39":-0.010909306466919151,"40":0.13136083375404425}},{"sx":1,"sy":1,"depth":41,"w":{"0":-0.03918903636466214,"1":0.0011452554214485774,"2":-0.3027814434432548,"3":-0.11160896854743926,"4":-0.017197009130757265,"5":0.1462576266549091,"6":0.10117725659339342,"7":0.07280845795640302,"8":-0.058066839390582235,"9":0.18884459194959918,"10":-0.08580760223122234,"11":-0.33329116866547304,"12":-0.06550766637806295,"13":-0.015601833586345138,"14":-0.11148444509975804,"15":-0.06572754081740746,"16":-0.1090331539828085,"17":0.11953860625546452,"18":0.2552283407730565,"19":0.06159980251907731,"20":-0.05405529436716939,"21":0.1554543418009995,"22":-0.14914248104840985,"23":0.07584707368101969,"24":0.23997828669329996,"25":-0.14553339736933282,"26":-0.08050432649696626,"27":0.0663159093274712,"28":-0.3859043194668074,"29":-0.052182694138130085,"30":-0.10402303094644634,"31":-0.5514241212058497,"32":0.10798344645658936,"33":-0.1638339135464721,"34":0.23511710912502942,"35":0.040057962380615895,"36":0.09967603796478004,"37":-0.12851216364714624,"38":0.049089986095069336,"39":-0.05508700964008465,"40":0.14408396641748508}},{"sx":1,"sy":1,"depth":41,"w":{"0":0.2974429014453029,"1":0.05987879269787271,"2":0.2210507581050779,"3":-0.05888325389230982,"4":-0.20167054523500633,"5":0.024261572054895382,"6":-0.1199418847875104,"7":0.1899569112838424,"8":-0.15088117667970982,"9":0.08697778817183717,"10":0.05356155539919699,"11":0.11600543573296734,"12":0.024678177452888805,"13":0.04676739136335748,"14":-0.013109493812049186,"15":-0.08086467168715859,"16":-0.10018127698091295,"17":0.0019166206988618906,"18":-0.01621126813285931,"19":-0.4421595039439185,"20":-0.0018058758742676515,"21":0.0366641524726109,"22":-0.09088734834709677,"23":-0.05716807310159723,"24":-0.10559144153224408,"25":-0.001016733344358285,"26":-0.0573017695593735,"27":-0.02666890595734556,"28":0.025886141634818814,"29":-0.042061471000221944,"30":0.04408687084316911,"31":0.3125228922535333,"32":0.0633352236695108,"33":0.028049666722466907,"34":-0.07716799309935347,"35":-0.0195240749824716,"36":0.11258606714660345,"37":0.06135408980571403,"38":-0.028974037252614084,"39":-0.2646686786841036,"40":0.011845787348292036}},{"sx":1,"sy":1,"depth":41,"w":{"0":0.17325311653438535,"1":0.4731468901837468,"2":0.42961528535813626,"3":0.5651615187707467,"4":0.5958852211172424,"5":0.4735495951290266,"6":0.6679448074100189,"7":0.6651826416477357,"8":0.16884553279696743,"9":0.6955719713917966,"10":0.44201689932497956,"11":0.15331222066281108,"12":0.09964447784088253,"13":0.07102626386447328,"14":0.01779816050980612,"15":0.08637503514901336,"16":-0.12671122581608657,"17":0.039923631908409384,"18":0.03368791919412955,"19":0.2611104021247744,"20":0.21972070736940802,"21":0.3484849405539514,"22":-0.053698279984697776,"23":0.0024934542490918123,"24":0.021453241412102166,"25":0.02900016977763541,"26":0.041628845338582514,"27":-0.04687123657391243,"28":-0.07957582030330891,"29":-0.09757066573093362,"30":0.003986401114493346,"31":-0.09374589185277174,"32":-0.05187575012742828,"33":0.00624607278704366,"34":0.4258597559750448,"35":0.06551188037142326,"36":0.12138580197594052,"37":-0.010911397050891761,"38":-0.00817075086362846,"39":-0.014672022984944393,"40":0.032811619375252586}},{"sx":1,"sy":1,"depth":41,"w":{"0":-0.5394299678709955,"1":-0.38566455993513643,"2":-0.29174049202134406,"3":-0.311405617582364,"4":-0.41310282605282383,"5":-0.38796487036787475,"6":-0.6196562413998149,"7":-0.31346199390713025,"8":-0.46065868162655316,"9":-0.35622834367739836,"10":-0.4320690028547385,"11":0.0017289500106789863,"12":-0.14212273378829027,"13":-0.21575219521042627,"14":-0.13726497290348028,"15":-0.12527538463996585,"16":-0.27987375064787395,"17":-0.020158675993113242,"18":-0.08048757352762859,"19":-0.14201204012348187,"20":-0.3007925951268993,"21":-0.12689288766204823,"22":0.04955269726001264,"23":0.05493274764956024,"24":0.041123848688639934,"25":0.05153612771288615,"26":0.057090248573362964,"27":-0.28319350740945215,"28":-0.12497674215276314,"29":-0.37226327595231107,"30":-0.017386830295242867,"31":-0.2148285667174756,"32":-0.17930938074801853,"33":-0.1116753290663785,"34":-0.1467847451410448,"35":-0.24657996689468623,"36":-0.22849245642315805,"37":0.043861345532851835,"38":0.041964847365931965,"39":0.04353947713667384,"40":0.03868951689086099}},{"sx":1,"sy":1,"depth":41,"w":{"0":-0.20879629773722885,"1":-0.1541049220593869,"2":-0.29500021043515917,"3":0.14564416585894602,"4":0.15988091612400304,"5":-0.15538932027488273,"6":0.18210300377554392,"7":-0.21146480766392892,"8":0.057624145181221144,"9":-0.17722557581621054,"10":-0.3528231234025336,"11":0.11199523028750347,"12":-0.06445711194652023,"13":-0.06046841868742275,"14":0.020826327973027324,"15":0.16472288297473375,"16":0.22638778851837144,"17":-0.12401756173608677,"18":-0.21704100133082116,"19":-0.03231988574226014,"20":-0.23526721387705132,"21":0.13187310224378695,"22":0.04445617065389651,"23":0.2511956872167457,"24":0.21574418560889885,"25":-0.08644735080570237,"26":0.17979281217703602,"27":0.08455012568672568,"28":0.1360446080285532,"29":-0.016750992169934132,"30":0.12303409689614386,"31":0.04165476095849304,"32":0.14176561667401516,"33":-0.1056618619080437,"34":-0.044129039227135784,"35":0.022971256559376554,"36":-0.0757025745053177,"37":0.26298552292063015,"38":-0.08697045215469043,"39":-0.13501216415052955,"40":-0.12960886245195202}},{"sx":1,"sy":1,"depth":41,"w":{"0":-0.03978266094396898,"1":0.3294847489467253,"2":0.12612414864106836,"3":-0.20864060525201547,"4":0.1956274656771126,"5":-0.14452046495532103,"6":0.21978359863221708,"7":-0.12757326918747258,"8":0.46855982614850433,"9":0.04589871485582485,"10":-0.23615864737680306,"11":-0.2368426356686132,"12":-0.2917960943612801,"13":-0.11575818968853722,"14":0.22919809252215895,"15":-0.3520813978632334,"16":-0.09687949373561028,"17":0.1605522793536072,"18":-0.18679406692963202,"19":0.19819628734337508,"20":0.25950447610421823,"21":0.025081353224728264,"22":0.06677606050233971,"23":0.03206294391703487,"24":-0.10378163961052869,"25":-0.020283134935603294,"26":0.07102532237482195,"27":-0.09279368723419555,"28":-0.030273109502078288,"29":0.15942557964864623,"30":-0.1477278025832689,"31":0.08061370384588862,"32":0.10440374751989023,"33":0.16860611359969507,"34":0.060657472431750716,"35":0.17576942927636033,"36":-0.05382707977436679,"37":-0.11657808935388903,"38":-0.21560453783616487,"39":0.14977141474589173,"40":0.1508749834239465}},{"sx":1,"sy":1,"depth":41,"w":{"0":-0.2587078139441274,"1":0.08191837195485265,"2":0.07506706191478685,"3":0.1024507080252338,"4":-0.005999169626546155,"5":-0.19667291196108216,"6":0.09609075398222193,"7":-0.18706829471968126,"8":-0.0009324215925888148,"9":0.014658944310737027,"10":0.30766551394304803,"11":0.063575966570407,"12":-0.09771061723794636,"13":-0.11455115628724982,"14":0.2563008409173289,"15":0.17435496303057016,"16":-0.18695542589594513,"17":0.029095020291605652,"18":-0.15551836609464825,"19":0.05361450436519841,"20":-0.031546714254091106,"21":-0.08459226226025914,"22":-0.20267744797073187,"23":-0.0049181933588781646,"24":0.004401630883590098,"25":-0.15078310880485737,"26":0.023704723469829284,"27":0.09923392193515415,"28":-0.1878370605111748,"29":0.15096156584251919,"30":0.027369768478572493,"31":-0.059304136453571805,"32":-0.03176426571495599,"33":0.029461182896178276,"34":-0.16669695562406037,"35":-0.29761055574047207,"36":-0.035812676662414465,"37":0.27933734444213626,"38":-0.014736001304921476,"39":-0.1265745515526975,"40":-0.038901132912877064}},{"sx":1,"sy":1,"depth":41,"w":{"0":0.174050522004714,"1":0.2526775264035204,"2":0.03260023198005035,"3":-0.014036877649336893,"4":-0.08272321024136224,"5":-0.05752171932866292,"6":-0.17576788991383693,"7":0.29628153768154236,"8":-0.11743231189137428,"9":0.22663506478622936,"10":0.14979486654034666,"11":0.2626021124572805,"12":0.01812584868245235,"13":-0.24555656021307704,"14":0.1889196442127721,"15":-0.19003850133986175,"16":0.08427807585679493,"17":-0.07259484119424038,"18":0.010174994288537352,"19":0.021743691414734354,"20":-0.15065656181377862,"21":-0.007532320932913284,"22":0.1025567416269326,"23":0.029259557667741836,"24":-0.02315389660211147,"25":0.07322834052721187,"26":0.2376803062893613,"27":-0.0736172726033288,"28":0.1741399745722261,"29":-0.008996616628436151,"30":-0.14514318993566816,"31":-0.0964083870784466,"32":0.13876237748350675,"33":-0.15016815388411908,"34":-0.01648995323270094,"35":-0.005592220477062324,"36":-0.017213764422812937,"37":0.044429727988080495,"38":0.15071316660859913,"39":0.2546705879934706,"40":-0.1251205169195384}},{"sx":1,"sy":1,"depth":41,"w":{"0":-0.06451840863018171,"1":0.22080120016443897,"2":0.1608479499660202,"3":-0.013820559407933579,"4":0.2482257201932505,"5":0.1345853157635207,"6":0.07943810673194342,"7":0.13328130368952668,"8":-0.10505125567691097,"9":-0.0912413994108102,"10":-0.1952881500516441,"11":-0.27427665568600007,"12":-0.07956660459533099,"13":0.25545432153202313,"14":0.3860823428429894,"15":-0.05362995267640609,"16":0.08007296036314099,"17":0.20086490350201283,"18":-0.04311650140458959,"19":0.025890318447493565,"20":-0.09354922178978722,"21":0.09974122612005638,"22":-0.0015319706355192602,"23":-0.21688653876179367,"24":-0.22718618315959752,"25":0.15251753145474023,"26":0.13606703897073785,"27":-0.008176273441718585,"28":-0.04157191574846028,"29":-0.19098341783580974,"30":0.026849437100668654,"31":0.17315868742319865,"32":0.04622747075826107,"33":0.028221968662399306,"34":-0.0684637001811783,"35":0.09641635582274363,"36":0.15447880825359736,"37":-0.17326386211193145,"38":0.1553273638555502,"39":-0.011303212944135112,"40":-0.17468507748682693}},{"sx":1,"sy":1,"depth":41,"w":{"0":0.2596477202231919,"1":-0.044435919838328806,"2":-0.06565730686484787,"3":0.17819768324478288,"4":0.0265215241868767,"5":-0.040507551778189245,"6":-0.07910273633401722,"7":-0.1022365526644994,"8":-0.21177032396857903,"9":-0.010257838854498423,"10":-0.14516323226109437,"11":-0.14813491390306932,"12":0.12074082489842898,"13":0.09841415815599162,"14":-0.1709722243377593,"15":-0.010683178029075919,"16":0.08450431851453731,"17":-0.12423582401112886,"18":-0.24958084425699426,"19":0.16110694943191184,"20":-0.04066801363954977,"21":0.1247099741450374,"22":-0.33135873000720306,"23":-0.0666076723468832,"24":-0.21229005961716868,"25":-0.18849573816909426,"26":0.023959643103834423,"27":-0.09927723780596287,"28":-0.04148865828309321,"29":0.035181745088258894,"30":0.03675197624136424,"31":-0.030945490994531664,"32":0.2945893121601734,"33":0.18288842735883884,"34":-0.05761524125655146,"35":0.263545152862515,"36":0.10942723812861152,"37":-0.12976260755898256,"38":-0.009763556170436467,"39":0.1248575751923228,"40":0.14556228055972695}},{"sx":1,"sy":1,"depth":41,"w":{"0":0.15682284564910856,"1":-0.06459522118843206,"2":0.13729405049847598,"3":0.03187751768832325,"4":0.10240612347431549,"5":0.007082400600532951,"6":-0.10080648125172625,"7":0.07874818336888491,"8":-0.023497809011989623,"9":0.07427015571604281,"10":0.18176427903997244,"11":-0.05276113201434549,"12":-0.05904180447018665,"13":0.06044002672090839,"14":-0.18578470692550605,"15":-0.09375320346486374,"16":-0.0012912851803124645,"17":0.018708948973619844,"18":-0.11151802070969406,"19":-0.09799910381785204,"20":0.0764372583260925,"21":-0.0864737752468813,"22":-0.007886856219183025,"23":0.042503475705353275,"24":0.0517457287338681,"25":0.19864024723780277,"26":-0.1279757571072254,"27":0.1660834391385006,"28":0.32300417888518357,"29":-0.24040607467712727,"30":-0.11899565019546322,"31":0.025891601170499625,"32":-0.036853056858558386,"33":-0.07051775859132099,"34":0.20815922233781348,"35":0.16719599406398383,"36":0.24828913501484115,"37":-0.018096938928465135,"38":0.011011076543251758,"39":-0.04307838150693417,"40":-0.047838799248321455}},{"sx":1,"sy":1,"depth":41,"w":{"0":-0.0915234488339315,"1":-0.297195430162193,"2":-0.0459576178147288,"3":-0.007703596732770988,"4":-0.047441616116964715,"5":0.014837231297786092,"6":-0.2809880990996935,"7":0.02452963049011979,"8":-0.10939094688815393,"9":-0.14576074309020526,"10":-0.16594870688650737,"11":0.24200628646543745,"12":-0.20971150703584035,"13":0.128750389665926,"14":-0.06725401747862206,"15":0.07676823068370066,"16":0.06313051856089681,"17":-0.030391216380594138,"18":-0.062063090192614176,"19":-0.21133083111078219,"20":-0.30560509182061185,"21":0.13215571472655632,"22":0.15679224461906383,"23":-0.04849801976183666,"24":-0.09202343632417612,"25":0.18170490058871494,"26":-0.051188008703908466,"27":0.023373377521058586,"28":0.23467779754243537,"29":-0.0752999095408406,"30":-0.060952223748802374,"31":-0.1515433765017027,"32":-0.013035132025637587,"33":0.24867767249929695,"34":0.15202937897599125,"35":0.14415167417988023,"36":-0.05640913330673414,"37":-0.07046730662369034,"38":-0.14618457372953708,"39":0.04429778433437006,"40":-0.16340307496830445}},{"sx":1,"sy":1,"depth":41,"w":{"0":0.06087759300191402,"1":0.0054954210396201825,"2":0.024233562770626178,"3":0.07209415906635874,"4":0.10410124689604465,"5":-0.04173039629213715,"6":-0.024972019933493385,"7":0.04115746848741701,"8":-0.13094557259659909,"9":-0.019007199450464942,"10":-0.09752460633541714,"11":0.12785473584832902,"12":0.18638426862693636,"13":0.10825266712103647,"14":-0.24032657329073648,"15":-0.1265381480924488,"16":-0.0994799705073718,"17":-0.16357252147272253,"18":0.08814060781366095,"19":0.08486779556916399,"20":0.17883729342863144,"21":-0.18898547692218817,"22":-0.12563435513288973,"23":-0.028516831830248814,"24":0.0839808976521276,"25":0.059050665811926396,"26":-0.015775799158427584,"27":0.14479256660324846,"28":0.04675908838548902,"29":-0.04834489856448445,"30":-0.20067192875274667,"31":-0.12440526629127023,"32":-0.032134096046872875,"33":0.11251813100377589,"34":0.26915032186608834,"35":0.13562764263083069,"36":0.022262896947607535,"37":-0.2708892590639628,"38":-0.33264322077043046,"39":-0.2548330550449341,"40":-0.18635649887339864}},{"sx":1,"sy":1,"depth":41,"w":{"0":0.11943779376843429,"1":0.19125013375776767,"2":-0.16103213242058612,"3":0.09007753622165601,"4":-0.12703198325368198,"5":-0.060326100980354104,"6":-0.07308847564164751,"7":-0.001829970486017755,"8":0.10696269812810724,"9":-0.061991985559932905,"10":0.06348390025682332,"11":0.15476958339980493,"12":0.13951510259376668,"13":-0.17688752527037505,"14":0.12930272900781445,"15":0.14833920192801892,"16":0.01157365299398777,"17":0.09674606368604231,"18":-0.050796351176441906,"19":-0.12206801355039076,"20":-0.03536683924842682,"21":0.08938628094854681,"22":0.028713272032036517,"23":0.1369985338488652,"24":0.20658251450618761,"25":-0.2542752815119992,"26":-0.0807227496259503,"27":0.05092221681026533,"28":-0.08868329531595076,"29":-0.17056597031572626,"30":0.1813838011587351,"31":-0.028617973198408447,"32":-0.19414824460927527,"33":-0.03820969229825125,"34":-0.12511432137351514,"35":-0.09801105585518806,"36":-0.006269485618230069,"37":-0.10797013561506076,"38":-0.04237606522329581,"39":0.10285969872686415,"40":0.09353977028578678}},{"sx":1,"sy":1,"depth":41,"w":{"0":0.06582377433520416,"1":-0.00310349084368266,"2":0.08406380503603364,"3":0.023608021912072993,"4":0.11635490856225426,"5":0.20413255988779674,"6":-0.10679818614211678,"7":-0.07413640760234451,"8":-0.09628752614635211,"9":0.10442389542573809,"10":-0.19634922469526664,"11":0.025107982912795014,"12":0.2226981455754071,"13":0.315932232783449,"14":0.06299702103984808,"15":0.244202843797464,"16":-0.10900155810293341,"17":-0.019857797025654884,"18":-0.047412829598049266,"19":-0.17943613121613552,"20":-0.10119035628727283,"21":0.039941515082459175,"22":0.2245528872924897,"23":0.031068033640273298,"24":0.18996247552063347,"25":-0.08873477805224661,"26":0.25946717132715647,"27":0.1720011334276515,"28":0.07079127534373687,"29":0.1026766695942892,"30":-0.11713429294477602,"31":0.1041761512968963,"32":-0.17578416604838198,"33":-0.17519712183804717,"34":0.1631662053713772,"35":-0.09654544744452953,"36":0.10738804687484216,"37":-0.2802788096701203,"38":0.11124934219380667,"39":0.011717499870599026,"40":-0.017973141454126037}},{"sx":1,"sy":1,"depth":41,"w":{"0":0.09897578978760234,"1":0.0512901568839327,"2":-0.13896825033594598,"3":-0.20562379654740726,"4":-0.101968950671978,"5":0.19415302271239226,"6":0.09112477464105072,"7":-0.018639155250524623,"8":-0.06163791551405954,"9":0.19100603878582456,"10":-0.12080945338284534,"11":0.06709862084023753,"12":0.23741916979541486,"13":0.2600322517890034,"14":0.031791780221611304,"15":0.0633751791193357,"16":-0.12484977751350043,"17":-0.12214561510290627,"18":0.0006173333345005243,"19":-0.04074370070164906,"20":-0.024661956968394735,"21":0.07865303263492791,"22":-0.1602706260761564,"23":-0.21122594781190554,"24":0.10014379915888286,"25":0.21555466085240507,"26":-0.06067084082383931,"27":0.05168549702352801,"28":0.06829128148700546,"29":0.06249427551073763,"30":-0.0410283260032734,"31":-0.12405527539973493,"32":0.07580522857982781,"33":0.03622490518188129,"34":-0.18198135863803858,"35":0.12414654435546035,"36":-0.12415356967873174,"37":0.07038812040545436,"38":-0.01452376696834196,"39":0.1163829868744819,"40":0.12129215011470575}},{"sx":1,"sy":1,"depth":41,"w":{"0":-0.06215581787266565,"1":-0.14575862926514113,"2":0.06545600439720999,"3":0.058912257655447435,"4":-0.17214849133788854,"5":-0.16506930743493717,"6":-0.08130118994780956,"7":-0.08336767994655105,"8":0.029488030348804675,"9":-0.11401087979304483,"10":0.1704738467699846,"11":-0.054247423218253134,"12":0.0370434603001569,"13":0.1555936118213276,"14":0.06513391764275381,"15":-0.09984213977043643,"16":0.3201854949506824,"17":-0.027029162204153037,"18":0.05344600531757803,"19":-0.16081494936649593,"20":0.02781539250003258,"21":-0.2952129646912231,"22":-0.13650600047331568,"23":-0.06654098163531344,"24":0.5218590069535356,"25":0.14469323215477312,"26":-0.03305898286801891,"27":-0.08639504145584553,"28":-0.10703742850836416,"29":-0.13066331819957913,"30":0.12527029965978628,"31":0.15453368728107733,"32":0.16615119390284674,"33":0.2333996552041072,"34":0.05159789226411749,"35":0.1603859499722689,"36":-0.08690321647706074,"37":0.233927224441578,"38":-0.17413840188767185,"39":0.0824819357744951,"40":0.21418144083145157}}],"biases":{"sx":1,"sy":1,"depth":30,"w":{"0":0.09311474935033984,"1":0.08808505841432994,"2":0.10481606000430592,"3":0.10341099822447049,"4":0.08958613917680207,"5":0.09623152622277399,"6":0.10269477254841872,"7":0.09352693166826269,"8":0.09542132781370628,"9":0.09721715919780403,"10":0.09270146347925656,"11":0.09139074163300996,"12":0.11033122515394012,"13":0.09809730644343641,"14":0.09271717880276743,"15":0.10147973424317364,"16":0.10423100785878736,"17":0.09597369852108507,"18":0.0993615580389554,"19":0.09249569849887734,"20":0.10130712839908101,"21":0.1042147424406268,"22":0.0922231758534353,"23":0.11820670236345197,"24":0.09178111659693441,"25":0.07911249058993498,"26":0.09995523732088359,"27":0.10473011664058261,"28":0.09632271557771183,"29":0.10428706877521975}}},{"out_depth":30,"out_sx":1,"out_sy":1,"layer_type":"relu"},{"out_depth":30,"out_sx":1,"out_sy":1,"layer_type":"fc","num_inputs":30,"l1_decay_mul":0,"l2_decay_mul":1,"filters":[{"sx":1,"sy":1,"depth":30,"w":{"0":-0.07161014115462214,"1":0.17440918104263403,"2":0.028106373426380588,"3":-0.16736496519507488,"4":0.12921341676015832,"5":0.3713048166166799,"6":-0.10788514377228248,"7":-0.33680282208332973,"8":-0.11908757626687329,"9":0.10444325064579721,"10":-0.06991333856966585,"11":0.06034813298981481,"12":-0.03941248531237124,"13":0.24139579684163553,"14":-0.09176680502500574,"15":-0.0022358275026478245,"16":-0.05916408516233323,"17":-0.07426862262392363,"18":0.4103503541564411,"19":-0.13594921746061395,"20":0.0756933755594616,"21":0.29581989046018853,"22":-0.15529928351963795,"23":-0.08906336156119717,"24":0.15759748937806248,"25":-0.07808511976660927,"26":-0.10761783888517662,"27":-0.11863310710348382,"28":0.27492259380620204,"29":-0.07706748215176347}},{"sx":1,"sy":1,"depth":30,"w":{"0":-0.04979726329295231,"1":0.09066584116202156,"2":0.058495561964593205,"3":-0.09286257751719672,"4":0.24533263395711985,"5":-0.09505959574635892,"6":-0.09695826064115515,"7":0.1014548373831027,"8":-0.01641905622052539,"9":0.07955116711118308,"10":0.12505151927956493,"11":-0.14957279713353552,"12":0.2298784053285427,"13":-0.19133583618721273,"14":0.06720558153125518,"15":0.07646056543683491,"16":0.3993536818353971,"17":-0.024582256593668264,"18":-0.2667006317029569,"19":0.017059199767170453,"20":-0.0634381173698482,"21":0.09553286406773079,"22":-0.28344084830981153,"23":-0.02868633696403508,"24":0.08988993418351683,"25":-0.07442044594698917,"26":0.15949646465259532,"27":-0.0059209719524390796,"28":0.04305724124910416,"29":-0.00020295156825515158}},{"sx":1,"sy":1,"depth":30,"w":{"0":-0.2294127134611195,"1":-0.16967308735594802,"2":-0.1376161437647912,"3":0.19415882542126797,"4":-0.0776107685652634,"5":-0.1406544422608886,"6":-0.07396665148769818,"7":0.03548181364608334,"8":0.048440899665988926,"9":-0.037568285335945556,"10":0.1762460711468942,"11":0.05127816809222371,"12":-0.10519838703963717,"13":0.04710053285543008,"14":-0.10834485674187137,"15":-0.13060798654476335,"16":0.1276663898370258,"17":-0.1370981552439437,"18":0.0778738148266093,"19":-0.16686597638025172,"20":-0.11736554868949621,"21":-0.0934111344624436,"22":0.12711012667531324,"23":0.2069392461917779,"24":0.10260890357058705,"25":-0.07612286423706342,"26":-0.22725387467573596,"27":-0.09564020297543337,"28":-0.49944847152642774,"29":-0.08056862473616863}},{"sx":1,"sy":1,"depth":30,"w":{"0":0.05161665849016978,"1":0.2822540802860592,"2":0.15106992281831988,"3":0.020755843671380364,"4":-0.013266048046254262,"5":-0.004070789922992755,"6":0.35203830287624066,"7":0.018667891761803446,"8":0.030674907380460945,"9":-0.17879293059200915,"10":0.06872072232320232,"11":0.10971229941296243,"12":-0.15831174756007482,"13":-0.1018660304480454,"14":-0.06536643785919122,"15":0.3787431881699134,"16":0.030036285028648232,"17":-0.06632924794555187,"18":-0.17008739230147185,"19":0.10473622938515655,"20":-0.13887871594816378,"21":0.0559789808142719,"22":-0.020982037729327847,"23":-0.1626476855497357,"24":0.36766013719870155,"25":0.19691054180280418,"26":-0.12206874589879078,"27":0.02792208673031042,"28":0.18368101901955353,"29":0.08487506738342306}},{"sx":1,"sy":1,"depth":30,"w":{"0":-0.1926020823586081,"1":0.3314161637231997,"2":-0.08754898062011794,"3":0.20903758917637358,"4":0.1170742305206524,"5":-0.043830505229724905,"6":0.27486091688791775,"7":-0.4982652355260954,"8":0.1307853604902645,"9":-0.025649972812739202,"10":0.0500445851754364,"11":-0.3027424978514729,"12":-0.27340584034470816,"13":-0.021209954079020953,"14":-0.2533362129032714,"15":-0.10923909314582697,"16":-0.0024868723522807985,"17":0.09696761260572144,"18":0.027454921728084825,"19":0.22936340695470167,"20":0.05426939095625348,"21":0.4035499948429834,"22":-0.14138368940243107,"23":-0.0278072624055452,"24":0.0667885668757675,"25":-0.2040655120758022,"26":0.0237841644550558,"27":-0.10804208254857872,"28":-0.17903646713678842,"29":-0.1393731823017376}},{"sx":1,"sy":1,"depth":30,"w":{"0":0.12040002578898583,"1":-0.047561007919597956,"2":0.08723788161975907,"3":0.1857869461064211,"4":0.03820157846153592,"5":-0.037282190011108,"6":-0.06786205585947859,"7":-0.38497724121431626,"8":0.07765114608957109,"9":0.10730482315866567,"10":0.07402210252203013,"11":-0.18430391242114585,"12":-0.3403837818566906,"13":-0.04053365440832067,"14":0.014738360551336285,"15":-0.18112953006018476,"16":-0.08413471126612469,"17":0.025350074491987583,"18":0.17714092102544363,"19":0.07259344633292382,"20":-0.21351107591496157,"21":0.1264659166154914,"22":-0.1261861299495966,"23":0.2531783679204925,"24":0.00907806677394092,"25":-0.17728928643534006,"26":0.2029194265314248,"27":-0.12979101417147007,"28":0.19101553925975207,"29":-0.25942936320442184}},{"sx":1,"sy":1,"depth":30,"w":{"0":0.14130112198465664,"1":-0.3640543882174789,"2":0.2792823985702775,"3":-0.005165968530684979,"4":0.1750056343824674,"5":0.0009549765332003319,"6":0.10420938970583273,"7":0.01494191541314546,"8":0.15584075205815842,"9":0.1093941965129396,"10":-0.08952604386012862,"11":-0.2659468391314781,"12":-0.15058801310449535,"13":0.17350102773543463,"14":0.11317051810542444,"15":-0.10409629267290572,"16":-0.04776121339343381,"17":0.15979031832848262,"18":0.18547898117829953,"19":-0.09377481797078076,"20":0.24111780407664787,"21":-0.15065993444668022,"22":0.06556896489634541,"23":-0.04148821125470732,"24":0.03188354832435056,"25":0.1117078406504938,"26":-0.32229986755859186,"27":0.28458608703071053,"28":0.08918182358305234,"29":0.09055481718671157}},{"sx":1,"sy":1,"depth":30,"w":{"0":0.20569527131652787,"1":-0.1291251692598783,"2":0.11935694145735325,"3":-0.26984737863029956,"4":-0.18825319193125567,"5":-0.22412616927445647,"6":0.0020955480050559206,"7":-0.13699268789470403,"8":0.056805990887347994,"9":0.06159004141774333,"10":0.043614853730599826,"11":0.0005345287232839665,"12":-0.20873573495030176,"13":0.42212300807885,"14":-0.2910641765641273,"15":0.23134778090788546,"16":-0.3164544607458815,"17":-0.05821008826161145,"18":-0.125423873246145,"19":0.07039436191397969,"20":-0.19403238567979664,"21":-0.23947117208266852,"22":0.030543463106361246,"23":0.03281439889861821,"24":0.011910364732680812,"25":-0.1373696283058684,"26":-0.20126376782957825,"27":-0.021871899476514405,"28":0.4616891009371303,"29":0.06360786507757313}},{"sx":1,"sy":1,"depth":30,"w":{"0":-0.24575971688101078,"1":0.04368452459985672,"2":-0.14074614181700426,"3":0.029265730755732067,"4":-0.03289867361519803,"5":-0.05454336815405152,"6":-0.20053820736298478,"7":0.10358660038730906,"8":-0.0884227520008718,"9":0.29451655957513395,"10":-0.3548309190296593,"11":-0.09096793329919392,"12":-0.057935685952388585,"13":-0.21930402028097326,"14":0.29944228731356703,"15":-0.024256716562833753,"16":0.0033150135651361864,"17":-0.016889075756268995,"18":-0.1965856611536556,"19":0.0895374423230857,"20":0.046326698158867585,"21":0.16522713038783643,"22":-0.2741225273950381,"23":0.1935227370406199,"24":0.03169844238180622,"25":-0.2130529888153293,"26":-0.07652919303672606,"27":-0.04394693404182206,"28":0.09356237920622916,"29":-0.2427212412434846}},{"sx":1,"sy":1,"depth":30,"w":{"0":0.22231908778266682,"1":-0.15449983954595417,"2":-0.18741193235184578,"3":-0.13414171489068516,"4":-0.12255276751384124,"5":-0.11742897662736716,"6":0.21597560887574102,"7":0.15107893433264022,"8":0.26685140334405383,"9":0.048289015766333244,"10":0.14809189963823674,"11":0.22498003504337727,"12":0.09492560212822691,"13":0.246214030578571,"14":0.2153130249745731,"15":-0.15355579023737992,"16":-0.2372862516420347,"17":-0.049554303101318774,"18":0.04625706555801861,"19":-0.3050908444474553,"20":0.02315636971367844,"21":-0.046633575316792,"22":0.31164105130282715,"23":0.17718601143338777,"24":-0.14538067993661774,"25":-0.020320521066737804,"26":0.28944260795211807,"27":0.029900399252089982,"28":-0.004198881255825381,"29":-0.34058796085056553}},{"sx":1,"sy":1,"depth":30,"w":{"0":-0.1338031935385325,"1":-0.2624733413250336,"2":-0.1666535948450898,"3":0.0772543228275783,"4":-0.02631850534092508,"5":-0.15810625636880735,"6":-0.049990451369947134,"7":0.1071620425756061,"8":-0.053842517789524334,"9":0.06119553116703413,"10":0.08325310517194165,"11":0.28698463920836154,"12":-0.16557822294940408,"13":0.2801412769923207,"14":-0.2414047322017662,"15":-0.06157313101627073,"16":-0.02380013472934527,"17":0.2520528520971498,"18":0.0716227044169199,"19":-0.3983798539069138,"20":-0.01906052939621018,"21":0.07206995543633518,"22":0.3944865366947036,"23":-0.016232578168234413,"24":0.007044239060646408,"25":0.15126134496143917,"26":0.01528112062015767,"27":-0.05498653542711599,"28":0.11137749910764874,"29":0.033271750941792286}},{"sx":1,"sy":1,"depth":30,"w":{"0":-0.34277056312912246,"1":-0.21465557231051866,"2":-0.2517243841500877,"3":0.14702195474951799,"4":-0.24385793310230064,"5":-0.005179329947336171,"6":-0.1156080730785104,"7":0.13785826926151415,"8":-0.12427652038455148,"9":0.25789366638666394,"10":-0.30675849286357953,"11":0.1948585339187962,"12":-0.20545340561386535,"13":0.17698580413025986,"14":0.03434864856696852,"15":0.11821341080690768,"16":-0.09946096710972945,"17":0.024831211796734438,"18":-0.02091078063938062,"19":-0.10846993765312354,"20":-0.17125716034791794,"21":0.15343475622180477,"22":-0.3094789767580992,"23":0.025387020926022404,"24":-0.07041172822409682,"25":-0.15009741586622544,"26":0.019365940366767923,"27":-0.009504040627410296,"28":-0.0007829551623789238,"29":0.23410999990831788}},{"sx":1,"sy":1,"depth":30,"w":{"0":-0.19814386360973307,"1":-0.27440499817287956,"2":-0.00025310797293872945,"3":-0.04742672238237766,"4":-0.02260161279923601,"5":-0.10395363669130343,"6":-0.20857401557327246,"7":-0.014861446172779662,"8":-0.059936900305354035,"9":-0.033542330778841875,"10":-0.02806519450330861,"11":0.07185627975215968,"12":0.12249959436840606,"13":0.11089408604325679,"14":-0.011058617093273508,"15":0.44469957160215395,"16":-0.3859529583041473,"17":0.17405555524437893,"18":0.015629037595040994,"19":-0.05652381391883577,"20":0.11693690379408349,"21":0.04605894899191965,"22":-0.01718487902795644,"23":0.09419014360823845,"24":-0.11374221562130599,"25":-0.3996863435488571,"26":0.061835935513478435,"27":0.18884530846925696,"28":0.011994352649377323,"29":-0.13948156545204507}},{"sx":1,"sy":1,"depth":30,"w":{"0":0.08750938137159377,"1":-0.07766459176072824,"2":0.15202940530696868,"3":0.05439249979357825,"4":-0.09302426799686288,"5":0.05055385738954311,"6":-0.041027810749806985,"7":-0.010553419958552078,"8":0.0424417756220051,"9":0.16638696488275584,"10":-0.11681285468198195,"11":-0.23005243933817893,"12":0.08270258469024183,"13":-0.07521400710240166,"14":-0.046676488724523735,"15":0.024187694229321766,"16":-0.1069146370280689,"17":-0.08904364877901581,"18":0.2517044245721605,"19":0.04450946185641611,"20":-0.2445272819875906,"21":-0.05836912841344969,"22":0.02801158664452275,"23":-0.042519086768560165,"24":0.034605185602004644,"25":0.1886456316402302,"26":0.2857671764605772,"27":0.1432085322598822,"28":-0.20468465811484027,"29":-0.2312959173471209}},{"sx":1,"sy":1,"depth":30,"w":{"0":0.0027434743791529873,"1":-0.21818677502979278,"2":-0.22127563965691607,"3":0.06504233078018631,"4":0.26621555357826054,"5":0.3228391333135475,"6":-0.280526683883918,"7":0.04927374275323172,"8":0.021503186547216824,"9":0.17127827653963082,"10":-0.04994067530137933,"11":0.18341825701999526,"12":-0.2803666021317387,"13":-0.1599376304402593,"14":-0.22774726259551742,"15":0.12363109099040413,"16":0.1608372605436137,"17":0.029345377746389067,"18":-0.18295139977858393,"19":-0.2929263462335448,"20":-0.03340822878343229,"21":0.04600761788435854,"22":-0.11337052541379096,"23":-0.11144269776280699,"24":-0.035476358219390255,"25":0.2434406301059154,"26":-0.1601986920466702,"27":-0.29146980611680495,"28":0.08441953085881657,"29":0.017760362758878108}},{"sx":1,"sy":1,"depth":30,"w":{"0":0.17326373911308288,"1":0.1129295957493978,"2":-0.024416043002745372,"3":-0.26967680404096595,"4":-0.18004182721172943,"5":0.053205435543474885,"6":-0.12469898775523407,"7":0.043248489396214784,"8":-0.17620872522443712,"9":-0.09035714216633059,"10":-0.017112412232836653,"11":0.2408643324564204,"12":0.11705855924219237,"13":-0.12303983718151451,"14":-0.001715474073997613,"15":0.1782076024306285,"16":0.06270265446074884,"17":0.07069954392400213,"18":-0.04469410584672022,"19":0.4248702086869833,"20":-0.13186905709712454,"21":0.10816930137561943,"22":0.06543173486972353,"23":0.18430989833880526,"24":0.0794248072477389,"25":0.05816708434922508,"26":0.1772357738055461,"27":-0.04404981813699266,"28":0.12325051926860625,"29":0.06645617484780136}},{"sx":1,"sy":1,"depth":30,"w":{"0":0.19950552636503166,"1":-0.26467537565297733,"2":-0.05098025452348462,"3":0.08291686851398614,"4":-0.26768702809954487,"5":0.027291016241429294,"6":-0.08181599817463822,"7":-0.28701628714674143,"8":0.3265905262172579,"9":0.14105606741817597,"10":0.16623179427932194,"11":0.14774766927583552,"12":-0.04059400058947471,"13":-0.16246655031318213,"14":-0.17719378983589443,"15":-0.3368331276592456,"16":-0.12418663548143025,"17":0.08077770744809386,"18":-0.188540322504214,"19":-0.08413549678339825,"20":-0.007458741308839937,"21":0.1069320866659385,"22":-0.14372145469631328,"23":-0.07278022356805748,"24":0.06978326017500869,"25":-0.4174028244956906,"26":-0.09754829235305378,"27":-0.009407739904645331,"28":0.16896230242470955,"29":0.07323755194834279}},{"sx":1,"sy":1,"depth":30,"w":{"0":0.2079976069407656,"1":-0.017904184821066395,"2":0.06469427137718749,"3":-0.2375077041887078,"4":-0.19368330611071996,"5":-0.04116658429887013,"6":-0.029852753803219566,"7":-0.07367123499153458,"8":-0.1296538771270993,"9":0.038684226525404486,"10":0.1690903453160953,"11":0.23408987731555225,"12":-0.16944007041989123,"13":-0.07925062690950851,"14":-0.1477562984948604,"15":0.25816504647745453,"16":-0.14700080890534803,"17":0.10037925829350244,"18":0.213370965862201,"19":0.2406473568067609,"20":0.06174426921260337,"21":-0.11773549874624632,"22":0.24954966500300696,"23":0.15245417443541487,"24":0.05766650413695946,"25":0.041099067829173136,"26":0.0757504052018089,"27":0.12155876834603634,"28":-0.07917789792538402,"29":-0.15737328407831164}},{"sx":1,"sy":1,"depth":30,"w":{"0":-0.1526659309774214,"1":-0.24959952293357984,"2":0.13720142390375145,"3":0.02582744635657844,"4":0.09639779364512073,"5":-0.3080535987582592,"6":0.3611762032680814,"7":0.16193356147478769,"8":0.3698659894625023,"9":-0.006732423637291704,"10":0.011562078734055199,"11":-0.20855720211728082,"12":-0.3472777501836064,"13":0.034681120547691145,"14":0.016953633420122,"15":0.3410023281689888,"16":-0.7494481278796745,"17":0.026506155129762368,"18":0.2460101944287036,"19":0.15823229521890217,"20":-0.06664120083644005,"21":0.09597257251840263,"22":0.3032775121221269,"23":0.11727796792606882,"24":-0.23188366777176544,"25":0.2688878070367157,"26":0.11846371706426014,"27":0.1920818564806262,"28":-0.0022345540036490205,"29":-0.004506965474561664}},{"sx":1,"sy":1,"depth":30,"w":{"0":-0.06860807575734543,"1":0.4975912928073526,"2":0.13787911207034614,"3":0.019468677353280964,"4":0.04617478979691861,"5":0.15255025232703504,"6":0.08819668956810182,"7":0.17012917009739376,"8":0.32099122771840666,"9":0.3741211291504893,"10":-0.2278961583414289,"11":-0.09566838787583881,"12":0.20904786713220866,"13":0.4010307841005106,"14":-0.1229005128445487,"15":-0.30491562828781377,"16":0.23521139539358812,"17":0.04001704593303995,"18":0.03606599309609493,"19":0.32998821446318133,"20":0.0652130124650703,"21":-0.15108285918624167,"22":0.2900403588609256,"23":0.0021007979262200284,"24":0.13204305790458248,"25":0.2118954847967343,"26":0.12278710835339046,"27":0.7173688297030241,"28":0.5470923062110964,"29":-0.07861751194220358}},{"sx":1,"sy":1,"depth":30,"w":{"0":0.16116764945556478,"1":0.1784614962684696,"2":0.05855035918326761,"3":0.08786043358159595,"4":-0.096603476825743,"5":-0.11952606230911156,"6":0.012802674461513393,"7":-0.0710847266214326,"8":-0.10859398454911577,"9":-0.10418680697513429,"10":-0.14946812599527137,"11":0.00913336755018851,"12":0.1026394477567169,"13":-0.09962832671112351,"14":0.11966313293875269,"15":0.06242145844858318,"16":-0.13376770721939787,"17":-0.1746721012614247,"18":0.03006992306745209,"19":-0.15320538222728075,"20":0.07861023881839699,"21":0.26125825189751567,"22":-0.06796909507606902,"23":0.06985867595172023,"24":0.2438126668301516,"25":0.014636156782589232,"26":-0.05658765795152529,"27":-0.2583085792649995,"28":0.15869008395050652,"29":0.049710480924501095}},{"sx":1,"sy":1,"depth":30,"w":{"0":0.44645618156432026,"1":0.010187365029778208,"2":-0.0806383297449566,"3":0.14255523595132413,"4":-0.15417149612202363,"5":-0.0379779081185501,"6":-0.039422538824111855,"7":-0.09520385593809082,"8":-0.18982712286243586,"9":-0.11361150686407781,"10":0.19221286213519725,"11":0.21104253359968914,"12":0.04501792157141,"13":-0.05328711159741287,"14":-0.17360180638924827,"15":-0.018379608384896277,"16":-0.17634810033264325,"17":-0.18668280316845923,"18":-0.04887884245049976,"19":0.11636951075685585,"20":0.08582903536598085,"21":-0.14446858388708542,"22":0.0638299308635332,"23":0.11715854338739952,"24":0.001684570669741439,"25":0.09460429679592557,"26":-0.17032914137157842,"27":-0.23087573253647486,"28":-0.10840035765255972,"29":0.13573113898114117}},{"sx":1,"sy":1,"depth":30,"w":{"0":0.2879907316969937,"1":-0.09369911280066034,"2":-0.11075216753391849,"3":-0.06362487079531463,"4":0.1059387462590235,"5":-0.19349397285217215,"6":0.06824602627581029,"7":0.045035489067904104,"8":0.07210210070790109,"9":-0.20181432305932626,"10":0.14914820133066928,"11":0.23320388946201664,"12":0.3020985715696084,"13":-0.08901796749090009,"14":0.031078335945866956,"15":-0.2561894615147727,"16":0.328267340374208,"17":0.015811124789567966,"18":0.09593214424476486,"19":0.011792704425899282,"20":-0.026006987010844695,"21":0.37495603078774226,"22":-0.25729696791671636,"23":0.027323706231759143,"24":0.013370670133686537,"25":-0.15402790344254613,"26":-0.24718874381589304,"27":0.05170915013415121,"28":0.07411892747557539,"29":-0.05851687846124149}},{"sx":1,"sy":1,"depth":30,"w":{"0":-0.32291860465472283,"1":0.0724505608846964,"2":0.16654923840114694,"3":0.12619276054438314,"4":-0.13260692032613555,"5":-0.0030119613679589377,"6":0.11888828718379536,"7":0.14005072159890167,"8":-0.09133622747009697,"9":0.11743586700175336,"10":-0.263203682993157,"11":0.08708267121970487,"12":-0.025864875144493996,"13":-0.06838851655865306,"14":-0.14637636853308542,"15":0.012832552620366904,"16":-0.3744137359907347,"17":-0.017543976762531128,"18":-0.04108072099236416,"19":-0.028965486978584087,"20":-0.2313538235604779,"21":0.06337435228444606,"22":0.1017781078805933,"23":0.26322198883558484,"24":-0.040272068250290574,"25":0.07897552161352342,"26":-0.12659363693680503,"27":-0.076494600833271,"28":-0.07356976172519383,"29":0.10339165365804065}},{"sx":1,"sy":1,"depth":30,"w":{"0":0.10195543482834961,"1":0.09371112856488657,"2":-0.07585510510748647,"3":-0.02607162454812755,"4":0.05619853989040816,"5":-0.020080593510545208,"6":0.0594476992015092,"7":-0.2695833851458371,"8":-0.041042180143281544,"9":-0.05643025216543893,"10":0.19720575748514738,"11":0.20329153973456063,"12":-0.024467510619606628,"13":-0.02547287655439698,"14":0.181091662165746,"15":0.10286481508651735,"16":-0.0970083749691508,"17":-0.32334049110406166,"18":-0.2107307967461146,"19":-0.23312839745198574,"20":0.06549451034331048,"21":-0.0787016065233122,"22":0.0009922897549366238,"23":-0.39481936342115087,"24":-0.05699422392208416,"25":-0.17706263378722556,"26":-0.0182837081524619,"27":0.025130945842105182,"28":-0.14422906277881245,"29":0.016693067400048257}},{"sx":1,"sy":1,"depth":30,"w":{"0":0.04202966881981764,"1":0.09498076378479361,"2":0.21081651188272935,"3":0.2702870476620141,"4":0.1577124031466441,"5":0.4213942488170215,"6":-0.07744411379026728,"7":-0.19458735374167005,"8":0.029740512381470924,"9":0.019851734479121495,"10":-0.11135389377661367,"11":-0.04217736797562041,"12":0.08174305396931128,"13":0.006593497214315626,"14":0.0026426379106727826,"15":-1.3797677936084303,"16":0.9551250641877602,"17":0.13382147596099742,"18":-0.17428226915846137,"19":-0.01593805004345463,"20":-0.09381205307909711,"21":-0.14886256649030624,"22":-0.01636387130684171,"23":0.09393929276543088,"24":0.08414566292662753,"25":-0.3052434776284176,"26":0.2880611148277301,"27":0.007323482405177041,"28":0.12304652421717797,"29":0.004897778871986503}},{"sx":1,"sy":1,"depth":30,"w":{"0":-0.12227845023875211,"1":-0.3253949835844668,"2":-0.053858932863798545,"3":-0.09006298076588279,"4":-0.14454750860480373,"5":0.36365153832911196,"6":0.13348883787456467,"7":-0.05167329350351196,"8":0.16438406463423164,"9":0.21618461954261403,"10":-0.08625024310714682,"11":0.25140737234671173,"12":0.16304508671775353,"13":-0.1187699070124704,"14":-0.12216865146764133,"15":-0.16734219705922126,"16":-0.3132866475888111,"17":-0.256793778627897,"18":-0.28993797930123516,"19":-0.2681114243531703,"20":0.02188611723528079,"21":0.04661535563849782,"22":-0.012651571075015257,"23":0.16035534268721968,"24":-0.05738560343212019,"25":0.1602815104838097,"26":0.34532544774277835,"27":0.05152284754349962,"28":-0.28345918391558517,"29":-0.2725293120036075}},{"sx":1,"sy":1,"depth":30,"w":{"0":0.22046509613758797,"1":0.09618559088456247,"2":0.18435839654493025,"3":-0.008463662776682819,"4":0.29876518153864445,"5":-0.1992041855293799,"6":0.06341610793469611,"7":-0.11201949097813312,"8":-0.04920716363900954,"9":-0.17909509040520677,"10":-0.00287758585877812,"11":-0.268277520336933,"12":0.03867412083059768,"13":0.21220080609887634,"14":0.07707215373117252,"15":0.15803242430046538,"16":0.04783284698827059,"17":-0.13360047964869076,"18":-0.36302024227247154,"19":-0.3740244886266731,"20":-0.022270570416928273,"21":0.05626551469346046,"22":0.13458430567470905,"23":0.039925904541044825,"24":-0.07258814074073959,"25":-0.10154936565119903,"26":-0.452982517556831,"27":0.08536668942368515,"28":-0.1579960986358142,"29":0.21469604689290345}},{"sx":1,"sy":1,"depth":30,"w":{"0":0.27885304244335596,"1":0.04334221705430572,"2":0.037285464505519,"3":0.02562763978819868,"4":-0.15055884365984737,"5":0.15294975326403942,"6":0.2704009288329022,"7":0.039697957028890396,"8":-0.16881426322469756,"9":-0.07779079074989377,"10":0.06502125719170318,"11":-0.3649363012200862,"12":-0.1301901455838411,"13":-0.08804911404164976,"14":0.32576918009465916,"15":0.12070249953290851,"16":-0.007964958588769628,"17":0.1476473947462296,"18":0.09250877031132128,"19":-0.2852046970122792,"20":-0.20033591535222248,"21":-0.11808983830962728,"22":-0.23932062512332325,"23":0.004495500393829929,"24":0.19005773715950317,"25":0.01269987097787487,"26":0.14380105050025235,"27":0.0734381691576911,"28":-0.00947755818998589,"29":-0.4368765586727527}},{"sx":1,"sy":1,"depth":30,"w":{"0":0.06393967228225579,"1":-0.09690587633866234,"2":-0.20291390637413756,"3":0.23238496525342522,"4":-0.05871530630974148,"5":-0.01293414996955896,"6":-0.08399974580910041,"7":0.2173631992955362,"8":-0.04401935117815327,"9":0.12091859957743044,"10":0.07619507961640037,"11":-0.3770215418898505,"12":-0.07588873765577499,"13":0.37237925928276594,"14":-0.0037793790811612806,"15":0.4694486676300067,"16":-0.02554566736129499,"17":-0.044130966691554724,"18":0.02429051309624863,"19":0.19881160875356155,"20":0.17257189026814673,"21":-0.19156561328169872,"22":0.1080499963013795,"23":0.0132899038569226,"24":-0.12839855769167763,"25":-0.23247897760579544,"26":0.09007176428056116,"27":0.10077204686859134,"28":0.30966122910658306,"29":-0.21864093391482842}}],"biases":{"sx":1,"sy":1,"depth":30,"w":{"0":0.09135435540880861,"1":0.08427736099893726,"2":0.09770597513747928,"3":0.09839809524874757,"4":0.12289462455773453,"5":0.10970434545982428,"6":0.10795210093941433,"7":0.09646414139625466,"8":0.09742509403790849,"9":0.10276072481874945,"10":0.09666732123394832,"11":0.10834945877258294,"12":0.10058987122914928,"13":0.096758634120565,"14":0.08140442046417085,"15":0.08680225899698538,"16":0.09823681824805423,"17":0.09481244381217865,"18":0.0979878713256002,"19":0.12754998246796392,"20":0.09118819137069507,"21":0.08851351180062521,"22":0.09413768022924392,"23":0.11208280079729646,"24":0.0981715904830118,"25":0.10680474801770558,"26":0.08429189403026241,"27":0.08542711102158843,"28":0.08742982760498845,"29":0.08360667265707923}}},{"out_depth":30,"out_sx":1,"out_sy":1,"layer_type":"relu"},{"out_depth":4,"out_sx":1,"out_sy":1,"layer_type":"fc","num_inputs":30,"l1_decay_mul":0,"l2_decay_mul":1,"filters":[{"sx":1,"sy":1,"depth":30,"w":{"0":0.015227806077597479,"1":0.22371412723594405,"2":0.13156656870372652,"3":0.0543825543565924,"4":0.10737016417949942,"5":0.18813267464367647,"6":-0.1262118614857853,"7":-0.25012264651809085,"8":-0.06907583116137392,"9":-0.22909810492092983,"10":-0.06696033409202029,"11":-0.11282600487936024,"12":-0.42710857343762193,"13":-0.16371374870675937,"14":-0.11291870214904952,"15":0.010193726702889492,"16":0.19016645145348937,"17":-0.1504979196690872,"18":-0.43777918079093664,"19":0.36051272397181366,"20":0.016586645625128352,"21":-0.2434149645592641,"22":-0.06447219285041497,"23":-0.23694820434260833,"24":0.0098732241524515,"25":1.1511115883005658,"26":0.02643238882720543,"27":0.0047417993517921845,"28":-0.10519562214543539,"29":-0.17764095231971744}},{"sx":1,"sy":1,"depth":30,"w":{"0":0.02513943538638374,"1":-0.029801434484892645,"2":-0.06036446668318097,"3":0.07664372283519702,"4":0.10348638771470037,"5":-0.013455732155805901,"6":-0.02821518780431195,"7":-0.15382806141503116,"8":0.010585865381691153,"9":-0.294782060094754,"10":0.14467135432021394,"11":-0.19257369724408532,"12":-0.2490383542819085,"13":-0.06817501303103968,"14":0.0630658710024628,"15":0.006908916776098298,"16":0.09739574175282696,"17":-0.028673830748228067,"18":-0.4599906686670051,"19":0.278246263135953,"20":-0.1417789743445754,"21":0.07096767911630648,"22":0.24433388932597577,"23":-0.08108579993998896,"24":-0.07040979473319653,"25":0.8047282072380517,"26":-0.2375411767128984,"27":0.009330800700818938,"28":-0.0842468289250177,"29":-0.22014057164235912}},{"sx":1,"sy":1,"depth":30,"w":{"0":0.011949781123679304,"1":0.32265611042746345,"2":0.02993749664821429,"3":-0.18313494384816867,"4":-0.0024527993064826013,"5":0.1958865952789576,"6":0.057862285042939963,"7":-0.3216044858240062,"8":-0.10753902494026284,"9":-0.14756077409405757,"10":0.04983997214666219,"11":-0.029052519640692994,"12":-0.21889059953128076,"13":0.09806645385452903,"14":-0.09441201760446703,"15":0.1480197213039653,"16":-0.021688183738633536,"17":-0.1981624366767679,"18":-0.40794368810176085,"19":0.22898450439693346,"20":-0.019292809790036967,"21":0.18289496954155512,"22":0.16251525871391223,"23":-0.2671972560844203,"24":-0.0602081794106525,"25":0.7721208850165123,"26":-0.06346551554726561,"27":-0.16655572950022726,"28":0.03605968215261745,"29":-0.16045961797219174}},{"sx":1,"sy":1,"depth":30,"w":{"0":0.06740911295490665,"1":0.16674079582126589,"2":-0.19151223091851174,"3":-0.14001661342753066,"4":0.21142447317256843,"5":-0.023307747609168004,"6":0.17047061478742395,"7":-0.25192559779639884,"8":-0.04499426886123964,"9":-0.11987596009984233,"10":-0.05687596194760398,"11":-0.06921872144526231,"12":-0.3276965439056818,"13":0.1844837521590414,"14":-0.1378016871390981,"15":0.18702729939943386,"16":0.33202042570563833,"17":-0.15332369163247894,"18":-0.626756216588878,"19":0.19945085600179377,"20":-0.15518431913842093,"21":-0.14944275369244192,"22":0.2594786598131292,"23":-0.1046188335353302,"24":0.14835437573198432,"25":0.6843478008731514,"26":-0.261250378707217,"27":-0.13483313236537692,"28":-0.27405498129623324,"29":0.012852076200535675}}],"biases":{"sx":1,"sy":1,"depth":4,"w":{"0":0.11767372507453168,"1":0.07901699732793283,"2":0.042297904312382,"3":0.056141405855092814}}},{"out_depth":4,"out_sx":1,"out_sy":1,"layer_type":"regression","num_inputs":4}]}