{"layers":[{"out_depth":41,"out_sx":1,"out_sy":1,"layer_type":"input"},{"out_depth":30,"out_sx":1,"out_sy":1,"layer_type":"fc","num_inputs":41,"l1_decay_mul":0,"l2_decay_mul":1,"filters":[{"sx":1,"sy":1,"depth":41,"w":{"0":0.031501778579105855,"1":-0.24540100865057954,"2":-0.06856585355888244,"3":-0.07353145886689745,"4":-0.05413650860908434,"5":0.16696082739649007,"6":0.06654000386648534,"7":0.09527075705044959,"8":-0.24087694169370208,"9":-0.0340299910130671,"10":0.11261615143170953,"11":-0.13415236804128802,"12":-0.025844071411571343,"13":-0.0002900656869174061,"14":-0.07717946871393538,"15":-0.03345760639187067,"16":-0.04578581455757288,"17":-0.04642842789716114,"18":-0.019819705482477013,"19":-0.10141221791307216,"20":0.0051716137762158314,"21":-0.00043139523703027984,"22":-0.08349650541827464,"23":0.013170691286009601,"24":0.007802933203991044,"25":-0.13264954752519073,"26":0.04277456112873919,"27":-0.04785243718729118,"28":-0.25023258785052876,"29":-0.09622528948062162,"30":0.10899471838959253,"31":0.057444163786044104,"32":-0.1738311419428917,"33":-0.18524922150042267,"34":-0.04008071746030545,"35":-0.12998471690708624,"36":-0.1740174619672823,"37":0.11193677666152939,"38":-0.09323118133844989,"39":0.14150463452334824,"40":-0.21969095190958238}},{"sx":1,"sy":1,"depth":41,"w":{"0":-0.38557644831310806,"1":-0.13752078775145116,"2":-0.16965639272935013,"3":-0.07422680375307748,"4":-0.10722574166485818,"5":-0.14156681845709126,"6":-0.01346455112750168,"7":0.26137618061707524,"8":0.05338790521773012,"9":-0.07862067007132924,"10":-0.2966745811412081,"11":-0.027411146855026658,"12":-0.0077401079788690435,"13":0.13456390283947753,"14":-0.029918909336857844,"15":0.08441995262809052,"16":-0.0016302994484070222,"17":0.00385863363231995,"18":0.15626105436819485,"19":-0.09925330345594527,"20":-0.09323257926929523,"21":-0.28644266932789836,"22":0.051679039845990184,"23":0.171753407577006,"24":-0.2346758046503162,"25":-0.05558982026149032,"26":-0.05582107018114283,"27":0.22252357134075723,"28":0.02453851407108698,"29":0.10561630535804933,"30":0.13706781545994812,"31":-0.022615072437666188,"32":0.07034718664119315,"33":0.035259808779414946,"34":-0.1356124521651393,"35":-0.01374517318288289,"36":-0.036923236861736985,"37":-0.0213744136592222,"38":-0.027131574812522454,"39":0.09783302703142305,"40":0.07197002387130376}},{"sx":1,"sy":1,"depth":41,"w":{"0":0.17391055348754714,"1":-0.09067786145196162,"2":0.16782284870829806,"3":-0.34062269183335625,"4":-0.21890153394254575,"5":-0.03014490555030046,"6":-0.09780559170267222,"7":-0.003131438350543048,"8":0.1621409352123618,"9":-0.059887459315311566,"10":0.017700952288162923,"11":0.11561226201853314,"12":0.003839162527621916,"13":-0.11235904213637404,"14":-0.07032411862539256,"15":0.17204515851849458,"16":-0.1532375072302506,"17":0.01721328478066018,"18":-0.02349199052446896,"19":0.056465880167658564,"20":0.0683754985143954,"21":-0.204838131774861,"22":0.00011071311935667454,"23":0.04097211911281201,"24":0.10691538172846157,"25":-0.18093899040031486,"26":0.22442566030942496,"27":0.014447781030659402,"28":0.07354124826989807,"29":-0.0797753869055021,"30":-0.2784690257229201,"31":-0.21629051522090076,"32":-0.3211536493801897,"33":0.11539969164873073,"34":0.14970763565419834,"35":0.11420617533028915,"36":-0.04496409531956589,"37":0.07561515888502493,"38":0.058841046432395114,"39":0.0748009694154653,"40":0.046098349002548}},{"sx":1,"sy":1,"depth":41,"w":{"0":0.03529747277620526,"1":-0.015314810504640593,"2":-0.08535384613699377,"3":-0.000920584380415634,"4":-0.13553885766058826,"5":-0.06266609219736058,"6":0.09372103818630392,"7":0.05849403673037506,"8":0.11839425809164404,"9":-0.3654525284740724,"10":0.11175043719137523,"11":-0.009761635858094482,"12":-0.006471246243518274,"13":-0.007180940878493772,"14":-0.18923159195254366,"15":0.08472583776112931,"16":-0.22749895376961812,"17":-0.2071523855188287,"18":0.08209434467715163,"19":-0.12369006386511877,"20":-0.13139294457533632,"21":-0.13110621852931845,"22":0.1699501258149269,"23":-0.09287814459657953,"24":-0.0827211731659157,"25":0.2817868523445748,"26":-0.13353620255526374,"27":0.12746135404084702,"28":-0.07187919217493309,"29":-0.06626718024403527,"30":-0.08714714412216112,"31":-0.15381871665804017,"32":0.41865612450614526,"33":-0.09819980657677899,"34":-0.12950948306289034,"35":0.001676018031838839,"36":0.1067596039148029,"37":-0.0981449502128311,"38":0.11157655252943305,"39":0.1738437924086512,"40":0.06653657312169874}},{"sx":1,"sy":1,"depth":41,"w":{"0":-0.18236395026809477,"1":-0.23582455002129235,"2":-0.08182278938666042,"3":-0.15422856263107196,"4":-0.0010674372332025535,"5":-0.258701078101302,"6":0.15403399497363424,"7":0.09658373127885801,"8":-0.0010048044373954922,"9":-0.04879341198947061,"10":-0.07158176855947214,"11":-0.10901664710753674,"12":0.09304981390394847,"13":-0.09750397435738697,"14":-0.16612057102838837,"15":0.09382905042518813,"16":-0.1072321421186197,"17":-0.19397816548836858,"18":0.07673623679986265,"19":-0.24384473299423684,"20":0.005128645028351389,"21":0.14133964815117406,"22":-0.09028799293383198,"23":0.036103569423123066,"24":0.018001770130329366,"25":0.2520755273341508,"26":0.04379381535745677,"27":0.08367088973418933,"28":-0.08157813631325211,"29":-0.19509734801176162,"30":-0.11037051073003157,"31":-0.10136225052436204,"32":-0.04101199644922717,"33":0.040984543863329954,"34":0.21821184848052425,"35":-0.039543709287008365,"36":-0.1472180579271731,"37":-0.1821767866787387,"38":0.000883566253551506,"39":0.025229297361052564,"40":0.11614637172261881}},{"sx":1,"sy":1,"depth":41,"w":{"0":-0.26577688507523417,"1":-0.15263479876139038,"2":-0.21828075514461553,"3":-0.28603492932334645,"4":-0.12261687785545335,"5":0.0006746035903938733,"6":0.04442314537964147,"7":-0.32682640547944003,"8":-0.250397030034932,"9":-0.16144526816509802,"10":-0.18471218788464044,"11":0.00241363351076328,"12":-0.1636746984260662,"13":-0.057224648892518215,"14":-0.2609553331623088,"15":-0.1552697348974697,"16":-0.1509550204149018,"17":0.060590279330636355,"18":-0.21635451759572008,"19":-0.23337913552722564,"20":0.12542871658576465,"21":0.19516414540621305,"22":0.04974304300093944,"23":-0.058869442271179434,"24":-0.022425687595393637,"25":-0.0474227988858137,"26":-0.02265265607072896,"27":-0.24222464189432946,"28":0.06511513610410279,"29":0.12478035187350262,"30":-0.11621191019205165,"31":-0.06071845744927893,"32":-0.09036043830130684,"33":-0.027782057182053354,"34":0.3381014242376997,"35":0.20720718412309944,"36":-0.003615974037411776,"37":0.06981713584698544,"38":0.12376057846735074,"39":-0.07945099375692587,"40":0.1137910106055902}},{"sx":1,"sy":1,"depth":41,"w":{"0":0.273961132572407,"1":-0.07197229978232947,"2":0.17952197865641553,"3":-0.11124225030120474,"4":0.03773268796802959,"5":0.22162368992513518,"6":0.12426885531906484,"7":0.22262414187922328,"8":0.2641908810304079,"9":-0.10907520309147276,"10":0.11581295556360612,"11":-0.17283863626687587,"12":-0.16771878619473624,"13":-0.20762355428303875,"14":0.06759234450268682,"15":0.06238104555432062,"16":-0.20801484142013754,"17":-0.10616207979649148,"18":0.09102310567997876,"19":-0.1616636123813683,"20":-0.05122409414323124,"21":0.024813434821122898,"22":-0.07592209392035129,"23":-0.29449804811931546,"24":-0.006238641349574553,"25":-0.022160504366047665,"26":0.10359234627777987,"27":-0.05976938416691202,"28":0.1345864934645101,"29":-0.034348174594189075,"30":0.015407743749952794,"31":-0.010864277100606836,"32":-0.012144359766561245,"33":0.05583775192983132,"34":-0.14711105042775446,"35":0.11225942062586505,"36":-0.08360224729002189,"37":0.1381765762752653,"38":0.12973807569916232,"39":-0.24795730551055087,"40":-0.00011005414993033078}},{"sx":1,"sy":1,"depth":41,"w":{"0":0.2889915777000737,"1":0.10236164635966548,"2":-0.0559328624483241,"3":0.035547221764916696,"4":0.12234910741835933,"5":0.029818069424778708,"6":0.028345955895581268,"7":0.1981653085690532,"8":-0.11065725632005888,"9":0.1072353708571522,"10":0.10993072642693717,"11":-0.0897441427535617,"12":-0.3727119629109102,"13":-0.12129607888185676,"14":-0.018902106392622325,"15":0.1894187972113153,"16":0.06795751092229732,"17":-0.11926984861795754,"18":-0.008746667647907946,"19":0.0360357853259182,"20":0.15526041766049808,"21":0.012680190686699934,"22":0.28952851703440297,"23":-0.004196928834097689,"24":0.026347277797774512,"25":-0.15301019321869178,"26":0.10601351865740585,"27":0.019418418308946323,"28":-0.030182484967735075,"29":-0.03555052540159176,"30":-0.05351541833529769,"31":-0.15628145252577896,"32":0.03746999077111033,"33":0.15623497101341896,"34":-0.055381209107125226,"35":0.28448669260435716,"36":-0.07355661522343768,"37":0.1520260151233314,"38":0.02022405653663371,"39":-0.13469975951969582,"40":-0.11285143649458203}},{"sx":1,"sy":1,"depth":41,"w":{"0":0.027795911112149706,"1":-0.02899423015689137,"2":0.1143405851072924,"3":-0.12329989623252775,"4":-0.034167489275566364,"5":-0.025784537477423878,"6":0.11677608035623602,"7":-0.044292916469670034,"8":-0.014345787143941283,"9":0.012070090232521665,"10":0.08597713654659446,"11":-0.00537951106015353,"12":-0.18813511919107886,"13":-0.012123697153002357,"14":0.07477473024670625,"15":0.11284044030181964,"16":0.019184368053484595,"17":-0.2961319842862156,"18":-0.001328309122224551,"19":-0.15382100846026808,"20":0.02666814570512734,"21":0.1870675916122144,"22":-0.043705270534880776,"23":0.17585803197604874,"24":0.10270284728369794,"25":-0.16809378107178824,"26":-0.18238343979713045,"27":0.018160429504065684,"28":0.007450507797029027,"29":0.07347974403517953,"30":-0.0674118963500415,"31":0.03200910574272644,"32":0.12875581093002522,"33":0.2144383370513495,"34":-0.1348776497865146,"35":0.055952999429662614,"36":-0.08001431793199136,"37":-0.027319063100833908,"38":-0.08358448833733546,"39":-0.39634710557998104,"40":-0.09725169486309965}},{"sx":1,"sy":1,"depth":41,"w":{"0":0.2550978588788651,"1":-0.15979945659248415,"2":0.3285524803230091,"3":-0.06938807937653685,"4":0.22940619631784806,"5":-0.19929945235491295,"6":-0.24839918351542575,"7":-0.1420418027895123,"8":-0.0851343156371018,"9":-0.18807060096104805,"10":0.21926747444425534,"11":0.09680638995906195,"12":0.23527919507774062,"13":-0.011047722532564048,"14":-0.06806381499953115,"15":-0.02708011665864974,"16":-0.006278452263180322,"17":0.061129858839202494,"18":0.007900364372279855,"19":0.04918003360913182,"20":-0.13576461331582587,"21":-0.05987202971043715,"22":-0.24376579031347848,"23":-0.007023196198872775,"24":-0.023512179994740038,"25":0.09394969284041056,"26":0.2809708410813666,"27":-0.07219508526885542,"28":-0.12435854534528812,"29":0.053373613412922606,"30":-0.03964987256293465,"31":0.04949497556698954,"32":-0.007372202184194599,"33":-0.19353733015464247,"34":-0.17622714111386356,"35":0.09015029802939763,"36":0.099607556991288,"37":-0.14940808609066364,"38":0.22651741136301215,"39":-0.20527734521087973,"40":0.2573868683029314}},{"sx":1,"sy":1,"depth":41,"w":{"0":0.10120032984678665,"1":-0.1124871350930222,"2":-0.08359107607244652,"3":0.09719181770213636,"4":-0.04745808126640165,"5":0.18790147771915233,"6":-0.00345073721089629,"7":0.06808813678230694,"8":-0.0003618524642898359,"9":0.03536252612490936,"10":-0.17489873340590265,"11":-0.09663842698063786,"12":-0.040983923512927255,"13":-0.2811018560108105,"14":0.05858837632660478,"15":-0.15018170195808522,"16":0.09046287881070514,"17":-0.18761495124273572,"18":0.14614780860246426,"19":-0.1257726765652917,"20":-0.025018490133516747,"21":0.1640903992413204,"22":0.04940613582946163,"23":-0.18140899560885954,"24":-0.08730242031348637,"25":-0.19391190094043334,"26":-0.001774004345036445,"27":-0.2528545921111461,"28":0.24814058808838815,"29":-0.13420438161561138,"30":0.21984082040770792,"31":-0.07024796727907809,"32":-0.16666949363121802,"33":0.005305563381902696,"34":0.0531273316313706,"35":-0.035149874462748754,"36":0.24663796891362097,"37":-0.029766323475262303,"38":0.08788322161334101,"39":0.14770724787081047,"40":0.02097606676262189}},{"sx":1,"sy":1,"depth":41,"w":{"0":0.010656807770547892,"1":-0.08379484701665496,"2":-0.24817313993529352,"3":-0.15665282434672953,"4":0.013195527448927288,"5":-0.10383637727605856,"6":0.2235746152958902,"7":-0.09705558919772173,"8":0.18281629618100545,"9":0.06058381508710175,"10":0.1899637635882202,"11":0.3182677655627781,"12":0.2697994080521338,"13":-0.12432302962387277,"14":-0.04652122644947805,"15":0.12891340783597963,"16":0.05480895546613496,"17":0.06010514634787553,"18":0.001147483113386053,"19":-0.07320398523087264,"20":-0.06311665040024529,"21":-0.06562193358868629,"22":0.04880724749665763,"23":-0.00921342509033623,"24":-0.20170384704006955,"25":0.055737760772068934,"26":0.16562915889556484,"27":-0.04839810043664616,"28":0.12655508058596246,"29":0.32260560922827636,"30":-0.19793620599002204,"31":-0.051317266845659175,"32":-0.17615447343212381,"33":-0.1576859555147237,"34":0.154222106397941,"35":-0.1492358271206819,"36":-0.3446246244491726,"37":-0.36279609980021593,"38":0.06764074152848203,"39":-0.1881568770887591,"40":0.017753057944242086}},{"sx":1,"sy":1,"depth":41,"w":{"0":0.08379652879613474,"1":0.16792535355623667,"2":-0.25289416275446863,"3":-0.10309685822696396,"4":-0.022348593717538626,"5":-0.16554788782439916,"6":-0.047862994853966445,"7":-0.0560256595880105,"8":0.2827537639615067,"9":-0.20170713495009449,"10":-0.2712688554052119,"11":-0.09896771769145543,"12":0.20783804066786618,"13":0.17763076364581326,"14":0.17332177106209196,"15":0.21565717534902953,"16":0.025645051398203788,"17":0.1281405744131185,"18":0.15380849810421568,"19":0.0009440599946429443,"20":-0.1504255046602284,"21":-0.15008976741101782,"22":-0.10315155446338105,"23":-0.14612070544467526,"24":0.08394338671994223,"25":-0.009860208937611354,"26":0.10267930346484931,"27":0.18855404536947026,"28":-0.11133504724887393,"29":-0.13868790425290722,"30":0.07756105520053506,"31":-0.018993817470501332,"32":0.16434547230257743,"33":0.10014376067359954,"34":-0.003008510771454963,"35":-0.0810548018574067,"36":-0.05209186769255016,"37":0.14602508264819708,"38":0.10647317234311292,"39":-0.0020756493267058665,"40":0.12606837343945132}},{"sx":1,"sy":1,"depth":41,"w":{"0":-0.03968644741548222,"1":-0.003696618682332837,"2":-0.29805473414345623,"3":-0.10535492260852253,"4":-0.014604717693953556,"5":0.14380338770380216,"6":0.10062644313621495,"7":0.0779555876163716,"8":-0.06555128373802012,"9":0.19804561292146133,"10":-0.08437182605515017,"11":-0.33564397703944765,"12":-0.06968083433391174,"13":-0.02006370898156365,"14":-0.11243238717069017,"15":-0.06614514555370442,"16":-0.11400753899407126,"17":0.11225049588855761,"18":0.2504071723264198,"19":0.05264185769551861,"20":-0.04143504679807572,"21":0.15012613461301347,"22":-0.15548063068208617,"23":0.0816667598848549,"24":0.24213206195212772,"25":-0.1331866213950861,"26":-0.07718302990048016,"27":0.06929257377660307,"28":-0.38780074341018367,"29":-0.05202309336073228,"30":-0.10075610958501344,"31":-0.5436958403984881,"32":0.10681049550905186,"33":-0.16047564754220167,"34":0.22415710914079837,"35":0.05060637876152745,"36":0.09374808710210752,"37":-0.1267175622689218,"38":0.054967346100404775,"39":-0.047617739772249056,"40":0.14306105398763627}},{"sx":1,"sy":1,"depth":41,"w":{"0":0.2937635056212676,"1":0.05887684712647235,"2":0.21840672227014776,"3":-0.05792199689137353,"4":-0.19854871863226722,"5":0.024653614468188693,"6":-0.11828448980776402,"7":0.18750443981641698,"8":-0.14875930459381717,"9":0.08532718057028701,"10":0.05333458182075449,"11":0.11409179951592459,"12":0.02457558011767078,"13":0.04621606214682029,"14":-0.012502155146487651,"15":-0.07928928944378182,"16":-0.09842905465156068,"17":0.002286751720527757,"18":-0.015562096399890788,"19":-0.4366160763092638,"20":-0.002361843600469737,"21":0.03659568469440092,"22":-0.09196524621530872,"23":-0.05205835248174094,"24":-0.10585452549089057,"25":0.006022155904148895,"26":-0.057370429631492366,"27":-0.026243752258829484,"28":0.02600162383651617,"29":-0.04105569465233214,"30":0.04421547605002928,"31":0.3094110533421021,"32":0.06289080201199258,"33":0.028393496473833144,"34":-0.07591680172518335,"35":-0.019860507056622474,"36":0.11162888042425126,"37":0.06913702344033502,"38":-0.02907997947515312,"39":-0.26155360225868135,"40":0.011458578793965368}},{"sx":1,"sy":1,"depth":41,"w":{"0":0.15812859521866868,"1":0.47534726289933565,"2":0.4558091207753657,"3":0.5747739697642067,"4":0.5948376760694762,"5":0.4755415333856024,"6":0.6547227520267662,"7":0.6448400512209244,"8":0.2877478986683912,"9":0.6634407023406128,"10":0.4278814666304863,"11":0.14336944180731914,"12":0.10646928769383641,"13":0.08023361114222306,"14":0.001741309568890351,"15":0.07166990927704345,"16":-0.1465938201462249,"17":0.02601193718132608,"18":0.01904804782473806,"19":0.36774625493409446,"20":0.18435972263884623,"21":0.3209841212597376,"22":-0.07026620442235755,"23":-0.0014109415831152384,"24":0.005513872972453318,"25":0.018366851153535608,"26":0.03906232822653558,"27":-0.059344815140610165,"28":-0.09560375217373727,"29":-0.10353639001054375,"30":-0.005001014944700916,"31":-0.10286912954498294,"32":-0.07207529315404078,"33":-0.0007626464218133342,"34":0.5198050444302343,"35":0.025697506358312083,"36":0.08137066261017493,"37":-0.021668710902087156,"38":-0.017845308507391862,"39":-0.025928606032805727,"40":0.017457316213306893}},{"sx":1,"sy":1,"depth":41,"w":{"0":-0.5399022881261099,"1":-0.4108441130261944,"2":-0.3188480974026693,"3":-0.3344502833609478,"4":-0.42844974621001364,"5":-0.39951643445052126,"6":-0.6210393407182847,"7":-0.2584781025092563,"8":-0.46952691818412895,"9":-0.3472576931545803,"10":-0.4616636164833827,"11":-0.027813728668068853,"12":-0.16610412472793737,"13":-0.23829794693449077,"14":-0.15438549707422553,"15":-0.1391968513340261,"16":-0.285050468477379,"17":-0.01920328419711945,"18":-0.052471832877411834,"19":-0.14687489115872926,"20":-0.29644789927925563,"21":-0.155564691766997,"22":0.04492347118771293,"23":0.06069541855871303,"24":0.04062288265061338,"25":0.057915347596051145,"26":0.04185763464017651,"27":-0.2596884300306658,"28":-0.1388325133785749,"29":-0.38430664676201043,"30":-0.029572405825915297,"31":-0.2047917507573417,"32":-0.14617409105916562,"33":-0.08272256499630638,"34":-0.14504868599999432,"35":-0.24905444542430863,"36":-0.24928203220022774,"37":0.03933035218897648,"38":0.041757825447823874,"39":0.04888824755491859,"40":0.045432844350315825}},{"sx":1,"sy":1,"depth":41,"w":{"0":-0.20397124576889822,"1":-0.15074489866560212,"2":-0.29205686694092553,"3":0.14265985891235838,"4":0.15723130868867013,"5":-0.15473405619488156,"6":0.1776838227199402,"7":-0.21472243728392157,"8":0.062205495576833546,"9":-0.1795807460584751,"10":-0.34842735069101,"11":0.11327551189803686,"12":-0.06181953277485277,"13":-0.059190878295408665,"14":0.019993148745411637,"15":0.1618931685111688,"16":0.2237936963116509,"17":-0.11996663827419254,"18":-0.2161878931234125,"19":-0.02674310339881875,"20":-0.23652957106972364,"21":0.1305880436876904,"22":0.05454054626948143,"23":0.24757946458018973,"24":0.20912256678929733,"25":-0.088380708692349,"26":0.17723098048611355,"27":0.08263970407135451,"28":0.1333837789760953,"29":-0.017756543924561097,"30":0.12216667157971656,"31":0.041614209596322865,"32":0.14037799304043666,"33":-0.10403942528328311,"34":-0.03852576275179716,"35":0.0179022628257181,"36":-0.0741182868985196,"37":0.25927818157815957,"38":-0.08538224267454361,"39":-0.1287785546127737,"40":-0.12976576907886989}},{"sx":1,"sy":1,"depth":41,"w":{"0":-0.0408915181249174,"1":0.32497857066069,"2":0.12836472313461947,"3":-0.20711317212221858,"4":0.19099417952454625,"5":-0.14464457805148956,"6":0.21315740496871202,"7":-0.13126132176111072,"8":0.5139092696871959,"9":0.024928383211145128,"10":-0.2452043799028856,"11":-0.23379264990955148,"12":-0.2835134517377658,"13":-0.1131293794889785,"14":0.22372901350026553,"15":-0.35002047590003754,"16":-0.10056644492495993,"17":0.15293996272129934,"18":-0.19122407572102587,"19":0.2446472720952292,"20":0.2350447116792627,"21":0.010732884193421229,"22":0.06572861798350806,"23":0.023985084906573043,"24":-0.10191177233846023,"25":-0.02209947993470257,"26":0.060544738837195876,"27":-0.09562950642324698,"28":-0.03293487734400612,"29":0.1528176467659216,"30":-0.15036013583360017,"31":0.07610452938686695,"32":0.09592635348588162,"33":0.15454973211415876,"34":0.10673005759485323,"35":0.1507379008262183,"36":-0.06888048284386628,"37":-0.12394411176218345,"38":-0.2130669326447751,"39":0.14378287777085982,"40":0.15269443069820016}},{"sx":1,"sy":1,"depth":41,"w":{"0":-0.2561079132472138,"1":0.07898730133294907,"2":0.07255168889620259,"3":0.10000989420238222,"4":-0.006706690955360293,"5":-0.1952972320843354,"6":0.09346504164454687,"7":-0.1859201880657667,"8":0.004071573699930827,"9":0.013960450874696835,"10":0.3043358359661267,"11":0.061782649403247236,"12":-0.09749992151295558,"13":-0.114373499028645,"14":0.25236876673417774,"15":0.17161710481356737,"16":-0.18535851994096633,"17":0.027259727420158298,"18":-0.15490480078570887,"19":0.05820969242038157,"20":-0.03214796196192185,"21":-0.08320849752106772,"22":-0.20814251219755334,"23":-0.002171325402864316,"24":0.006056696162821618,"25":-0.14510581411981888,"26":0.02207143030877221,"27":0.09727884192144022,"28":-0.18643392404618125,"29":0.14807300766170217,"30":0.026048444395818895,"31":-0.05934658795022871,"32":-0.032171053742873455,"33":0.027766488562658932,"34":-0.1593531518996102,"35":-0.2957870907261954,"36":-0.03512974828932574,"37":0.2773426979953735,"38":-0.015536901749095446,"39":-0.1250848044335405,"40":-0.03831406259093984}},{"sx":1,"sy":1,"depth":41,"w":{"0":0.17167236479734804,"1":0.2502435900939542,"2":0.032770047820199204,"3":-0.013915077357599026,"4":-0.08087058786921746,"5":-0.054884851873442254,"6":-0.1726428825888876,"7":0.29052329401152865,"8":-0.11325078497021976,"9":0.21905977106168498,"10":0.1486524136873749,"11":0.26314529568863715,"12":0.020071598155468374,"13":-0.24055650069727294,"14":0.18798115210416322,"15":-0.1873296339353952,"16":0.0856197436016402,"17":-0.07046965933027677,"18":0.008830891643127014,"19":0.02372384396242161,"20":-0.15340549082683225,"21":-0.006425689359238517,"22":0.10486471114855808,"23":0.022106116063869752,"24":-0.022385718876742483,"25":0.07608788861053961,"26":0.23483868475519085,"27":-0.07493505707459334,"28":0.17330432500434506,"29":-0.008879031605157519,"30":-0.144639720551783,"31":-0.09582902712091479,"32":0.13497228106203668,"33":-0.14871300409480417,"34":-0.014574930448529252,"35":-0.00959748894973768,"36":-0.015950352806483634,"37":0.04481551019671022,"38":0.1405164945151149,"39":0.2570112579515211,"40":-0.12054878553948634}},{"sx":1,"sy":1,"depth":41,"w":{"0":-0.06400188189669997,"1":0.21885771845823013,"2":0.158844910927368,"3":-0.01495483560618027,"4":0.24399649064493792,"5":0.13104527531536142,"6":0.0765668312938516,"7":0.12947036865362666,"8":-0.10406177588925167,"9":-0.09028650813944229,"10":-0.19313671041046093,"11":-0.2705115884875528,"12":-0.07823109536249435,"13":0.2527129965796453,"14":0.38066229868484425,"15":-0.0535995504121645,"16":0.07770269871595531,"17":0.19676828099829027,"18":-0.045657517773032355,"19":0.025288069661706023,"20":-0.09268958394763602,"21":0.09855135464856647,"22":0.0028204783585394047,"23":-0.2281127433985565,"24":-0.22939064465691406,"25":0.1506404848639232,"26":0.13595698959004268,"27":-0.009765429859956843,"28":-0.04159249950300576,"29":-0.1882157978869106,"30":0.02587629767428826,"31":0.17006561352812147,"32":0.04296416106077158,"33":0.02473018855331464,"34":-0.06800874155464154,"35":0.09483902392617899,"36":0.15261831199608067,"37":-0.1724592773933138,"38":0.14257336705125986,"39":-0.01340089947132919,"40":-0.17264265882483287}},{"sx":1,"sy":1,"depth":41,"w":{"0":0.25554296790436726,"1":-0.047465067161484895,"2":-0.0670571601296884,"3":0.17280999816191242,"4":0.024707048032861906,"5":-0.03854320120052548,"6":-0.07741052567541974,"7":-0.09862754598642946,"8":-0.21610664723870524,"9":-0.012386425127488977,"10":-0.1409362558926405,"11":-0.14532068780137394,"12":0.1166058482974865,"13":0.0950676965569505,"14":-0.17336491205283333,"15":-0.01261216200334407,"16":0.08261726356240418,"17":-0.12061115378153721,"18":-0.24281618365627347,"19":0.15249573068570035,"20":-0.041796973662581074,"21":0.1243738602458611,"22":-0.32745873030441286,"23":-0.06881914263003923,"24":-0.21003481075944133,"25":-0.18637063023600112,"26":0.024414548206109086,"27":-0.10003498568749433,"28":-0.04359622338229595,"29":0.032127951263693916,"30":0.034718255935224714,"31":-0.03009009428068519,"32":0.2917236287659202,"33":0.18399297661284222,"34":-0.0635308946120554,"35":0.25898503828453684,"36":0.10980552282923436,"37":-0.1282353379110644,"38":-0.009648641841298246,"39":0.13156774965987442,"40":0.13233713582745543}},{"sx":1,"sy":1,"depth":41,"w":{"0":0.16766168498998646,"1":-0.06542179777588358,"2":0.1325602233847842,"3":0.0291471967499701,"4":0.09710464198591706,"5":0.006631230296016718,"6":-0.10685157481745962,"7":0.06658405675601564,"8":-0.0385966565607291,"9":0.08024126829699073,"10":0.1864149355785945,"11":-0.04741206564276418,"12":-0.06150008372694785,"13":0.05413388231350025,"14":-0.1945826998246218,"15":-0.10033854324226898,"16":-0.010536266538966823,"17":0.013665845361306472,"18":-0.10842495912883998,"19":-0.11242208717052612,"20":0.0826549463973496,"21":-0.08199201516544777,"22":0.002566031676869819,"23":0.043108451420231876,"24":0.052166190770791314,"25":0.19490119170386994,"26":-0.11942776961953076,"27":0.16729419513955465,"28":0.31103645231154675,"29":-0.24216501708868451,"30":-0.12156820062478532,"31":0.022131564622553276,"32":-0.03560861246699809,"33":-0.06204492060522407,"34":0.19003959427575395,"35":0.17176360893428783,"36":0.24740458375085414,"37":-0.025319328467859434,"38":0.004808470374799958,"39":-0.02928576837844665,"40":-0.03595927716326052}},{"sx":1,"sy":1,"depth":41,"w":{"0":-0.09808191587167582,"1":-0.2997492507832415,"2":-0.04938930696988121,"3":-0.00942301830846122,"4":-0.04631927842388495,"5":0.014541633307545094,"6":-0.27792786284115495,"7":0.020133860145405812,"8":-0.10950971307838758,"9":-0.14233678105714614,"10":-0.1686392833098088,"11":0.23407077283816016,"12":-0.2146014319459141,"13":0.120331800940181,"14":-0.06851476400721127,"15":0.07605377317606336,"16":0.062458662467196994,"17":-0.030500300610628608,"18":-0.06519217482057521,"19":-0.20900261295826641,"20":-0.3006790010299324,"21":0.1260163557349269,"22":0.15117110205387432,"23":-0.050856967425156815,"24":-0.0922431039840752,"25":0.18418196760404495,"26":-0.05330573392217749,"27":0.023083891592040322,"28":0.227690707524206,"29":-0.07619418901391661,"30":-0.059925364454552967,"31":-0.14668578996134948,"32":-0.011217966124481041,"33":0.2399671228614206,"34":0.15115740981002965,"35":0.142731351939175,"36":-0.05798964438530683,"37":-0.058828566223667764,"38":-0.15793882848843507,"39":0.0414414851760887,"40":-0.15987206563379094}},{"sx":1,"sy":1,"depth":41,"w":{"0":0.0601014274544189,"1":0.0053713360755899015,"2":0.023917313589393172,"3":0.07121013725538086,"4":0.10287643405556281,"5":-0.041239241183191985,"6":-0.024676866794320473,"7":0.04064405490281961,"8":-0.12946671941109367,"9":-0.018832079252490357,"10":-0.09637676895773893,"11":0.1262884060225528,"12":0.1841293104356787,"13":0.10691729543316146,"14":-0.2374979966469748,"15":-0.1250483953043391,"16":-0.09830911903952902,"17":-0.1616460791419333,"18":0.08707421580171418,"19":0.08380619937219241,"20":0.17668477056133872,"21":-0.1867611706429787,"22":-0.12415567386299797,"23":-0.02818119668443612,"24":0.08219842495723566,"25":0.05835565596833261,"26":-0.01565238136716177,"27":0.1430271311281344,"28":0.04617274705146329,"29":-0.04777918251148819,"30":-0.19830964207203436,"31":-0.12294105105375264,"32":-0.031755886711541774,"33":0.11116786124516324,"34":0.2659193922424764,"35":0.13398363068683017,"36":0.022000868868622524,"37":-0.2677009681448921,"38":-0.3287281029701278,"39":-0.25183374116262847,"40":-0.18495717591715638}},{"sx":1,"sy":1,"depth":41,"w":{"0":0.133898535927407,"1":0.19269855942860495,"2":-0.15986191814613102,"3":0.08846187553025153,"4":-0.12461341535855622,"5":-0.05447389426862599,"6":-0.07610033391952967,"7":-0.010377074808083213,"8":0.11190333562402906,"9":-0.07463894250065692,"10":0.06676917859797818,"11":0.15808617154401172,"12":0.13344752301269983,"13":-0.17569764443532768,"14":0.11806848871355828,"15":0.14326415164685977,"16":0.011440875110926564,"17":0.1001389993638265,"18":-0.037830950185437244,"19":-0.1144807093276185,"20":-0.047583573531666576,"21":0.0926142881721812,"22":0.03517568166809433,"23":0.14904524312877424,"24":0.20409469100840036,"25":-0.25128253246838717,"26":-0.08244794888051937,"27":0.045562875804666426,"28":-0.09064961785030473,"29":-0.1725318783811133,"30":0.17248153693717144,"31":-0.026985169533227975,"32":-0.1841774599000438,"33":-0.02571898427125644,"34":-0.11764415257679124,"35":-0.11047377878615253,"36":-0.0007580684851824196,"37":-0.10229942101118554,"38":-0.030023163815493255,"39":0.10906253951410591,"40":0.08917437496957467}},{"sx":1,"sy":1,"depth":41,"w":{"0":0.06298357837107332,"1":-0.0036657351102568746,"2":0.08316431526169492,"3":0.024257926791157413,"4":0.11616133415385561,"5":0.20275030527981858,"6":-0.1034772846762349,"7":-0.07205756026015685,"8":-0.09226246234654219,"9":0.10239233972553992,"10":-0.19395436627917648,"11":0.0241522974570456,"12":0.22007846938197645,"13":0.31347725062896487,"14":0.06473848256328106,"15":0.24331810123034445,"16":-0.10494742034375405,"17":-0.016958596944906763,"18":-0.04550898982712042,"19":-0.1744234025683036,"20":-0.10068754615864046,"21":0.039768850705216297,"22":0.21964869256754052,"23":0.039701714417738364,"24":0.1859238325311333,"25":-0.08086705674920694,"26":0.2552213263932659,"27":0.16938583530085688,"28":0.07157814056126761,"29":0.10293784191740557,"30":-0.11335641287256987,"31":0.10547878123552605,"32":-0.17134668360969804,"33":-0.17195233889676928,"34":0.16413856005084967,"35":-0.09597511445079145,"36":0.10664092304907652,"37":-0.2785322985764879,"38":0.1191462972921161,"39":0.02415147470406782,"40":-0.026228952767672342}},{"sx":1,"sy":1,"depth":41,"w":{"0":0.09985569751772562,"1":0.04801936810480217,"2":-0.13799503271904953,"3":-0.20260727079260032,"4":-0.09961955456801089,"5":0.19181911211406216,"6":0.09246714247095916,"7":-0.01718656710832781,"8":-0.061602422637070865,"9":0.18610413818400548,"10":-0.12068098098700217,"11":0.06781783579373271,"12":0.2334271699307539,"13":0.2555827118218398,"14":0.032177660737940365,"15":0.0634238657050893,"16":-0.1241966684851929,"17":-0.1215055442927156,"18":-0.002169989489534063,"19":-0.04102458313432189,"20":-0.02589371008415077,"21":0.07571610680172355,"22":-0.16940650720246156,"23":-0.20916137365596443,"24":0.09392860745541891,"25":0.21875464521971427,"26":-0.060742443933441595,"27":0.050445864358973684,"28":0.06650971227063772,"29":0.06121459694026279,"30":-0.039213333351992376,"31":-0.12280316842869768,"32":0.07184208113374338,"33":0.03052958196068414,"34":-0.18063872742615103,"35":0.12072686696267905,"36":-0.12360661650574879,"37":0.06654549376577969,"38":-0.01563029522452581,"39":0.10954383804491441,"40":0.11888233350191671}},{"sx":1,"sy":1,"depth":41,"w":{"0":-0.0627713876118412,"1":-0.14407099737987233,"2":0.0634999897900582,"3":0.05872424296642811,"4":-0.16944231341685684,"5":-0.1636456491651231,"6":-0.08055440918075882,"7":-0.08147561183475795,"8":0.028313968480061975,"9":-0.10927649110351494,"10":0.1669183504284593,"11":-0.05675543176470958,"12":0.037875397942462495,"13":0.15452746031996994,"14":0.0661728925879926,"15":-0.09891311091934009,"16":0.315226972452561,"17":-0.027882021877352885,"18":0.05277996316379666,"19":-0.15929448839003435,"20":0.03035231740142669,"21":-0.2926023114862245,"22":-0.1322238370040415,"23":-0.07143774031913734,"24":0.5205397216626523,"25":0.137697589854762,"26":-0.032748241731665205,"27":-0.08520497371115925,"28":-0.10416295275345148,"29":-0.12821875913207367,"30":0.12310085560361686,"31":0.15131900322776065,"32":0.16348261700084998,"33":0.2294033787178862,"34":0.05103113326963542,"35":0.1611301226190787,"36":-0.08667637163464485,"37":0.225120983079733,"38":-0.17434134056391426,"39":0.08073092968369323,"40":0.2172720887454458}}],"biases":{"sx":1,"sy":1,"depth":30,"w":{"0":0.09349274714064329,"1":0.08875948967292428,"2":0.10506022374810559,"3":0.10382223691886172,"4":0.09115725708081357,"5":0.09645660271056013,"6":0.10267197897546326,"7":0.09371031407996162,"8":0.09546262437660784,"9":0.09645660714541239,"10":0.09332898726752795,"11":0.09117492765937765,"12":0.1104477007827335,"13":0.0993972683987098,"14":0.09343389314582633,"15":0.0971821929146652,"16":0.10507682388097873,"17":0.09623846048732328,"18":0.09850451193323592,"19":0.0925341031222373,"20":0.10139440083905897,"21":0.10289446990864304,"22":0.09191743498771043,"23":0.11921983799038924,"24":0.09147016765412483,"25":0.07903963597413824,"26":0.10181549436682828,"27":0.10580234021548392,"28":0.09534033521951671,"29":0.10396041787228998}}},{"out_depth":30,"out_sx":1,"out_sy":1,"layer_type":"relu"},{"out_depth":30,"out_sx":1,"out_sy":1,"layer_type":"fc","num_inputs":30,"l1_decay_mul":0,"l2_decay_mul":1,"filters":[{"sx":1,"sy":1,"depth":30,"w":{"0":-0.07100619368512613,"1":0.1739763975724338,"2":0.025559193147315157,"3":-0.16585328611925054,"4":0.12704220992727713,"5":0.3665581561179591,"6":-0.10721150143925337,"7":-0.33345357100568035,"8":-0.11824276501671065,"9":0.10160430381669679,"10":-0.06825358200723844,"11":0.06147273534006858,"12":-0.04117807866900504,"13":0.2352542647501007,"14":-0.09065838528887325,"15":-0.002614700768213276,"16":-0.05842371818939529,"17":-0.07251300966545701,"18":0.4075742056011859,"19":-0.1343086734848647,"20":0.0732013191791181,"21":0.29316927544145477,"22":-0.15329300985165453,"23":-0.08937831584626632,"24":0.15573726736152013,"25":-0.07716633888228933,"26":-0.10922849792918357,"27":-0.1188966788738413,"28":0.26835004998312484,"29":-0.08266011879220789}},{"sx":1,"sy":1,"depth":30,"w":{"0":-0.05136376939375526,"1":0.08335298060416739,"2":0.053946503660318765,"3":-0.08610375718886612,"4":0.2493724260409996,"5":-0.09979726121863629,"6":-0.09544091994692093,"7":0.09520043694234195,"8":-0.014443790935588539,"9":0.07784406035875202,"10":0.12214102220570269,"11":-0.1502620727029852,"12":0.22768534947905317,"13":-0.19271325000643316,"14":0.06443980546916499,"15":0.06968323739958492,"16":0.4004279341529062,"17":-0.024258655770371753,"18":-0.29235026757312454,"19":0.01919143716323917,"20":-0.06677371383467334,"21":0.0943833184524489,"22":-0.27929023964022376,"23":-0.03024700404442649,"24":0.09245495874493793,"25":-0.07354647714925058,"26":0.15784880006006155,"27":-0.01256216924942741,"28":0.03602810632975015,"29":-0.0009428275372630001}},{"sx":1,"sy":1,"depth":30,"w":{"0":-0.22656998087948044,"1":-0.16471770710562056,"2":-0.13415378009089912,"3":0.1946222745588957,"4":-0.07671125193487359,"5":-0.14054999891256736,"6":-0.07367176163877397,"7":0.034589850828134795,"8":0.047870763806595884,"9":-0.03716091507693189,"10":0.17562950113334105,"11":0.04973074254981981,"12":-0.104103715917954,"13":0.0465340417141742,"14":-0.10706966803903374,"15":-0.12922195661714367,"16":0.12661112072419933,"17":-0.13548454824861433,"18":0.08181811739341488,"19":-0.16490201044438071,"20":-0.1117888461462784,"21":-0.0935861888992301,"22":0.12561407598654883,"23":0.2043293681486503,"24":0.10500628743528548,"25":-0.07522691938631906,"26":-0.2228974903691598,"27":-0.09261201611299287,"28":-0.4935701025138907,"29":-0.07966349888325874}},{"sx":1,"sy":1,"depth":30,"w":{"0":0.05229613072673734,"1":0.2904989550667833,"2":0.14691821497114407,"3":0.015648884651977956,"4":-0.016880376704086982,"5":-0.0017551543945545664,"6":0.34923988587507293,"7":0.020413221943004822,"8":0.02725382283716397,"9":-0.17456604124592567,"10":0.06993251786818655,"11":0.11121150026786313,"12":-0.15521308247563967,"13":-0.09608973673229523,"14":-0.06537067546809773,"15":0.383089827196043,"16":0.024443514693734597,"17":-0.0656565966915271,"18":-0.17157578491364506,"19":0.09939693859460215,"20":-0.13895369400744875,"21":0.057189212881210524,"22":-0.023671748368287067,"23":-0.16547702335014586,"24":0.35963456235059665,"25":0.1945937306454579,"26":-0.12703431575641283,"27":0.027801573318110936,"28":0.18249539444885057,"29":0.0798894648068349}},{"sx":1,"sy":1,"depth":30,"w":{"0":-0.1913526811679084,"1":0.32930323580923426,"2":-0.08507779256537691,"3":0.20070697071429228,"4":0.1133277025318498,"5":-0.04207444435737827,"6":0.27186329765754647,"7":-0.49135436307111824,"8":0.1290812368325446,"9":-0.026909445430475784,"10":0.04882135595582301,"11":-0.2969591266097399,"12":-0.27025001079685973,"13":-0.02049107103396353,"14":-0.25082138718104924,"15":-0.11164566242100858,"16":-0.0011807740938271259,"17":0.09553798435736456,"18":0.029230338557843544,"19":0.2265384403831029,"20":0.049059873321424266,"21":0.3991544545969998,"22":-0.14050520928861698,"23":-0.027914902934423627,"24":0.0633820949732841,"25":-0.20166371799472826,"26":0.01880604723004314,"27":-0.10655252949998138,"28":-0.1785528395374131,"29":-0.14030688274082215}},{"sx":1,"sy":1,"depth":30,"w":{"0":0.1155331298907164,"1":-0.05237027460434136,"2":0.08610281575428538,"3":0.18314688172241902,"4":0.039152600864702326,"5":-0.037041549826572505,"6":-0.06781744203998934,"7":-0.381315705484294,"8":0.07735133788840964,"9":0.10373770259748842,"10":0.07202842768222868,"11":-0.18295799906949253,"12":-0.3389470348172878,"13":-0.03821049440151152,"14":0.014625874577269014,"15":-0.1858227980985675,"16":-0.08369363219966211,"17":0.02422837466380855,"18":0.17388228420052784,"19":0.07173932359296836,"20":-0.2176103332592177,"21":0.1249970238049796,"22":-0.12471078311524486,"23":0.24943323078316695,"24":0.012047666017447957,"25":-0.17520264105138053,"26":0.1968828371579277,"27":-0.1317230376864144,"28":0.1875354528619254,"29":-0.25514744573888315}},{"sx":1,"sy":1,"depth":30,"w":{"0":0.14100495121557338,"1":-0.36752068117622383,"2":0.27480097977362816,"3":-0.0025754729132023424,"4":0.17313474472304835,"5":0.0013018759436585821,"6":0.10247202250031996,"7":0.014541712403529456,"8":0.15525307908587008,"9":0.10501855545002226,"10":-0.0890537177898678,"11":-0.2642617349559811,"12":-0.1514493123968914,"13":0.16566480399277939,"14":0.11333052953963865,"15":-0.11111215102639384,"16":-0.04234999122502557,"17":0.15770551725954055,"18":0.191531725222266,"19":-0.09023935444096542,"20":0.23750276143427446,"21":-0.15043632944897417,"22":0.06578401158444441,"23":-0.036869994527559104,"24":0.03264625357665579,"25":0.1103928632908151,"26":-0.3148518766601197,"27":0.2851496187225285,"28":0.08921359664221928,"29":0.09177422302231854}},{"sx":1,"sy":1,"depth":30,"w":{"0":0.20501235128302953,"1":-0.13034554161422876,"2":0.12158554201903708,"3":-0.27267937387167007,"4":-0.18792458358315114,"5":-0.2180938552812985,"6":-0.0022775129507764933,"7":-0.1326871971581797,"8":0.06166323710512822,"9":0.0641625456062983,"10":0.039647153807833124,"11":-0.002084095955004425,"12":-0.2167544072985918,"13":0.4209511340963046,"14":-0.28677953478001444,"15":0.22905610861274867,"16":-0.3134723216755302,"17":-0.05598162942030008,"18":-0.12324595683734724,"19":0.07203294223383748,"20":-0.19101702005232268,"21":-0.23813586633882272,"22":0.02901237376765035,"23":0.03721344877094407,"24":0.009389896333282391,"25":-0.1357496408846357,"26":-0.2021146982676121,"27":-0.023303624474589574,"28":0.46441542642371036,"29":0.06352108237186778}},{"sx":1,"sy":1,"depth":30,"w":{"0":-0.24228715490183497,"1":0.046347554845972465,"2":-0.13991930769815264,"3":0.028728141237087758,"4":-0.03248397999330752,"5":-0.05154608424787847,"6":-0.19565882525612993,"7":0.10688067053641227,"8":-0.08675960705449892,"9":0.2940492679526942,"10":-0.3501485901434448,"11":-0.08854845120130234,"12":-0.054962267608222856,"13":-0.21562228111453094,"14":0.296807257944823,"15":-0.022220025454649642,"16":0.0034418000972425066,"17":-0.011857105107450394,"18":-0.19392696013941257,"19":0.09000058899461785,"20":0.04807222187009282,"21":0.16337989123128915,"22":-0.27089621814320336,"23":0.19399218747751068,"24":0.030633197725388216,"25":-0.21054541464325444,"26":-0.07565560638240057,"27":-0.042557876887294926,"28":0.09622833644612538,"29":-0.23543683074839572}},{"sx":1,"sy":1,"depth":30,"w":{"0":0.2268459403740457,"1":-0.15137390824749788,"2":-0.18515098710957348,"3":-0.12689943610221238,"4":-0.12092868455262142,"5":-0.11692298851427627,"6":0.21157004324581874,"7":0.15647053533050015,"8":0.270542152209611,"9":0.047558349154670415,"10":0.15089405907369144,"11":0.21462479279089292,"12":0.08770208197604966,"13":0.2541806740005788,"14":0.2128300160339572,"15":-0.1509999710447503,"16":-0.23503703279818322,"17":-0.0567034413376989,"18":0.041982230524172964,"19":-0.30223692729964713,"20":0.03418185659716728,"21":-0.04940973685316479,"22":0.30946163794178216,"23":0.17449370865844527,"24":-0.13958220586283757,"25":-0.020081354209359432,"26":0.2954772297776713,"27":0.027367024084655366,"28":-0.005059884424713833,"29":-0.3291643314378558}},{"sx":1,"sy":1,"depth":30,"w":{"0":-0.1315281577877295,"1":-0.25326213531163433,"2":-0.1671240973005557,"3":0.08067742793218256,"4":-0.026743764393954417,"5":-0.15348242640950652,"6":-0.04828168777203748,"7":0.10919141493936568,"8":-0.05576013342085417,"9":0.06026884319422931,"10":0.08378462405532205,"11":0.28610397501982426,"12":-0.1578248385592583,"13":0.2764801641718312,"14":-0.23861200823431042,"15":-0.05949217327595994,"16":-0.021217451227514943,"17":0.2548677031245314,"18":0.07710457285342506,"19":-0.3947453834511841,"20":-0.01561773547438796,"21":0.07192067224901032,"22":0.389823269614032,"23":-0.020078108681793463,"24":0.007957255772852426,"25":0.1494797381256369,"26":0.017972039695856454,"27":-0.05031787814454796,"28":0.10801503201345555,"29":0.03816385802100524}},{"sx":1,"sy":1,"depth":30,"w":{"0":-0.34140312777936993,"1":-0.21758952417712213,"2":-0.2451496972169353,"3":0.14514882945404875,"4":-0.2404077361674235,"5":-0.004878887395884499,"6":-0.11717787274128473,"7":0.14082031854549756,"8":-0.11863275394097254,"9":0.2563098873384475,"10":-0.304876096720363,"11":0.18844967952156805,"12":-0.20789953566053535,"13":0.17546364403683293,"14":0.03403903631165558,"15":0.11606844146358225,"16":-0.10064678939228229,"17":0.01932337405038731,"18":-0.015224490349999453,"19":-0.10628000060438231,"20":-0.16605872067061456,"21":0.14951857080388073,"22":-0.30541214253084076,"23":0.030693632940617586,"24":-0.06743602028626929,"25":-0.14832936982733386,"26":0.020866854911175937,"27":-0.011182819395162233,"28":0.003220242929755273,"29":0.23209716596538701}},{"sx":1,"sy":1,"depth":30,"w":{"0":-0.20769490404600285,"1":-0.28843124171375883,"2":0.014415019486953588,"3":-0.03900169926973415,"4":-0.022909429659680115,"5":-0.10797515953296069,"6":-0.21935408015318217,"7":-0.028517722181716113,"8":-0.05530647450177842,"9":-0.032003552702291334,"10":-0.03372431452352321,"11":0.06213280490607501,"12":0.13369892152069274,"13":0.1114850877456288,"14":-0.007477287430595199,"15":0.4284210821434003,"16":-0.39368797841187725,"17":0.1717586425227114,"18":0.0305809374961734,"19":-0.05281839116034215,"20":0.11621697635756459,"21":0.04015405736182683,"22":-0.01934613631556621,"23":0.09850009130091514,"24":-0.10897007915881514,"25":-0.3949790497533523,"26":0.06330637318772123,"27":0.17451828541746744,"28":0.021474979915992665,"29":-0.14595950990881074}},{"sx":1,"sy":1,"depth":30,"w":{"0":0.08712342618570924,"1":-0.08490870876833644,"2":0.14600554767068116,"3":0.05268982713076916,"4":-0.09365949930254683,"5":0.04951801252254987,"6":-0.0391329055155993,"7":-0.007833930623194834,"8":0.043075081597797875,"9":0.16123565944760018,"10":-0.11536491932567587,"11":-0.22898091806440804,"12":0.0763895614903541,"13":-0.0874408225087057,"14":-0.04609168939590182,"15":0.01804238731045038,"16":-0.10519971484116729,"17":-0.0912346287618623,"18":0.2441257998923849,"19":0.04420143783437272,"20":-0.2430148336858518,"21":-0.05742924080258792,"22":0.029455725442618805,"23":-0.040162168963511116,"24":0.033110951716792375,"25":0.18642464784069507,"26":0.2787343083697511,"27":0.14018254843422726,"28":-0.20530651404877986,"29":-0.2412964400056046}},{"sx":1,"sy":1,"depth":30,"w":{"0":0.006517919625491306,"1":-0.21595259005990608,"2":-0.22254715619479223,"3":0.061920204288797395,"4":0.2629167875808607,"5":0.3239450441097278,"6":-0.27576951142677314,"7":0.058938246127352635,"8":0.021090298953617238,"9":0.17125379576976488,"10":-0.047386467128042266,"11":0.18171791597226514,"12":-0.2835535461808775,"13":-0.15790544782797786,"14":-0.22506583844939393,"15":0.12089898566753146,"16":0.16024429268767848,"17":0.02858378891701808,"18":-0.18089263200018546,"19":-0.28871793614442615,"20":-0.030760646911259765,"21":0.04491138890177539,"22":-0.11203621581367447,"23":-0.10837291559075249,"24":-0.03562935458871674,"25":0.24057540188320534,"26":-0.15843553433130342,"27":-0.28790673105966813,"28":0.0840138184310366,"29":0.01968383420059724}},{"sx":1,"sy":1,"depth":30,"w":{"0":0.17142708249673141,"1":0.11003755094767473,"2":-0.023992579579761735,"3":-0.26254328430382307,"4":-0.17681298831971431,"5":0.05110775126748559,"6":-0.12169054990628969,"7":0.04287850948778698,"8":-0.17319331532449844,"9":-0.09028653785063438,"10":-0.01590884695978652,"11":0.23727967682119494,"12":0.11765796328343221,"13":-0.12461533273800098,"14":-0.0017210699859034533,"15":0.180927480785729,"16":0.06853190918780247,"17":0.07216635639391876,"18":-0.04030344123481391,"19":0.4208788530799573,"20":-0.12414618693681304,"21":0.10965131737313909,"22":0.06687301295167125,"23":0.18482478586785522,"24":0.08109942297350767,"25":0.057481469943713136,"26":0.1792478211504795,"27":-0.037608937516803054,"28":0.12213865937583376,"29":0.06644243483761482}},{"sx":1,"sy":1,"depth":30,"w":{"0":0.19668001595118395,"1":-0.26156830906732487,"2":-0.05094298313554036,"3":0.08267597575284528,"4":-0.26358715498673774,"5":0.027685200933395857,"6":-0.0821823561106239,"7":-0.28497678564741136,"8":0.32209853392255616,"9":0.14077474158711795,"10":0.16458829871284256,"11":0.14714361668854742,"12":-0.04234513113998386,"13":-0.1610919832031647,"14":-0.17578666434377116,"15":-0.33392349317026204,"16":-0.1228297882504174,"17":0.07502372829040209,"18":-0.18667149047625226,"19":-0.08616562250879134,"20":-0.0079512232837554,"21":0.10753336080563912,"22":-0.14202989331633378,"23":-0.0720675705512663,"24":0.06740184707285435,"25":-0.41249010983313134,"26":-0.09597411683100487,"27":-0.0076128139037017015,"28":0.16446805217419316,"29":0.06526252316342318}},{"sx":1,"sy":1,"depth":30,"w":{"0":0.20692138932355325,"1":-0.018228962830721805,"2":0.06615627966746859,"3":-0.22843729987000075,"4":-0.19251194352370912,"5":-0.03469596091090614,"6":-0.03225733330343028,"7":-0.0681093424901086,"8":-0.12880908048601344,"9":0.033405240241319495,"10":0.1691689054240556,"11":0.2306830684499531,"12":-0.17014080433486378,"13":-0.07566800187514744,"14":-0.14503300785682485,"15":0.24723541138992436,"16":-0.15136503082889916,"17":0.10047157839836503,"18":0.21727807623975992,"19":0.2398843249913947,"20":0.06272476309144155,"21":-0.1164127814846633,"22":0.24380406228019294,"23":0.15200964220330918,"24":0.05850787697538395,"25":0.04061679990379056,"26":0.07616783264174923,"27":0.12072368100279414,"28":-0.07279562591231366,"29":-0.1475594138918401}},{"sx":1,"sy":1,"depth":30,"w":{"0":-0.15236308082205216,"1":-0.2612551739666609,"2":0.14475786789726214,"3":0.030555142330618852,"4":0.09419476722950651,"5":-0.3056119254530256,"6":0.34220108353276424,"7":0.16702236136904916,"8":0.3788984952760292,"9":-0.00011444886777366906,"10":0.008461304312521685,"11":-0.21656621056431008,"12":-0.3530965646176802,"13":0.045721922258681505,"14":0.019163170825537267,"15":0.32830306984476143,"16":-0.7676566683699618,"17":0.016251600005885606,"18":0.25473534732526226,"19":0.16664351842457437,"20":-0.06153171873503754,"21":0.08779096473855959,"22":0.295080820572546,"23":0.12886303056338122,"24":-0.22997736522385012,"25":0.2657287778212148,"26":0.11867828221621027,"27":0.16917851685718005,"28":0.011012454718176353,"29":-0.0029278825851655186}},{"sx":1,"sy":1,"depth":30,"w":{"0":-0.07014468419014337,"1":0.5045420484795294,"2":0.13505941529393845,"3":0.014299455529044438,"4":0.04647944840544982,"5":0.1499246669879266,"6":0.09440005216384535,"7":0.16550049719193316,"8":0.309066643433058,"9":0.36789334262148393,"10":-0.22384431394257004,"11":-0.08822612246024417,"12":0.21556225230205311,"13":0.39425500879346964,"14":-0.12446267732540865,"15":-0.29133071916242065,"16":0.24187886213398363,"17":0.0466487421370246,"18":0.022759278973670635,"19":0.3186456512429543,"20":0.06318931025185028,"21":-0.14466947778111655,"22":0.288911921519835,"23":-0.009743745090084433,"24":0.13027376388456208,"25":0.20939823642315275,"26":0.11892862817250839,"27":0.7161951006072502,"28":0.529532303139608,"29":-0.08246078256338729}},{"sx":1,"sy":1,"depth":30,"w":{"0":0.15949655809063806,"1":0.17477758822864764,"2":0.061120894390274925,"3":0.09049945515032291,"4":-0.09450902260465789,"5":-0.11906215416341832,"6":0.013233068273910466,"7":-0.06982336334084638,"8":-0.10692744038705448,"9":-0.10367107233164972,"10":-0.14925591527877752,"11":0.007913706224340773,"12":0.10164902860721577,"13":-0.10157022151683086,"14":0.11809415160301498,"15":0.05901678454791179,"16":-0.13243487211508378,"17":-0.17301393892896125,"18":0.025379444314699785,"19":-0.14934182706522114,"20":0.08192405807247306,"21":0.25576652060442207,"22":-0.06746905136970477,"23":0.07203169567311485,"24":0.24363606724138387,"25":0.01446457557400162,"26":-0.05697065579838817,"27":-0.256994247165525,"28":0.1598109944507331,"29":0.04812045515756782}},{"sx":1,"sy":1,"depth":30,"w":{"0":0.4424226769163168,"1":0.0076060203570824155,"2":-0.07840223693279197,"3":0.14613331483976208,"4":-0.1483968795656293,"5":-0.037284416432562875,"6":-0.03996008840322172,"7":-0.0954785023698359,"8":-0.18757031099151403,"9":-0.1151560983162716,"10":0.18922115405074724,"11":0.20737902301080993,"12":0.043172103222702846,"13":-0.04848519010609799,"14":-0.17148562943925724,"15":-0.02288009222913926,"16":-0.17400910442982653,"17":-0.18463923122764683,"18":-0.053113347569041985,"19":0.1150363688234851,"20":0.0877943557861656,"21":-0.14194772962531343,"22":0.06302009851598463,"23":0.11587507255515353,"24":0.004627163486822728,"25":0.09349083064587527,"26":-0.16618336171816428,"27":-0.22890001459156775,"28":-0.10362668205560546,"29":0.14153082030600622}},{"sx":1,"sy":1,"depth":30,"w":{"0":0.285902023613295,"1":-0.08932744102229798,"2":-0.1142474822064087,"3":-0.060716188304092394,"4":0.10591659987474046,"5":-0.18486205083278218,"6":0.06615654711355727,"7":0.0499737304504093,"8":0.070301451845902,"9":-0.19898491278370206,"10":0.14456288225231645,"11":0.23053485067758706,"12":0.29253475640977594,"13":-0.09155202339429079,"14":0.031438159964687094,"15":-0.2727464934405336,"16":0.33665482225458815,"17":0.012600181410387783,"18":0.0937778465114227,"19":0.007050176414771208,"20":-0.030244900483407736,"21":0.3706201820171783,"22":-0.2542685974477765,"23":0.02560136966332894,"24":0.014919282650698132,"25":-0.1522150380394441,"26":-0.24642020664981412,"27":0.04934488901018485,"28":0.0697058778054999,"29":-0.06788280076522601}},{"sx":1,"sy":1,"depth":30,"w":{"0":-0.320847388907568,"1":0.06927185358659081,"2":0.1642050687388907,"3":0.12428679230587181,"4":-0.1342159196772307,"5":0.0005582333578431056,"6":0.11498254729478177,"7":0.14036308388030733,"8":-0.08902916143439199,"9":0.11729224352731753,"10":-0.2595584914489703,"11":0.08685700355379958,"12":-0.02069658379199257,"13":-0.06758532911550141,"14":-0.14327711446159094,"15":0.0020760485867257297,"16":-0.3754682710869528,"17":-0.012802329255441584,"18":-0.02272377218855599,"19":-0.024519695443930914,"20":-0.23702081361436242,"21":0.06097760669392353,"22":0.09939371514382171,"23":0.2617064196029135,"24":-0.04233769490649193,"25":0.07804831557545049,"26":-0.12832069453485725,"27":-0.0768976647240136,"28":-0.07243807038486119,"29":0.10735408996974145}},{"sx":1,"sy":1,"depth":30,"w":{"0":0.10087680247141408,"1":0.09095789585863473,"2":-0.07527262500019327,"3":-0.025609995522826747,"4":0.05540280051191009,"5":-0.019857497063285646,"6":0.058643441836469884,"7":-0.26686961034994283,"8":-0.04098591635838889,"9":-0.05740661330254842,"10":0.19505136203037518,"11":0.19982413948331437,"12":-0.023891625022062834,"13":-0.025247550742662706,"14":0.17896026388145664,"15":0.09980542635172998,"16":-0.09586661349046846,"17":-0.32054915432598463,"18":-0.2081398009845287,"19":-0.23038454132737993,"20":0.06367933402904359,"21":-0.07821961255050398,"22":0.001147655042855425,"23":-0.39043361339408883,"24":-0.05625199809154089,"25":-0.17497865604162893,"26":-0.017559297063035374,"27":0.02387439585224488,"28":-0.14131889626339994,"29":0.02002624085139043}},{"sx":1,"sy":1,"depth":30,"w":{"0":0.04691154857516512,"1":0.10379356669885616,"2":0.23027014974673957,"3":0.2759527578909863,"4":0.15787621102085522,"5":0.42147900253281106,"6":-0.08050597752998803,"7":-0.18195873838889473,"8":0.028501992918864447,"9":0.02158533439584504,"10":-0.10743902289445653,"11":-0.04906380194909198,"12":0.0878756464050453,"13":-0.0021560532410850024,"14":-0.00011283200611171288,"15":-1.4171195378753847,"16":0.9700120375488269,"17":0.13647484071007804,"18":-0.24629308121264604,"19":-0.01948990193788727,"20":-0.0859218472207792,"21":-0.15559873875462665,"22":-0.01710415496290587,"23":0.07367402815712919,"24":0.099391598838154,"25":-0.301650847152066,"26":0.2876615167973544,"27":0.0036661132071675803,"28":0.1321615099643252,"29":0.002379934977937605}},{"sx":1,"sy":1,"depth":30,"w":{"0":-0.12083926703214735,"1":-0.322417133846207,"2":-0.04999063648647991,"3":-0.08974094563211213,"4":-0.1446203092614107,"5":0.3588353213975319,"6":0.13259749958733302,"7":-0.04926538521766781,"8":0.16387176817436597,"9":0.2129360973547087,"10":-0.08459209938893401,"11":0.25021149252168057,"12":0.1625624985113144,"13":-0.11622879265607403,"14":-0.12068209327988173,"15":-0.17287996477879258,"16":-0.3094876937125827,"17":-0.25053899115097567,"18":-0.2868656501891794,"19":-0.2651051784903168,"20":0.0230547848415297,"21":0.04331031501460385,"22":-0.012502665617080915,"23":0.15733940661545665,"24":-0.05543206579095747,"25":0.15839504187248374,"26":0.3408267408842242,"27":0.05193396222079471,"28":-0.28067448779359894,"29":-0.26724554933706063}},{"sx":1,"sy":1,"depth":30,"w":{"0":0.22012756070138492,"1":0.09670189904610958,"2":0.18555630634979522,"3":-0.015392463419599127,"4":0.29003457206143457,"5":-0.1963847907441682,"6":0.06375215264288701,"7":-0.10985978599085229,"8":-0.04835984831103858,"9":-0.17722145885572996,"10":-0.0033234911058331864,"11":-0.2651020086725644,"12":0.03838607516319709,"13":0.21189631865921665,"14":0.0762250962200668,"15":0.15873777307077008,"16":0.04719146570284604,"17":-0.12965637171614794,"18":-0.3578495400267557,"19":-0.3689706433219074,"20":-0.01970729571103944,"21":0.05624623109980922,"22":0.1329856135768075,"23":0.038561561599998434,"24":-0.07532078454506455,"25":-0.10035312873260273,"26":-0.4472183388505042,"27":0.08433537919579694,"28":-0.1548916327005135,"29":0.2123957617260849}},{"sx":1,"sy":1,"depth":30,"w":{"0":0.2764159179553776,"1":0.043884981813432804,"2":0.03502514190487662,"3":0.029693103385043936,"4":-0.14877740741782244,"5":0.14798112409711464,"6":0.26850876483264646,"7":0.04196829063275534,"8":-0.16448121241797323,"9":-0.07452992511206497,"10":0.06540601298746139,"11":-0.36240258855760615,"12":-0.12941789198080558,"13":-0.08396458387168583,"14":0.32185917739340075,"15":0.13236554741755546,"16":-0.01311961136816918,"17":0.14391175351219068,"18":0.09576770865409687,"19":-0.28148095948962387,"20":-0.18968910185338653,"21":-0.11603858442608256,"22":-0.23688647049574646,"23":0.008432828599996178,"24":0.18737487078087545,"25":0.012550397043574031,"26":0.14605060905586287,"27":0.07390733113763978,"28":-0.00917985141444875,"29":-0.4328466536481072}},{"sx":1,"sy":1,"depth":30,"w":{"0":0.06733857702554334,"1":-0.10508361538563031,"2":-0.19708305578896282,"3":0.22933842926212306,"4":-0.05931700630373002,"5":-0.013549068487103954,"6":-0.08631039049544953,"7":0.21778321365090736,"8":-0.03523625894396303,"9":0.1213422795647933,"10":0.07407466218409699,"11":-0.37678376919638784,"12":-0.08202929655427355,"13":0.36850602022718076,"14":-0.0019313436210706414,"15":0.4582816291179879,"16":-0.02966924368907025,"17":-0.04332365873626064,"18":0.027140865395956476,"19":0.20516920966457552,"20":0.168539023777553,"21":-0.19185077523470506,"22":0.10551641576174113,"23":0.023597401628776868,"24":-0.12820248521214767,"25":-0.22974021914117052,"26":0.08791824103891302,"27":0.0957568071316548,"28":0.31394421330143296,"29":-0.21234173975826037}}],"biases":{"sx":1,"sy":1,"depth":30,"w":{"0":0.09065995869603004,"1":0.08336644182210491,"2":0.09839689729693678,"3":0.09832169543825053,"4":0.12170332747438194,"5":0.10842390755648947,"6":0.10708046997286436,"7":0.09760665262945817,"8":0.09941312357889986,"9":0.10614491176319282,"10":0.09868770995014331,"11":0.10902738597447136,"12":0.09955322157127926,"13":0.09438803407820279,"14":0.08206475205385627,"15":0.08803469244432863,"16":0.09761419547143062,"17":0.09641473814797871,"18":0.0988533964353269,"19":0.12790521883861727,"20":0.0909227383004772,"21":0.08934658080923816,"22":0.09338555499976392,"23":0.11183450082559535,"24":0.09774000931147586,"25":0.10970340169735036,"26":0.08488021860598816,"27":0.0852410167084988,"28":0.08943237080870485,"29":0.08313922635445427}}},{"out_depth":30,"out_sx":1,"out_sy":1,"layer_type":"relu"},{"out_depth":4,"out_sx":1,"out_sy":1,"layer_type":"fc","num_inputs":30,"l1_decay_mul":0,"l2_decay_mul":1,"filters":[{"sx":1,"sy":1,"depth":30,"w":{"0":0.03706341307560992,"1":0.24365423624927285,"2":0.13049265558821638,"3":0.08265572477113232,"4":0.11042808766781359,"5":0.1853888500695398,"6":-0.14338849122325734,"7":-0.25421111930245727,"8":-0.06872014325272222,"9":-0.22996268812145543,"10":-0.06842266459369314,"11":-0.1200000439905337,"12":-0.4401047428317128,"13":-0.1577386164985535,"14":-0.14880503364067754,"15":0.014218086545085105,"16":0.18778991504410553,"17":-0.15085134078907736,"18":-0.44345939955453456,"19":0.3496057591274481,"20":0.015848884647241115,"21":-0.2427002909552502,"22":-0.07075740176922465,"23":-0.233731367036959,"24":0.009771504504067387,"25":1.1546849657556257,"26":0.020192998114740183,"27":0.000050505906209937526,"28":-0.11243953336026699,"29":-0.17101859833196054}},{"sx":1,"sy":1,"depth":30,"w":{"0":0.0415263082085981,"1":-0.025588771833413102,"2":-0.05965705120977619,"3":0.09244098481182335,"4":0.09600196487642738,"5":-0.020241603176711434,"6":-0.05200943076058758,"7":-0.16026232118744974,"8":0.008766142210542912,"9":-0.307981441660072,"10":0.14713517516821276,"11":-0.19220456644641232,"12":-0.24736316312615494,"13":-0.06637228300490311,"14":0.05993763468450412,"15":0.013010453880079953,"16":0.09635150676236905,"17":-0.029273886763835272,"18":-0.49449682638024145,"19":0.2866652340969816,"20":-0.14508370397900097,"21":0.07096393628866061,"22":0.24902362948568751,"23":-0.0850468255619562,"24":-0.06859815507354976,"25":0.8229120841760688,"26":-0.24343234781756937,"27":0.005795043984164855,"28":-0.07790143340923873,"29":-0.23108147894606867}},{"sx":1,"sy":1,"depth":30,"w":{"0":0.011142495056290619,"1":0.3346798263445637,"2":0.029158720642642997,"3":-0.19738259445609987,"4":0.0032017131299212583,"5":0.20495372792285713,"6":0.06698918520617844,"7":-0.34410034714975135,"8":-0.10938483045840867,"9":-0.14013992833259525,"10":0.05115631224798167,"11":-0.03134514219689713,"12":-0.2176761458472104,"13":0.11537924227246561,"14":-0.0891362940120658,"15":0.15044210255842444,"16":-0.020840290103056186,"17":-0.19111759517212187,"18":-0.40776004038070557,"19":0.21946956129026288,"20":-0.01802134948315875,"21":0.18254281122267388,"22":0.17317777933979914,"23":-0.2760388734800197,"24":-0.05986440016892106,"25":0.8212246888731168,"26":-0.05313441735989749,"27":-0.16497668338338523,"28":0.03635032419969088,"29":-0.17242928306557076}},{"sx":1,"sy":1,"depth":30,"w":{"0":0.05961584056319673,"1":0.17101944143433961,"2":-0.18994304321821595,"3":-0.14021998309403533,"4":0.2037609428995573,"5":-0.021425574729796393,"6":0.17204564639504644,"7":-0.24651111703356035,"8":-0.04639027896334126,"9":-0.1240473754162971,"10":-0.0617900741830048,"11":-0.07450697156993596,"12":-0.3315241853576317,"13":0.18653973031155296,"14":-0.13594169640515266,"15":0.18883612985899528,"16":0.3286629319749606,"17":-0.14364857527213523,"18":-0.6268052185308535,"19":0.20011911070204574,"20":-0.1608741111949471,"21":-0.15100443757172127,"22":0.26807370758683413,"23":-0.11420994745043196,"24":0.1463112920996847,"25":0.7315988256501071,"26":-0.25493795999888375,"27":-0.12989948664778875,"28":-0.274993865599778,"29":0.0008725785867962756}}],"biases":{"sx":1,"sy":1,"depth":4,"w":{"0":0.11941931725965332,"1":0.07949274193807425,"2":0.04642692219723849,"3":0.05012352453768622}}},{"out_depth":4,"out_sx":1,"out_sy":1,"layer_type":"regression","num_inputs":4}]}